,	0.007827221	-0.030205667	-0.050294816	-0.028251924	0.06562205	-0.0026401728	-0.07843381	0.027604733	-0.08444128	-0.018053204	-0.0068010474	0.100990094	-0.02748844	-0.036345482	0.037502706	-0.061736584	-0.06480731	0.040122807	-0.13616182	-0.0012567937	-0.021331549	-0.0021543205	0.1076321	-0.08803612	0.0012695789	-0.063966475	0.028832436	-0.0052298605	0.05091992	0.0065414608	0.022375824	-0.010477796	-0.0036790445	0.0022210088	-0.028437078	-0.05402653	0.046972632	-0.011455166	-0.046151213	0.0065618902	-0.023110747	-0.027330117	-0.12567003	0.06267836	-0.04412491	0.015837846	0.024389356	-0.027279228	-0.08106052	-0.040694915
the	0.042986736	0.11279245	-0.1958768	0.076677255	0.07326089	-0.18158868	-0.055069864	0.114015	0.12796731	0.060914338	0.15486722	0.061824497	0.030497536	0.06045334	0.053809732	0.09152411	-0.0316583	0.05234641	-0.05158864	0.047762364	0.0037418306	0.06011477	-0.08863884	-0.04295206	0.07476351	0.04099054	0.04876159	-0.062270984	0.10123764	-0.031331122	-0.018909661	0.055316567	0.011799164	-0.037846074	-0.09674786	0.028386533	0.08033916	0.17899649	-0.004609175	0.020525768	0.02157246	-0.06355863	-0.015024319	0.036060587	-0.020849641	-0.12438677	0.04474257	-0.03877577	-0.07788573	0.09648611
.	0.0043095946	0.061052307	0.04284197	-0.02577476	-0.0035286993	-0.032915995	0.051170677	-0.07800234	-0.03108716	0.098752186	-0.10719685	0.048498236	0.05901648	0.023114681	-0.027561694	-0.10174359	-0.08828911	-0.12532675	-0.03051842	-0.024455994	-0.04809749	0.048665352	0.16200128	0.019881725	-0.046281293	0.04818613	0.11685812	-0.09106247	-0.001609087	-0.031297028	-0.027274314	-0.038081706	0.0078544915	0.08140142	-0.021981273	0.0657658	0.06759471	-0.014803074	0.0077704936	-0.0031488985	0.14633217	0.005356025	0.039075762	0.05093317	0.08459826	-0.050665893	0.071863174	0.04708025	-0.061659187	-0.037699945
and	0.012303963	0.05467768	-0.14751214	-0.097155854	0.05494903	0.053128578	0.019390523	0.017036766	0.039651822	0.048753783	-0.06103556	-0.03117001	-0.019716531	-0.03063295	-0.041985165	0.02387441	-0.07019083	0.09465865	0.06974871	0.025753707	0.06649175	-0.07079229	0.08118242	-0.0952715	0.073940426	0.03997045	-0.11110703	-0.118048936	-0.05426769	-0.015725598	0.011177452	0.02704835	0.093560204	0.049086716	0.04707055	0.023664892	-0.017228205	-0.0067481846	0.048550732	0.020122103	-0.06202511	0.0736365	0.03937742	-0.029471945	-0.11302179	-0.03536431	0.05098013	0.0073673204	0.023372203	0.15030365
to	0.07561056	-0.028757416	-0.087129146	-0.040639196	0.044730008	-0.054342214	0.055720955	0.114466466	0.10463853	-0.032280937	0.010127693	0.16130449	0.07170798	0.03368056	-0.00022510439	-0.0067558438	-0.1380502	-0.17733607	-0.0055653825	-0.056228727	0.01420626	0.019472279	-0.03739834	-0.015764564	-0.14493087	-0.015805706	0.014583662	-0.034022108	0.074862555	-0.025923193	-0.018717699	0.021187663	0.057576697	-0.016147204	-0.020627245	-0.044215277	-0.18043286	0.014093601	-0.04497558	-0.09995835	0.04058259	0.022783004	-0.0330507	0.0304131	-0.039158244	-0.032383237	-0.0025218353	0.106605895	-0.09371083	-0.04187718
-	0.02109702	-0.015907176	-0.21077882	-0.038697623	-0.04528816	-0.06823231	-0.06722811	-0.075143985	-0.13650294	0.08111322	-0.11593996	0.06381771	0.1482743	0.055988066	-0.13453257	-0.19713472	0.11393495	-0.14502746	0.064386204	-0.13913223	0.04146406	0.21697451	0.021646023	-0.17187494	-0.12140474	0.010752853	0.17316467	-0.089132056	0.059433512	-0.19987914	-0.10495729	0.16599123	0.06848045	-0.18180059	0.068794414	-0.1325687	0.3389101	0.06178707	-0.07381144	-0.039938256	0.12018933	-0.038612895	0.056115463	-0.011278212	-0.04705899	-0.12073403	0.064879164	0.07387809	0.058326796	-0.11879142
a	-0.030548036	0.08357588	-0.17227441	0.03419505	0.060726188	-0.06104639	-0.07336706	0.0788801	-0.09518215	-0.062226072	-0.16692588	0.0027041286	-0.08913538	-0.016618088	-0.0031021237	-0.12672745	-0.007238835	0.014487132	-0.11397459	0.006610185	0.021192044	-0.06979862	0.1623286	0.0109317005	0.054480493	0.12626864	-0.09772906	-0.057846785	-0.07777671	0.06878029	0.08801872	-0.10525349	0.010678843	0.008824138	0.019248657	0.034013987	0.06686232	0.17634559	-0.043021657	0.012416065	-0.0150650665	-0.09636938	-0.114975914	0.051729545	-0.08872645	0.086635664	0.080904305	0.12464355	0.096806385	-0.11701991
it	0.08113903	0.013749406	-0.035366237	0.073945515	-0.0853608	0.04471404	-0.04568784	0.061790437	0.052112117	0.079863444	-0.1608437	0.009361163	0.025881141	0.18799406	-0.013996065	-0.103384666	-0.054400966	-0.075568974	0.034762397	-0.028858662	0.0515036	0.07472877	0.12769642	0.020133615	-0.10266562	0.004959561	0.017386138	0.032091826	-0.0016123503	-0.07309462	0.073359765	0.10243626	0.0077819675	0.035818633	0.05046033	-0.037490882	-0.011000164	-0.04516594	0.027372068	-0.01611504	-0.04679221	-0.0834	-0.022512928	0.13636641	0.057170022	-0.05685928	0.080709375	0.14642331	-0.03464377	0.038984008
she	-0.13806045	0.0832279	-0.093648046	-0.00732065	0.03022717	0.025751311	0.028053626	0.030333214	0.29449552	-0.0987023	-0.07529391	-0.030014992	0.021204948	0.07061243	0.026368216	-0.052440763	-0.070945695	-0.014162391	0.048548393	0.06575543	0.023608297	-0.015041526	0.1586389	0.12944824	0.058762297	-0.10216662	-0.12959464	0.04890445	0.11613688	0.099815175	0.08739127	-0.06265509	-0.02677954	-0.0023386255	0.055385426	0.06967008	-0.028263777	0.11629087	-0.064740665	0.08368042	-0.051056303	0.05707577	-0.00016272068	0.004208849	-0.038236853	0.0669443	-0.022625044	0.02733536	-0.05948747	-0.022576295
i	-0.010816902	-0.16433245	0.12365836	-0.02169592	-0.23423263	-0.12743157	0.0029145181	-0.015645444	-0.044190113	0.12542152	-0.122641675	0.13013998	0.19656776	0.13933331	-0.107812345	-0.04409592	0.23819718	-0.24098349	-0.09794897	-0.0058496594	-0.029351383	0.14090705	0.091085464	-0.064186186	-0.41333896	-0.058269147	0.3018251	0.012150854	-0.047941044	-0.4214518	-0.050721496	0.031488985	-0.16499247	0.08828189	0.003328681	-0.09116009	0.09409879	-0.1228019	-0.01817859	0.08241083	0.07758874	0.028382178	0.14085832	0.32829428	0.062603846	-0.17789194	0.087381765	0.13526967	-0.24303024	-0.18740943
of	0.012290731	0.15552162	-0.25315478	-0.20587239	-0.07058701	-0.03327055	-0.07031959	-0.038514048	0.07880178	-0.021910414	0.040794447	-0.0005554259	0.019452661	-0.049035788	-0.10942409	-0.08168973	0.038755268	-0.0721408	0.0059967674	0.04884997	0.124272406	-0.19660091	-0.105175495	-0.02353105	0.010505438	-0.009398356	0.026474103	-0.1921106	0.071217194	0.07289708	0.056419045	-0.08410695	0.08065542	-0.094919756	0.15864483	-0.022848144	-0.027193751	0.020715289	-0.06121639	-0.16766107	0.024761204	-0.027304988	-0.050899312	-0.09258117	-0.16703957	0.03867981	0.09203547	-0.112768725	0.07773605	-0.035925865
said	0.16616441	-0.045231752	-0.08852935	0.10563457	0.13006023	-0.18207741	-0.08246824	-0.102319315	-0.048641637	0.2318522	-0.01757634	0.26197475	-0.06733336	-0.11144646	0.041894794	0.044386365	-0.025495008	-0.21764807	-0.094901115	0.03183064	-0.113140315	0.117071256	0.04368472	0.03289959	-0.04914722	0.1319954	0.25162813	-0.11023628	0.15215816	-0.10257778	0.017478384	-0.028535947	-0.10858124	0.03776891	-0.05670657	-0.097044826	0.16703732	0.009413715	0.02788423	0.006329432	0.15226269	0.06505636	-0.02715844	-0.14846496	0.10122554	-0.018709816	0.043620095	-0.08912647	0.074925765	0.069281064
!	0.12626487	-0.0724133	0.13540724	0.12354277	-0.119320065	-0.12329009	-0.13802221	0.071641326	-0.09739051	0.13403437	-0.013805041	0.21666	-0.17659871	-0.13187793	-0.12426685	-0.018367663	0.061607927	-0.08445398	-0.05699181	-0.031199813	-0.032498345	0.098212585	-0.047315657	-0.0684883	-0.049492776	0.005181305	0.13911378	0.12866327	-0.05097182	-0.22761732	-0.07995106	0.009508282	0.015459709	0.014049381	-0.022138998	-0.07545434	0.12635247	0.017035164	-0.022178367	0.10535834	0.0536455	-0.06752873	-0.020539925	0.08217777	-0.06318554	-0.068285584	0.24505113	0.11024077	0.1141375	-0.097765714
you	-0.012316942	-0.23004624	0.091379195	0.0013299715	-0.17803268	-0.18557456	0.03571698	-0.16716075	-0.08545993	0.26151955	-0.12190018	0.24982624	0.042229876	-0.046173826	-0.0867638	-0.04034087	-0.021022752	-0.20727327	0.08872437	-0.1824571	-0.08939004	0.13257425	0.048923135	-0.06717247	-0.57004297	-0.03533885	0.33673233	-0.1762116	0.13831574	-0.382228	0.08479428	0.18810347	-0.053427182	-0.05641527	-0.08335666	-0.09724707	0.14675221	-0.14514916	0.14000237	-0.074938886	0.14185235	-0.0430937	-0.053550005	-0.015536282	0.040736422	-0.12495123	-0.094098866	0.14466903	-0.3793913	-0.11925718
alice	0.085956566	0.0009226054	-0.11073032	0.023258813	0.059977785	-0.057840414	-0.015649796	0.04253596	0.12145631	0.070488974	-0.10398447	0.13317049	-0.027236953	-0.114635915	-0.041296866	-0.24842532	-0.004725814	-0.1276336	-0.035953563	0.08576691	-0.12599643	0.058410436	0.0059050918	0.049213737	-0.03727269	0.0856597	0.07046884	0.005561948	-0.0013898313	-0.1577758	0.042573147	0.0021554977	-0.09981149	0.069680735	-0.059719525	-0.023061752	0.012153642	0.052338786	-0.04758522	0.046846375	-0.018171258	-0.035019584	0.037490174	0.14770672	0.0167545	0.004021503	-0.012048669	0.030400023	-0.14042597	-0.019118488
in	0.003423065	0.16234796	-0.08388361	0.065097675	-0.03744607	0.12726547	-0.13881744	-0.063312456	-0.037473947	0.058425426	-0.14302856	-0.12070808	-0.027657151	-0.11153372	0.04598412	0.038696073	-0.086962745	0.011338659	-0.104512915	0.055214226	-0.035801172	-0.063814916	0.08896518	0.04559368	0.20083222	-0.019692387	-0.0005815327	-0.13378662	-0.14074439	0.09976518	-0.03184118	-0.11151916	0.1251069	-0.010267347	0.0815686	0.12680855	0.07678919	-0.011694875	-0.02420748	-0.087927125	0.01662327	-0.09893129	-0.0066723973	-0.11634648	0.007245712	0.21612829	0.0328295	-0.0652475	0.02880533	-0.042406812
was	-0.115706384	-0.0013372302	-0.14285958	0.015360712	0.12594226	-0.018567685	0.09615739	0.03478439	0.014272001	-0.17306338	-0.024168167	0.030831337	0.03075251	0.037871923	0.09658256	-0.027790293	-0.13995776	0.021572411	-0.049732246	0.12307435	0.1181003	-0.027496189	0.06922239	-0.085562885	0.030976564	0.0017692894	-0.027109295	-0.05650367	-0.009876385	0.005542785	-0.029774848	-0.024175048	-0.017921083	0.009426117	0.03377717	0.027215004	-0.17367327	0.024932923	-0.053053446	-0.008296043	0.013830803	-0.07477555	-0.08511537	-0.0019249301	-0.021883491	-0.08331384	0.063546106	0.21856639	0.1313802	0.05175195
that	0.03243383	-0.049632415	-0.078492105	0.024460418	-0.024986453	-0.13236067	-0.11992398	0.05929908	0.023682676	-0.011121586	-0.028504021	0.01244729	0.16529268	0.015217073	0.029539868	-0.066971704	-0.047889158	-0.078916855	-0.020972237	-0.1274717	0.14104527	0.12909484	0.030934155	-0.015498698	-0.14293872	0.0969775	0.033937976	0.071467474	0.039316893	-0.0067919493	0.03270295	0.0026482344	0.01108928	-0.11261448	-0.016183294	-0.055758208	-0.038071558	0.1098754	-0.0077531934	-0.038521655	0.05557662	-0.0032765446	-0.022932336	0.01503339	-0.0013785176	0.0032180995	-0.017355569	0.16545139	-0.07334942	-0.04100804
as	-0.07820624	0.050707422	-0.003551215	-0.09559953	-0.0489783	0.17654131	0.1881667	-0.13614434	0.20164911	-0.07843116	-0.06851367	-0.006762933	0.056290552	0.008736819	0.070425496	0.11394226	-0.10344823	-0.043284506	0.07909761	-0.042052925	-0.16065508	0.07839742	0.08362284	0.16847947	-0.0817028	-0.003932975	-0.031429946	-0.012322873	0.26613948	0.10084909	-0.028288446	0.07101174	-0.053268485	-0.0045517962	-0.0034168623	-0.0032927245	-0.03884084	0.12746568	-0.07523339	0.026006982	-0.16095732	0.11125883	0.063786626	0.04137007	-0.022316542	0.043396078	0.031100906	-0.039456792	-0.029353242	-0.0396285
her	-0.068662934	0.22736323	-0.036774427	-0.17423797	-0.0008687228	0.15914008	-0.024743736	0.10495723	0.20202935	-0.03937146	-0.041092113	0.019995466	-0.06585547	-0.07345966	0.10395891	-0.075155914	0.016399786	0.030806705	-0.0053933896	0.15082777	0.027037948	-0.11653373	-0.060286105	0.01336059	0.10499731	-0.00030274317	-0.110513106	-0.12127304	0.09035143	-0.01388599	-0.03968987	-0.081575856	-0.012497328	0.015621599	0.03444563	0.029825568	-0.15697514	0.09494534	-0.14316463	0.0217918	-0.06477798	0.028535165	0.059473783	-0.12462917	-0.025657032	0.19297642	-0.034239933	-0.13979104	0.13136598	0.05062849
:	0.087586336	0.00085769594	-0.005862862	0.04558321	0.045679018	0.033931382	0.011579424	0.054561287	0.029606603	-0.0028702915	-0.06806044	0.16808978	0.087037444	0.14437394	-0.087230004	0.063969225	-0.10294284	-0.014159031	-0.05122843	-0.027888983	-0.026086077	0.10672773	-0.04935378	0.08683029	-0.03825286	-0.02482232	0.037447914	0.0063902736	0.054375112	-0.13056591	-0.028219294	0.021164715	0.104692146	0.016343318	-0.029185414	-0.06556748	-0.024739485	0.048037477	0.042421807	-0.08437126	0.022067701	-0.013759298	-0.025975794	-0.0147199165	-0.045048103	0.03890869	-0.024832249	0.20814565	0.082599305	-0.015600853
t	0.0035168082	-0.31557563	0.16287795	0.12050284	-0.094763845	-0.30859452	-0.19911546	-0.3057256	0.005351305	0.30896476	-0.26803258	0.38478708	0.19330081	0.10108206	0.05437567	-0.08755029	0.19862033	-0.28658307	-0.0029024258	-0.12807615	-0.31010127	0.1610124	0.012837768	-0.057378232	-0.58817554	0.06881777	0.3870981	-0.19394782	-0.08822575	-0.46219575	-0.42592174	0.16826957	-0.039243996	-0.022900477	0.050192103	-0.15058365	0.2158831	-0.19298077	0.10652828	-0.110664494	0.13293996	-0.16007882	0.27378562	0.10075374	0.021697462	-0.18708204	0.0532232	0.13239217	-0.19657719	-0.15819013
at	0.0005509034	0.14271781	0.08212826	-0.09305486	0.15954506	0.032138787	-0.121473506	0.14089823	-0.015131064	-0.024368212	0.034495525	-0.07667103	-0.08529733	0.12860285	-0.021283045	0.008736908	-0.09544714	-0.028423756	0.18033291	0.17171185	-0.04286833	0.094348036	-0.024128139	0.06768456	0.11055638	-0.023980405	-0.04563865	-0.026069507	-0.023723006	0.08582869	0.020917542	0.0017428696	0.113784	-0.060179118	0.03654612	-0.2095317	0.087872684	-0.026045633	-0.04214801	0.024738282	-0.021065295	0.012240827	0.032295242	-0.024719529	-0.13911779	-0.005678788	0.069096304	0.0030621588	-0.030737065	0.08318245
?	0.08405452	-0.2237093	-0.03008318	0.067141995	-0.005957827	-0.06284368	-0.22973578	0.005623907	-0.14296022	0.26815832	-0.021179374	0.23950675	0.011464119	-0.15851963	0.03721842	-0.08500112	0.119243965	-0.31812486	-0.0023715347	-0.13407755	0.06929079	0.11967769	-0.008243203	-0.015052468	-0.27024364	0.04808893	0.06911966	-0.044152647	-0.052119672	-0.18039416	0.12861136	0.09405589	-0.13395074	0.06984061	-0.029089049	0.1661796	0.16517884	-0.19295849	0.124194175	-0.13905677	0.20731676	0.06420672	-0.03832352	-0.06592257	0.13303082	-0.14452028	0.070786215	-0.02330859	-0.2849684	-0.06193188
s	0.06838532	0.021276988	0.0014535189	0.1800804	0.04565154	0.062073078	-0.22697663	0.106351614	-0.061180133	0.15423822	-0.15634085	0.044487804	0.09318951	0.004535362	-0.045307435	-0.048783317	-0.1597779	-0.17718698	-0.09674138	0.052052826	-0.009615213	0.050850555	0.06319642	0.07045928	-0.05606985	0.04201912	-0.031745285	-0.09802068	-0.046223402	-0.008746311	0.076680206	0.037946492	0.08133012	-0.13211533	0.017494678	0.067161456	0.044521607	0.052566998	-0.038711794	-0.007867202	0.07742646	-0.10440703	0.073361665	0.19321662	0.04835069	0.047227405	0.15620302	0.10032403	0.07605123	-0.12470484
;	-0.18979625	0.0033880025	-0.06435725	0.076527454	-0.03120661	0.05204361	-0.02510795	0.095076434	0.12309027	-0.020889282	0.017165255	0.0047456473	-0.009782359	0.13321015	0.023388214	-0.005792007	-0.12721127	0.09086776	0.09511855	-0.043758392	8.621812e-05	0.07746896	0.0018107295	0.008260548	-0.0467757	0.07323246	-0.023364767	-0.03978595	0.08075869	-0.026093952	0.01649062	0.07539973	-0.10567306	-0.04204408	-0.023022056	0.094264105	-0.014070313	0.041018907	-0.013831012	-0.08221066	0.027369779	-0.08821851	0.06773874	0.11898556	0.10692825	-0.03412643	-0.020540908	-0.012024187	-0.08804714	-0.06848143
on	0.030050159	0.055768028	-0.10480586	-0.037288003	0.001244409	0.045602176	-0.013940573	0.04391119	-0.05460533	0.073694974	0.026335444	0.068683766	0.08145933	-0.061964344	-0.0661631	0.073171295	-0.11172803	0.1925495	0.08694215	0.019086242	0.081631124	-0.0050596744	0.09471616	-0.1281215	0.055579185	-0.07278833	-0.09030551	-0.028112516	-0.054004416	0.12165256	0.035008956	0.08883834	0.1081864	-0.010629524	0.006590709	0.03999348	-0.008643664	-0.06775065	0.048859358	0.17811747	0.009579644	-0.07672012	0.032180667	-0.1466838	-0.21136239	-0.008980686	-0.10605656	-0.09116037	0.010737956	0.16832143
all	-0.071873054	0.16004571	-0.0016551614	-0.062743485	-0.07888204	0.05494434	0.008072823	0.1610213	-0.022870932	0.010021284	-0.03881346	-0.05508645	-0.040264457	0.005340185	0.16168919	-0.06813071	-0.04202965	0.125159	0.14244986	-0.009433925	0.060497835	-0.03345049	0.033125937	0.004267603	0.030255437	-0.0050202184	0.09127262	-0.046794057	0.014879674	0.049865425	0.040173896	-0.019453079	0.12383296	0.0021910435	-0.018538523	-0.01128757	-0.04720316	0.06217334	0.11801636	-0.034487188	0.09619525	0.035273887	-0.022398517	-0.017115146	0.0009155795	-0.20191766	-0.031055566	0.10389467	-0.027319342	0.016179726
with	0.0035577863	0.03440202	-0.031419367	-0.029553898	0.07254255	-0.0025213808	-0.048582166	0.119428895	-0.07543587	-0.010018706	0.026270315	-0.026735827	-0.17407532	0.028127905	0.024880417	-0.010953426	0.0075068325	0.11663194	-0.008732891	-0.02219209	0.14367025	-0.104544036	0.107500106	-0.056702882	0.11073831	0.0005126186	-0.14944656	-0.15890089	-0.008930236	0.060717747	0.1732522	0.037460446	0.17595309	-0.020443209	-0.012718163	0.017364621	0.07547325	0.024245705	0.035734363	-0.008205682	0.110356145	-0.058240425	0.038903207	-0.05573755	-0.027931005	0.14546512	0.0066206157	-0.046368092	0.018740699	-0.025317304
had	-0.24587533	0.19290473	0.041491568	-0.037548173	0.04896246	-0.029189978	-0.09478375	-0.09530926	0.30206823	-0.08166377	-0.008673587	-0.086149	0.080477715	-0.029369794	-0.095334776	-0.027498506	-0.18247405	-0.059659377	0.04159493	0.020729482	0.028888553	-0.089176424	0.047434866	0.12930265	0.058684975	-0.10608464	-0.099856466	-0.025600672	-0.038490385	0.11018707	-0.08101593	0.047527865	-0.16902277	0.0003506504	-0.022109725	0.09277094	-0.18445995	0.0672675	-0.15266696	0.06687685	0.013191154	-0.0037834235	0.11589323	0.07100203	-0.1884745	0.031746607	0.10065225	-0.009739138	0.13792121	-0.044912934
but	-0.12599799	-0.03751284	-0.095939666	-0.049047172	0.0052590743	0.02993868	-0.045050055	0.18917716	0.03437657	-0.13008136	-0.08313849	-0.10003207	0.041343063	0.18899986	0.018863045	-0.14240626	-0.0851772	-0.057238325	0.009642057	0.012866795	-0.042568594	0.15489107	0.10990113	0.0027497709	0.046708584	-0.019524798	0.13690051	0.028463885	-0.009380043	-0.0368744	0.08951868	-0.011626333	-0.09613696	0.08923867	-0.038833294	0.09259635	0.049324263	0.10628054	-0.10115075	-0.10758437	0.018546619	0.041684963	-0.034588233	0.2118851	0.069615304	-0.11802668	-0.040091425	0.19575569	-0.049684793	-0.17611593
for	-0.08174962	-0.001994595	0.094536334	0.102236025	-0.09994886	-0.038390223	0.1382087	0.051888235	0.067212924	-0.06813185	-0.07434447	-0.08990996	-0.03571284	0.015567496	-0.030936189	-0.07272412	-0.07782747	-0.057918184	-0.020115592	0.09347078	0.030259639	0.026552647	-0.105694145	-0.029978663	-0.021016866	0.09221529	-0.06350973	0.015638098	0.14639309	-0.014081329	0.054312833	0.0011379719	-0.0018945783	-0.003928107	0.09302887	-0.0017446429	-0.025290532	0.0047152378	-0.04255128	0.026516736	0.012886591	-0.01432378	0.0006801933	0.21391836	0.05447101	-0.029119018	-0.077393994	0.08912422	-0.01242055	-0.02840133
they	-0.053448744	-0.034547508	0.031946152	-0.14290063	-0.0445993	0.07681791	0.014067799	-0.001052618	-0.04607848	0.033546895	0.00596511	-0.027817816	-0.019203126	-0.013859749	0.037185594	-0.042152904	0.030199364	0.07013181	0.099443026	0.039847553	-0.058232337	-0.060391635	0.23873317	-0.10082662	-0.075317085	-0.12774351	0.060561344	-0.022059858	-0.10292961	-0.079234526	0.0024535097	-0.03333126	-0.035542406	-0.0625231	-0.1651025	0.04722309	0.05705331	0.049414918	0.06994402	0.028597116	0.15224962	0.18554296	-0.030024186	0.006625035	-0.07445146	-0.12299922	-0.045187622	0.15352093	-0.16683547	0.09494938
so	-0.04738199	0.0056803226	-0.02420327	-0.038834695	-0.08674454	0.039081488	-0.03514719	0.09990853	0.063210994	0.020153418	-0.10547559	-0.02529677	0.015705198	0.057239268	-0.14734092	-0.12504703	-0.05196768	-0.00697051	0.023657694	-0.103184015	0.005200088	0.02907727	0.12984622	-0.007992804	-0.0174765	0.039013725	0.07042195	0.0016898364	0.033736423	0.014484301	-0.059524473	0.03624767	-0.12624785	0.17710783	-0.0639527	-0.03535685	0.08978507	0.19810227	-0.011403844	-0.047255233	0.14582658	-0.04721807	0.1042084	0.07252303	0.048224673	-0.14693296	0.05544971	0.14031781	-0.05212649	-0.023465648
be	-0.030999258	-0.118516214	0.035296723	-0.008862447	-0.06476094	-0.018149056	0.026776195	-0.020168342	-0.043099217	-0.004129529	-0.1675197	0.13070479	0.021043733	0.17163105	-0.01647769	-0.114729576	-0.078656435	-0.20753853	0.044052005	-0.04109353	0.06697385	0.065204576	0.14759517	0.102794945	-0.33383027	-0.069552116	0.23764038	-0.0520266	0.02803278	-0.076085195	0.02422418	-0.019316554	-0.024996236	-0.06777787	0.00018052757	-0.10743353	-0.20845391	-0.09308075	-0.0022864714	0.016630009	0.129377	0.027555346	0.099093035	0.14559871	0.030859035	-0.30902568	0.11270353	0.29626274	-0.25255126	-0.26723525
not	0.0049117804	0.005127147	-0.055886686	-0.03925207	-0.031388525	-0.03785354	-0.0142894685	0.0701485	-0.0068689333	-0.062489733	-0.065988585	0.02602534	-0.01474154	-0.018337697	-0.06425837	-0.33793688	-0.07619395	-0.19534174	0.079428054	0.06559354	-0.073087946	0.061958328	-0.029888093	0.052013934	-0.25506884	0.1133637	0.14239961	0.05996491	0.18777564	-0.009438217	0.0027376674	0.103435084	-0.25041074	0.10490804	-0.089744255	0.046032943	0.13516192	-0.045568302	0.15679137	-0.20255832	0.10303273	0.01298915	0.0001924038	0.1216466	0.1757004	-0.1486387	-0.12956326	0.23507407	-0.20937325	-0.27430174
very	-0.0053692013	-0.01285857	-0.004333794	-0.14035287	0.022063129	-0.20056252	-0.0026722848	0.18019645	0.10370836	0.00043708086	0.030732997	0.07873891	0.09508443	0.12786686	0.030529171	-0.12610328	-0.08244118	-0.15685189	-0.18759115	0.12669468	-0.025817871	0.0511951	0.20488685	0.05229363	0.10872382	0.0017653555	0.094673574	0.0075060427	0.16342711	-0.070764884	0.03096897	0.068046704	-0.03646963	0.060749386	0.057328876	-0.03149253	-0.111459084	-0.022286586	-0.1556198	-0.020177774	-0.12476737	-0.15182993	0.03477119	-0.09302112	0.06791447	0.053504005	0.047305927	0.055815056	-0.007102929	-0.027276099
what	0.052370593	-0.20636961	-0.13072783	-0.060224127	-0.17685689	-0.1419139	-0.107530504	0.03825987	0.021889271	0.10084093	-0.02722617	0.19192874	0.11174025	-0.08040112	-0.095279	-0.030554071	-0.019638702	-0.25956035	0.07143684	-0.07736868	0.16276798	0.07915147	0.19571537	0.015175134	-0.34328488	-0.08465497	0.25844014	-0.09608668	-0.0716991	-0.34861764	0.016722474	-0.033491895	-0.048319995	-0.022488473	-0.087586746	0.2971241	0.12461546	-0.19899425	0.087473854	-0.0083064735	0.26251972	-0.11139656	0.057773083	0.06732224	-0.0062949657	-0.1252293	0.07213157	0.15661506	-0.2921541	-0.21934956
this	-0.112321	0.055238664	-0.13205679	0.020505274	0.060881533	-0.015549999	0.0011072308	-0.110598326	0.038460385	-0.10064568	-0.17456454	-0.054973185	-0.020494103	0.029820219	0.022144884	-0.07997478	-0.12356998	-0.01249519	-0.0018392429	0.12437582	0.004770398	0.07688245	0.075630724	0.06007421	-0.061092854	0.023012329	0.12299241	0.032370917	-0.013377219	-0.056268454	0.11675754	-0.07147819	0.029149584	-0.028790098	-0.04438681	-0.08257997	-0.09338425	-0.005787244	-0.22026652	-0.02300793	0.030832868	0.033155646	0.07012084	0.062092885	-0.079169594	0.074436694	-0.005830109	0.24128526	-0.07144306	-0.084367394
little	0.0045149624	0.15736839	-0.13141611	-0.104348466	0.046953753	0.038547438	0.071656734	0.091398254	0.022587258	-0.1397396	-0.056502707	0.0031930655	-0.0057604313	-0.057083678	-0.10253949	-0.12956667	0.030688241	0.27101764	-0.07256018	-0.0017388463	0.06460613	-0.18391192	0.043808997	0.018883884	0.13627063	-0.07165789	-0.11316715	0.0868115	-0.067056015	0.09115215	0.043800164	-0.085146695	0.06130144	-0.08525922	0.05627008	0.17890644	-0.10311839	0.05309912	0.013075948	-0.038633004	-0.22468439	-0.07411868	-0.0150996	-0.021728918	-0.19870186	0.034814864	0.039522834	0.04353595	0.016551808	0.11898844
he	0.12533893	-0.13879205	-0.048018157	0.059613943	0.063890085	0.07420429	-0.0705411	-0.09403964	0.017869547	0.006936565	-0.15983067	0.12127632	-0.029101074	0.10341561	-0.06935337	-0.034000814	0.0640208	-0.007808663	-0.06927405	-0.043230265	-0.035820648	0.2661214	0.001953423	0.029447675	-0.053520113	0.14914703	-0.017595753	0.010493234	0.1522519	0.068350926	-0.06119556	0.25103104	0.12049633	0.08458175	-0.08184598	0.009279072	-0.06565397	0.039364465	-0.013583519	-0.10774874	0.07707761	0.03473625	0.065304235	-0.09385	0.11477071	0.12513144	0.082628995	0.009440914	-0.04614544	-0.028583914
out	-0.16736141	0.015939295	-0.08168256	-0.07217418	0.104502454	-0.01697351	0.036045566	0.25397858	0.0002117306	-0.16768903	-0.080630384	-0.081256665	0.048355818	-0.012411561	0.14201258	0.014646128	0.089497	0.05964402	-0.14579678	-0.0041166246	0.19330618	-0.0060397983	-0.047358632	-0.07113439	-0.008047372	0.19820811	-0.17753956	-0.079669826	0.16366364	0.07666463	-0.014703248	0.11137611	0.16062665	0.06297616	-0.011529788	-0.07807774	-0.039103772	0.10172165	-0.05937969	0.08862926	0.06400114	-0.12838869	0.0722429	-0.19414994	-0.010827763	-0.040975407	-0.1327354	0.0695849	0.16683297	-0.04338661
is	0.022721104	-0.10657387	-0.10098365	0.15779881	-0.06552019	-0.010242902	-0.08591443	-0.08545399	-0.17123659	-0.022659272	-0.16993241	0.25275457	0.17192493	-0.0404319	-0.018875018	-0.30574992	-0.05146049	-0.13361779	-0.16922756	-0.08969252	-0.0258978	0.14656053	0.13063455	0.059875935	-0.20933633	-0.0049977116	0.10969859	-0.04870306	0.121761866	-0.2318457	0.03154363	-0.088564724	-0.04906489	-0.25176343	-0.06397708	0.06230946	0.13969229	-0.06030251	0.17263773	-0.15225206	0.22278754	-0.049211904	0.08178054	0.11756278	-0.05895397	-0.060808856	0.058073662	0.1938057	-0.12971024	0.03441283
one	0.15334192	0.082632884	0.047984064	-0.053263523	-0.14793053	-0.07378649	-0.11322756	-0.02385743	0.22950475	0.11918962	-0.011407852	0.08286563	-0.089175925	-0.035290822	0.1275045	0.0743492	-0.025997669	-0.05346317	-0.06601325	-0.10305199	0.0070304573	0.034173384	0.11011344	0.031989306	-0.033818364	-0.03641167	-0.14141992	-0.22718018	0.12504879	0.12026544	-0.042988855	0.050623745	0.14653915	-0.04514896	-0.029610056	-0.043793082	-0.11732405	0.0172228	-0.023239039	0.03913234	-0.019426838	-0.036135294	0.05948563	-0.10961254	-0.08605912	0.052621946	-0.08176133	0.051515102	-0.03947466	-0.0041716844
down	-0.23639071	0.043772057	-0.13276227	-0.03209106	0.008903478	0.0104827415	-0.016899467	0.04059592	0.1575438	0.026102707	-0.008751546	-0.09969211	-0.07628325	0.06304922	0.073932685	-0.014210433	-0.00018905103	0.09731497	0.033911053	0.065719426	0.13184069	-0.021572173	0.02458039	-0.04077682	0.22898917	-0.10205222	-0.07091764	-0.021391213	-0.08935337	0.041359484	0.06374936	0.0007381439	-0.07102203	0.107652605	0.15024164	-0.028703228	0.053605434	0.12726063	-0.042700782	0.09678236	0.027325727	0.107653886	0.080600455	0.07291739	0.023199113	0.0284461	-0.032259583	-0.17495453	0.04408947	0.1849401
up	0.017879546	0.088463396	-0.22936031	-0.033769608	0.08943846	0.15996161	0.18142314	0.09254291	0.00046257675	-0.04583262	-0.035856657	-0.0056556985	-0.087317646	-0.011875324	-0.094849184	0.0014719218	-0.012766197	0.1721865	0.116371855	-0.079229504	0.11308527	-0.029705308	-0.031233251	-0.12783968	0.13936816	-0.21762131	-0.28627706	-0.12593035	-0.13933796	-0.0057469606	-0.08419183	-0.011302084	0.05720947	0.2480464	0.09598747	-0.003412336	0.084235914	0.1838791	-0.024665892	0.01981026	0.00944975	-0.004987579	-0.013041198	0.07606454	-0.14763588	0.09143879	0.089103326	0.07626564	0.10345821	0.067695916
there	0.09233253	0.033395804	0.08673856	0.17069551	-2.3946166e-05	0.10973533	-0.03604555	0.16510686	0.009841301	-0.08682449	-0.23773393	-0.08666325	-0.08048989	-0.13454287	-0.028600052	0.04147543	-0.28044558	-0.09386566	-0.12683985	-0.104272306	0.049353898	-0.03828779	0.07775825	0.032510966	-0.09021503	-0.0163209	0.051782876	-0.13937905	-0.059793018	0.088789016	0.1641969	0.035644114	-0.014185168	0.054776594	0.020640954	0.0693628	-0.0077126324	-0.09060943	-0.020028628	-0.03788376	0.023379885	-0.09716903	0.012224615	0.14846693	0.0060416604	-0.018569952	0.058803204	0.12087284	-0.0027739406	0.00013317168
if	-0.00021389872	-0.15384945	0.081089646	0.05266077	-0.18861872	-0.14930771	-0.091466635	-0.10519458	0.19839807	0.11716595	-0.085841514	0.24730535	0.12031475	0.13442975	-0.069556884	0.042583354	0.053626716	-0.17053847	0.025274023	-0.13439143	-0.12800787	0.043245077	-0.04743007	0.030525297	-0.4436999	0.134453	0.24343212	-0.03508182	0.062373742	-0.12482436	0.022634206	0.06882796	-0.061223872	0.06302275	-0.11716371	-0.063557856	0.008413892	-0.075506344	0.12412204	-0.03196922	0.0022610202	0.013792596	0.036402434	0.0720759	0.10631423	0.0061560534	0.024212763	0.042285837	-0.15126926	-0.044695497
his	0.10064776	-0.07462412	-0.13418728	-0.14755812	0.034417517	0.0026653484	-0.043526024	0.15890297	-0.0073819235	0.012673929	0.047788475	-0.10048436	0.12688576	0.073200986	-0.16908544	-0.051514715	0.056248747	0.06145774	0.036004264	-0.013212562	0.09486422	-0.097378634	0.101712465	0.02766031	0.01935932	0.044990998	-0.09815422	-0.04221317	0.1099731	-0.009271994	-0.015348516	0.11341502	0.15357484	0.017690044	-0.056914676	0.0969049	0.17770496	0.043838948	-0.06746685	0.04751563	-0.101781294	0.03587833	-0.12740515	-0.13529436	0.12776196	0.097525224	0.11790964	-0.14350538	0.1907664	-0.0247249
then	-0.045577653	-0.0802035	-0.05878657	-0.03764955	0.0032454282	0.08490122	-0.050253987	0.05469215	-0.03878047	0.12378805	-0.04154377	0.10407958	0.14865588	0.12121041	-0.073010184	-0.12874675	-0.01689829	0.20526037	0.07279212	-0.08658379	0.007857025	-0.06166423	0.067908496	0.062128335	-0.08711049	0.09139931	0.010468513	-0.14203519	0.060301036	-0.025651604	-0.062492743	-0.03494191	0.01993481	-0.025803	0.17671505	-0.1162878	0.03148949	-0.052259725	0.028286718	-0.017126888	0.15034553	-0.013624607	-0.09337193	-0.0029010996	-0.051815107	-0.14649072	0.14356422	0.12094055	-0.05948416	0.041228257
about	-0.094330825	0.049072247	0.2079542	0.03224008	-0.061154306	0.05116365	-0.02615568	-0.11274339	0.1779832	0.11043207	-0.16863689	0.06582774	0.09235047	0.11726078	-0.014111355	-0.01744616	0.038273156	0.097847864	0.040155143	-0.06766036	-0.0013570487	0.06483929	0.03616309	-0.09316158	-0.07073575	-0.1261757	0.100557074	-0.16167623	-0.088095814	-0.023950636	0.22203343	-0.043527618	-0.15118937	0.06126161	0.12484269	0.055730313	-0.12691113	0.006827127	0.15841737	0.120073624	-0.027919583	-0.03784595	-0.04429701	-0.019517928	0.06452376	-0.1513927	0.047083236	0.079312235	-0.07290124	-0.13671711
no	-0.064722665	-0.13564229	0.0869163	0.118783996	-0.19113308	0.13162225	0.010299608	0.06259648	0.07697646	0.14323112	-0.20822212	-0.040334523	0.005842328	-0.07431055	-0.06162788	-0.04738967	-0.30526197	-0.18847218	-0.25661787	-0.031632543	-0.03400901	0.044274442	0.08269876	0.1035898	-0.25050467	-0.08636426	0.29044616	-0.19158946	0.02465266	-0.019184947	0.21222442	0.054762453	-0.001609832	-0.13641731	-0.022512343	0.023611754	-0.19876227	-0.18022391	0.109330416	-0.24025688	-0.065192714	-0.039503068	0.11304672	0.17035238	0.017994873	0.084397785	0.032888636	0.36757547	0.103369065	-0.08762519
them	-0.25424454	-0.06531321	0.052051395	0.0014890283	-0.23776796	0.04388935	0.014564812	0.0656603	0.056910947	-0.0014317632	-0.11553162	-0.010789767	-0.008372128	0.0963321	-0.10722628	0.08006701	0.012027428	0.19744961	0.10730421	-0.12431544	-0.007503301	0.08548928	-0.11417696	-0.043124676	-0.110880405	0.032877147	-0.05975972	-0.055144265	-0.011874452	-0.07392897	0.07218761	-0.039615244	0.10277042	-0.021360148	0.13228384	-0.1927487	-0.013019806	0.08100185	0.10343744	0.07641432	-0.05823798	0.08342961	0.009239554	0.07111348	0.08397289	0.017392851	-0.009157166	-0.049674638	-0.06175307	-0.18552426
know	0.18552803	-0.34404427	0.074038595	0.029803634	-0.19960853	-0.09129662	-0.18190841	-0.2692374	-0.091865346	0.23607354	-0.16263959	0.14209944	0.1266952	-0.07329495	0.027653798	0.055814616	0.012335107	-0.2144666	0.036344133	-0.1871193	-0.12988715	0.07889247	-0.020357817	-0.013795376	-0.5140007	-0.08505241	0.44094566	-0.059410736	0.07111427	-0.4346902	-0.10221645	0.12079327	-0.19062424	-0.0666552	0.016240116	-0.09131041	0.18361974	-0.16658884	0.050495822	-0.21614116	0.1914415	0.012270529	-0.05781229	-0.01909237	0.14098886	-0.14476566	-0.08478805	0.1792045	-0.3187692	-0.28444466
like	0.12363993	-0.1686596	0.017017752	0.07445964	-0.22705711	0.05728866	0.13468608	0.16630703	-0.091356725	-0.004561037	-0.16924582	0.035002172	0.035048738	0.03118942	-0.19354	-0.19011135	0.18327916	0.004902903	0.039507635	-0.15617135	0.06315917	0.044460654	-0.06616947	0.017837197	-0.23008233	0.0365434	0.0327556	-0.055223063	0.005790353	-0.10248065	-0.094869316	-0.005083278	-0.019978449	0.15348859	0.1269101	0.027660906	0.19735676	0.033154212	0.21264116	-0.012916952	0.07115754	-0.11293258	0.11581136	-0.070301354	0.05473264	-0.21732411	-0.12832768	0.055893317	-0.26336303	-0.1354102
were	0.031765424	0.091807276	0.016738206	-0.055733792	0.07414123	0.037296984	0.0014583617	0.12139501	-0.005139239	-0.034619153	-0.07597491	-0.07216775	-0.043570906	-0.0687077	0.02274333	0.03736774	-0.06115292	0.2568911	-0.02208665	-0.07616153	0.058137074	-0.014980063	0.28835487	-0.18749756	0.01889193	-0.066228166	0.04031673	-0.019959345	-0.033827707	0.06312412	0.028429575	0.017258614	0.12112388	0.11398078	-0.09493953	0.06731413	-0.025418842	0.09867939	-0.059839718	0.06719737	-0.0050166994	0.026458904	-0.027618647	-0.049990624	-0.13016574	-0.016294055	-0.07527536	0.052826792	-0.07795987	0.014215738
would	-0.07200746	-0.22920927	-0.07028708	-0.10748063	-0.08889654	0.014533959	0.053981423	0.050632797	0.075301655	-0.022356212	-0.0062903855	0.08387467	-0.10270883	0.032522112	0.02360043	-0.05000229	-0.023681931	-0.068306774	0.30347282	0.0231027	-0.020519137	0.031311706	0.1562306	0.15108669	-0.23602146	0.04655039	0.07750716	-0.048105106	-0.013032645	0.0069019943	0.07145151	-0.06276941	-0.081305295	0.052671738	-0.14683369	0.0881705	-0.07937697	-0.02518044	-0.011179786	-0.14823082	0.08941187	-0.071835145	0.04961565	0.10288239	0.08993888	-0.10347875	0.035946727	0.23612833	-0.2213074	-0.26818237
went	0.08196919	0.15513991	0.033708125	-0.11557761	0.18802556	-0.0018128306	-0.079707414	0.030359328	-0.20428267	-0.080274105	0.034440424	0.20513852	0.10593365	-0.040238373	-0.21419564	-0.015543509	-0.123187646	0.23222964	-0.04175441	0.023325771	-0.10711044	0.052233323	0.21494901	0.10415229	0.11589989	-0.07956141	-0.15172094	0.059421256	0.11585383	-0.028401762	0.018575717	0.07161158	-0.01744894	0.008192774	0.17563543	-0.10153949	0.1390531	0.05278469	0.001259658	-0.06694089	0.03897491	-0.044269424	0.00451982	-0.3789957	-0.21204677	0.054567248	0.052587636	-0.10038044	0.10012182	-0.16375063
again	0.08004576	-0.09007747	-0.16476825	0.04704029	0.1535843	-0.047306992	-0.015411139	0.009447962	-0.019049652	-0.013025984	-0.12376194	0.18564409	-0.03315112	0.1648793	0.022841975	0.064755805	-0.037222132	0.06795276	-0.06001428	-0.08124517	0.024043635	-0.12184996	0.050730586	0.15898111	0.059286058	-0.09019238	-0.11554886	0.084493786	-0.026085958	0.08878496	0.08949803	0.058237374	-0.11015554	0.23609671	0.20175713	0.15423493	-0.022582313	0.17748755	0.091871485	-0.011265099	0.10498151	0.041071296	0.026976392	0.14352088	0.008624379	-0.024862714	-0.0606869	0.2957701	-0.073613115	0.08318602
herself	-0.10873344	0.15101139	-0.11674976	-0.018323595	-0.06481499	0.029885031	0.20839697	-0.073224604	0.19474657	-0.1454808	-0.013114259	0.11771255	0.04043448	-0.005356474	0.115991205	-0.013049446	-0.092467785	-0.11943355	-0.01652237	0.09101987	-0.096748576	0.044134155	0.017055452	0.086321026	-0.07737853	-0.124027416	-0.17991361	0.0042189807	0.081704795	0.028642736	0.22728416	0.025386512	0.0070588887	0.1256476	0.09672429	0.1349226	-0.0497785	0.056617435	-0.20936604	0.07894131	-0.042001225	0.041625373	-0.039081454	0.096033394	-0.11120313	0.04206539	0.017518446	0.117010586	-0.12547	-0.091032565
do	-0.032257974	-0.23336136	0.110318094	-0.0745499	-0.22660375	-0.09631461	-0.100050524	-0.21575177	-0.11822599	0.26593754	-0.16255021	0.21737845	-0.05744104	-0.007665377	-0.10467604	0.14835079	0.15196705	-0.18144542	0.12544075	-0.06919631	0.032506526	0.21494083	-0.05894366	0.0373922	-0.43696296	0.02601964	0.45431936	-0.13272192	0.053151906	-0.55653673	0.041381158	0.18190788	-0.115894705	0.0057136565	-0.122669086	0.06060905	0.17310908	-0.091611266	-0.10156104	-0.07886483	0.28755435	-0.094976515	0.053224802	0.21717906	0.08037409	-0.08599855	-0.052825958	0.1253765	-0.4021308	-0.02256918
have	-0.036829993	-0.118592605	-0.027816355	0.027672544	-0.23723193	-0.0892514	0.033238858	-0.10832874	-0.20882949	0.04434432	0.22320205	0.21720123	0.024554342	0.015840612	-0.044694975	-0.12401093	-0.046432868	-0.15727204	0.022873305	-0.040059865	-0.056307748	-0.053762287	0.083447754	-0.056746602	-0.27799422	0.0057529286	0.3648796	-0.16123787	-0.011137828	-0.2262642	0.09854546	0.1629036	-0.040638596	-0.055893555	-0.16157795	-0.08049975	-0.2515906	-0.111286625	0.13629378	0.088479325	0.07735644	0.011053339	0.11223948	0.249752	0.06890206	-0.077823676	-0.0003299117	0.04581496	-0.2528517	-0.01369527
when	-0.1440744	0.015334435	-0.094575346	-0.038236067	-0.20341945	0.11716136	-0.10543956	-0.009587966	-0.058850482	-0.18998002	-0.22729039	-0.034837767	-0.07267727	0.06976808	0.121044055	-0.015967324	0.11441687	0.025418013	-0.13046193	0.09341672	0.09764013	-0.05900103	0.08309552	0.11934075	0.06709579	-0.08445104	-0.12636487	0.013374373	-0.091415435	-0.16685343	0.2422505	0.15845281	-0.1392895	0.024603352	-0.08159532	0.08302124	-0.27006108	0.089166716	-0.20361274	-0.15575458	0.06318587	0.078494295	0.11318231	-0.04342806	-0.011717083	-0.045089297	-0.1283213	0.0936823	-0.046505243	-0.083082005
or	-0.026823584	0.17479347	0.11016548	0.16840307	-0.12706666	-0.021094799	-0.08632834	0.24418327	-0.032919966	-0.107391044	-0.093587935	-0.19321528	-0.22580153	0.16237141	-0.109892845	0.039183214	-0.09572169	0.011346906	0.16946843	-0.15139382	-0.14291295	-0.042802114	0.20432428	0.039420515	-0.15917525	-0.06148676	0.04452227	-0.34708303	0.057759628	0.040879115	0.15196766	-0.052012146	-0.20048375	-0.09981944	0.07422629	0.15370098	0.012259703	0.15350203	0.09377136	0.19115663	-0.17193885	-0.085279964	-0.12723908	0.12055625	-0.18653205	-0.086462736	0.10269697	0.0904347	-0.27085155	0.06694485
could	-0.16689825	0.0020270199	0.024746627	-0.10275208	-0.058051363	0.1155956	0.24771191	-0.13263312	0.19061789	-0.10662153	-0.12127801	0.16562097	0.11054328	0.10487069	-0.03662628	-0.11812891	-0.023952737	-0.12915511	0.15645294	0.061708212	-0.0061234534	0.12246323	0.028057456	0.15112945	-0.39186695	0.09399786	0.11587878	-0.072301954	0.121136785	-0.045654774	-0.036473855	0.20104603	-0.042228878	0.06451042	-0.1874877	0.20945111	-0.025817223	-0.17713115	-0.07666475	-0.25585803	-0.111066565	0.038088564	0.028780565	-0.06396953	0.122298315	-0.087488666	-0.18373826	0.037526816	-0.18913248	-0.29727322
thought	-0.09316531	-0.039747886	-0.16901875	0.034482848	0.048435554	0.05674886	-0.17288846	-0.076624095	0.18970612	-0.052609555	-0.00936798	-0.08203095	0.08004302	-0.033039145	0.1609798	-0.3117961	0.09495601	-0.3156279	0.011856701	0.3442853	0.015985891	-0.06766368	0.21269757	0.07307857	-0.040342152	-0.15850297	0.025001768	0.02432277	0.040809788	0.045430206	-0.025245547	-0.0069124103	-0.18087871	-0.067820385	-0.1375365	-0.067990795	0.08549906	0.1672263	-0.153155	0.10332505	0.035526127	0.012635261	-0.11306816	0.11670125	0.17373936	0.05089976	-0.13701281	0.32199335	-0.2500064	-0.30022705
queen	0.18453011	-0.06732865	-0.04104927	-0.18644512	0.07048504	-0.08713992	-0.1196132	0.15324926	-0.051067054	0.10428589	0.16567592	-0.06422342	-0.04572946	-0.13767484	0.033360146	0.043505102	-0.0574549	0.16491625	0.12288876	-0.16255824	-0.09826079	0.18087113	0.08932829	0.084121406	0.19746204	0.14679334	-0.064928375	0.029178768	0.029689863	-0.0900639	0.060179263	-0.07880634	0.034948662	-0.17384003	-0.16570884	0.021938518	-0.14501163	0.10264866	-0.042912412	0.018789679	0.15709844	0.012811771	0.29886928	-0.23680916	-0.07132389	0.1156861	0.2342925	-0.07022091	0.06599224	-0.042415887
off	0.15546274	0.06388808	-0.088670194	-0.22282696	-0.091981694	-0.029307112	-0.07235533	0.14813352	0.18637799	0.03142047	0.29253855	-0.18686081	-0.09427677	0.21349977	-0.0941073	0.02005542	0.090709	0.18054238	-0.012981892	-0.11399047	-0.20541413	-0.12253794	0.15562302	0.13287413	0.16312635	0.008395643	0.013807833	-0.04681036	0.07067864	-0.13957022	0.050078433	-0.054507434	-0.06130895	-0.20891023	-0.014037088	0.035254434	-0.21203639	0.022406936	-0.16571407	0.08516949	0.06139936	0.095949866	-0.02759026	-0.30578718	-0.04653462	-0.08526808	0.16820303	-0.012660578	0.12964073	0.050904147
time	-0.13619365	0.034940086	-0.113921195	0.08402517	-0.09126434	0.015862096	0.041229174	-0.08498883	0.10004821	-0.041056767	-0.13857266	-0.23518948	-0.14456335	0.02899807	0.07801354	0.005758047	-0.12319281	0.078733645	-0.04282009	-0.0663584	-0.1362111	-0.020249352	0.15807733	0.15088215	0.11426769	-0.083916485	0.016817078	0.0740675	-0.10543719	0.021979064	0.031998605	-0.0044434816	0.3054505	0.085092455	0.0185914	0.029022291	0.11874366	0.11780484	-0.015769437	0.000986591	-0.16128373	0.14599937	-0.028217122	-0.009941829	-0.025102433	0.065221384	0.014809057	0.17803356	-0.027039237	0.0062342733
how	-0.09704126	-0.2607262	0.035226494	-0.15483223	-0.05999849	-0.003988199	0.090299785	0.023743331	-0.0030419454	0.016828805	0.05949471	0.3698691	0.09198547	-0.14106306	-0.050811157	-0.23467249	0.093636066	-0.022865549	0.010702061	0.06814271	0.13813324	-0.008060969	0.20025918	-0.15948942	-0.28985554	-0.057200566	0.15821536	-0.02340819	-0.044570014	-0.3015762	-0.122405514	-0.025495619	-0.20684251	0.043906465	-0.12971224	0.015462533	-0.22106789	-0.22131413	-0.03384014	-0.12300977	0.0061519025	0.08007067	0.1048982	0.1640099	-0.01058686	-0.036182534	-0.11816538	0.20902775	-0.14394157	-0.18116942
me	0.3059477	-0.18010639	0.023149893	0.30165592	-0.48602116	-0.15861648	-0.06224227	0.092113316	0.06457061	0.27114972	-0.16632994	0.21782857	0.020634234	0.15649639	-0.040973168	0.14355925	-0.027852863	-0.098678574	-0.02153965	-0.26366413	-0.019336075	-0.09546474	-0.04678911	-0.0030478835	-0.19828728	0.042504933	0.05049379	0.01322642	0.34357587	-0.1598422	-0.02459854	-0.09401089	0.095331386	0.14913122	-0.095547214	-0.08579871	-0.07550156	-0.2766335	-0.120751984	-0.042161584	0.11279405	-0.18137582	-0.07208137	0.00048319623	0.13890535	-0.20611563	-0.028666966	0.37081653	-0.24379906	-0.059634577
into	-0.0895408	0.20158395	-0.03099373	-0.18281002	0.12484244	0.021012641	0.01540792	0.08941062	0.1781353	-0.029326096	0.013301339	0.069582425	0.08342038	0.16795725	0.14255734	-0.15228702	-0.2196014	0.18844795	0.14622332	0.12606111	-0.027143568	0.025607497	-0.18156987	-0.13421649	0.22249748	0.066930525	-0.18853328	-0.05899094	-0.040516406	0.08660452	0.05071879	0.15540701	0.1534021	0.11690508	0.28634393	-0.110163555	-0.1344233	0.2002558	0.075078085	-0.010304213	-0.06838273	0.013777599	-0.14288247	-0.012599545	-0.18022978	-0.05016993	-0.04455322	-0.10282093	0.22132415	0.22381167
see	-0.067872524	-0.15793331	-0.002646476	0.12110136	0.018060863	-0.08471939	0.18538958	-0.23375139	0.14793262	0.17508607	0.023715016	0.33774427	0.25800648	0.012001125	0.0035256147	0.021373063	0.09730435	-0.091401584	0.19153306	-0.011737108	-0.06669465	-0.025502324	0.13667968	0.29886064	-0.3272824	0.027700625	0.13835782	0.14057244	0.01328969	-0.22471768	-0.09400377	-0.023397252	-0.05079382	0.18911204	0.063513435	0.02359125	-0.21120434	-0.16317663	-0.05840694	0.049332336	-0.12845683	-0.16661148	0.09205054	0.19277838	-0.14785823	-0.02352868	-0.09496592	0.18263553	-0.3555873	-0.124080256
well	0.05893131	0.03309117	-0.16772956	-0.08051102	-0.025252245	-0.117671795	-0.059893668	-0.16306888	0.33989727	-0.1426212	-0.121981665	0.17546147	0.17471768	-0.05658239	0.24612895	0.1286308	-0.02496168	-0.31445524	0.11341645	-0.07497603	-0.09386876	0.06044551	0.18660372	0.22860998	-0.3572305	-0.12827784	0.09183713	-0.07660128	0.18338001	-0.3919525	-0.16309339	-0.05922857	-0.054740287	-0.11048219	-0.034673095	-0.13070609	0.2564999	-0.10633265	-0.19920361	0.008134067	0.02462754	-0.02059339	0.05093506	0.20669629	0.2579512	-0.09343551	-0.113909155	-0.09931333	-0.30069733	-0.049455993
did	0.3062045	0.026847437	-0.018841267	-0.07658609	0.06683263	0.17750531	0.09428018	0.021014564	-0.026027268	-0.046283767	-0.12492645	0.24557169	-0.07154812	0.017904244	-0.20275848	-0.3527503	-0.057021014	-0.2469061	-0.089616984	0.07173805	-0.17055374	0.25658077	0.30456626	0.11223909	-0.3419244	0.19911245	0.04553132	-0.00536114	0.16063194	0.1394831	0.17427859	0.07636562	-0.13648656	0.32045424	-0.24393162	0.12716196	0.3455456	0.059008263	0.3104548	-0.17352615	0.11162968	0.06431426	0.010673493	0.030872604	0.075135335	-0.16886917	-0.14588928	0.28926864	-0.4290063	-0.26528367
m	0.08422495	-0.19660042	0.19218111	-0.030585568	-0.16517775	-0.30619645	0.12070122	-0.086645246	-0.40155298	0.20763837	-0.22140703	0.00013841689	0.14538555	0.15014009	0.08353126	-0.31711483	0.24064355	-0.16619602	-0.20293862	0.20025666	0.004227206	0.3155624	0.044202924	-0.2682234	-0.32572895	-0.16652155	0.13687858	0.17645063	-0.06246282	-0.65838516	-0.10782646	0.070924446	-0.32677907	0.17574883	0.046151146	-0.34941298	0.21834743	-0.07360331	0.14888975	-0.060927004	0.2153887	-0.033787243	0.052705154	0.47813213	0.08970995	-0.13751209	-0.025489211	0.090425745	-0.19413953	-0.33507323
can	-0.06397338	-0.30130866	0.20846279	0.09181555	-0.28043875	-0.33907577	-0.04392363	-0.062097907	0.19162992	0.10335082	-0.19570896	0.41604224	0.27197543	0.0091944635	-0.05848855	0.018766284	0.16687572	-0.22673193	-0.09566563	-0.1682996	-0.12541196	0.24135482	-0.08420709	-0.16267347	-0.64170974	0.04435245	0.28630444	-0.18226798	0.055626668	-0.4686446	-0.053290047	0.246211	-0.11498527	-0.1265247	-0.1274804	0.062957354	0.011689179	-0.30802208	0.30507386	-0.12740463	0.096723065	-0.074584454	0.16561362	0.15459403	0.06628686	-0.1541934	-0.08518258	0.2441447	-0.10634981	-0.24743368
king	0.21082221	0.22180532	-0.03753519	0.012099944	0.2962713	-0.3921148	-0.10659927	0.018808886	-0.17186059	0.30362517	-0.0028772317	0.20623064	-0.12531854	-0.046860844	0.036855616	0.35792875	-0.23090246	0.027477495	-0.025479212	-0.05264142	0.059313774	0.2083315	0.13087484	0.1509223	0.304308	0.38870886	0.121338814	-0.16640969	-0.00027096272	0.04115227	-0.2677785	0.15199108	-0.3086045	-0.091717914	-0.3024165	0.012413338	-0.2511066	0.092142604	0.004929764	0.405815	0.2680585	0.06687691	0.40704295	-0.18687549	0.04525823	0.017819569	0.13456264	-0.023508094	-0.06860885	0.43960002
who	-0.012956105	0.071117885	-0.1400984	0.09234412	0.13649578	-0.14042422	-0.11078504	0.041820176	-0.042227007	-0.057861954	0.13018698	0.016856164	-0.055778548	-0.18427026	0.19090134	0.14077389	-0.19661808	0.034128442	0.037993908	0.02613175	0.071575746	0.13673057	0.072592676	0.041686386	-0.13438638	0.12859632	0.082000166	-0.024139613	0.15548533	0.10068457	-0.0143818045	0.015515566	-0.044441894	-0.0020158142	-0.066361874	-0.14776605	-0.11080923	-0.014123507	-0.090257704	0.09716503	0.116589546	-0.0566258	0.0063878447	-0.023473753	-0.02269999	0.031414863	-0.0013962388	0.053916335	-0.020501003	0.17526487
your	0.27364126	-0.34654528	-0.13581297	0.2500829	0.05148378	0.04332017	-0.16283248	-0.053059444	-0.021537282	0.15265082	-0.13286749	0.26004335	-0.034467995	-0.19573088	-0.051942337	0.12308461	-0.09188989	-0.32594848	-0.12300517	0.057945818	0.1272828	-0.27227435	-0.14688033	0.2289721	-0.19699018	0.16378427	0.2969293	-0.28412485	0.1316895	0.020989418	0.07231587	0.088705346	-0.06315382	0.075877175	0.33304632	0.08808456	0.22577795	-0.14757873	-0.05407343	-0.013687164	0.18065453	0.24685305	-0.22226241	-0.10377492	0.24417865	0.17032854	0.08871521	-0.055435926	0.0009532273	-0.13041428
don	0.01981102	-0.61001855	0.009438127	0.22842818	-0.00011908263	-0.40940452	-0.06146106	-0.40995836	-0.03891701	0.38794434	-0.14588436	0.3433578	0.3355442	0.13163897	0.123280615	0.07830544	0.25121424	-0.23431925	-0.07686342	-0.21516286	-0.2088666	0.098636486	0.105801105	-0.006701827	-0.5639193	-0.026660647	0.41449487	-0.11986652	-0.19768336	-0.55539614	-0.5976595	-0.060393393	-0.20261781	0.16295163	0.06481984	-0.29321954	0.31920552	-0.11353557	0.24390966	-0.05322674	0.06952876	-0.21088499	0.12642024	0.04822433	0.020993445	-0.2397874	0.034611948	0.12897418	-0.38963845	-0.34223968
now	-0.18555266	-0.1195264	-0.010025114	0.019237086	-0.09852771	-0.00659319	-0.121435136	-0.045053832	0.070039526	0.091525406	-0.15920107	0.11501041	0.11487177	-0.055510193	-0.0063683465	-0.111282244	0.09147853	0.04373108	-0.1754789	0.06893404	0.19668147	-0.08201705	-0.03575164	0.02312234	-0.29447657	-0.074276626	0.0069541484	-0.15033954	0.007906109	-0.031014368	0.016960943	-0.122390375	0.017481983	0.09983216	0.12524265	0.04403387	-0.028317694	-0.20089337	0.02230293	0.1463821	-0.01942484	0.084875934	-0.1624457	0.285567	-0.06066426	-0.12734789	-0.086151615	0.13483888	-0.019552514	-0.027061626
by	0.0119227655	0.0045007616	-0.13116917	-0.062360194	-0.007882871	-0.0014624093	-0.057360977	-0.1927701	0.07754854	-0.18736027	-0.2374309	-0.06001699	0.11530185	0.04173989	-0.017722204	0.068695575	-0.12488666	0.08064084	-0.031297833	0.04607296	0.09295751	0.064310506	0.15724006	-0.12807637	0.20405781	-0.06573225	-0.32694784	-0.20595518	0.1674851	0.053826034	0.070971526	0.13125639	0.19668415	0.08451404	-0.09983775	0.025817454	0.080029234	0.14260629	-0.10343154	-0.040754706	-0.11717901	0.036794044	0.01755032	-0.07327152	-0.23728435	-0.026103139	0.20680092	-0.016096905	0.40567046	0.041718043
began	0.3179397	-0.13257731	-0.17829648	-0.07406046	0.32287136	0.15765972	0.04146731	0.05751548	-0.20177208	-0.03557922	0.097124465	0.02495052	0.21144664	0.10901272	0.073890984	0.078893185	-0.106063254	0.29882056	-0.11582372	-0.008776784	-0.034612864	0.03396599	0.1325767	0.01272589	0.14299306	-0.013535633	-0.18914905	0.08954182	0.053562395	0.2984123	0.14970836	-0.075727984	0.07527733	0.20612861	0.091525465	0.19963689	0.02358161	0.1517435	0.031303696	0.22956137	-0.0049354974	-0.10581209	-0.15025434	-0.039106112	0.043161333	0.35018933	-0.18967262	0.0150692165	-0.114209324	0.08458566
my	-0.051542595	-0.04200451	0.13984157	0.09296344	-0.32589757	0.09844041	-0.07220289	-0.106074214	-0.12901448	-0.024441004	-0.105423406	0.3312497	-0.103652604	0.09818347	0.0011378601	-0.10766999	0.20016897	-0.14273822	-0.23811707	-0.18263806	-0.048614264	0.18510225	0.10048127	0.018461764	-0.06340587	-0.10778721	0.15463495	0.065472975	0.026398808	-0.17409363	-0.051622838	-0.011023745	-0.017532155	-0.043913532	-0.08561989	0.012448549	0.02385596	0.12747566	0.0039036646	0.056530043	0.14576441	-0.014667038	0.09341326	0.34355068	0.30932063	0.0843891	-0.0142047405	0.03366062	-0.059500977	-0.08656871
turtle	0.28418398	-0.04535745	0.25740758	0.17221674	0.48491904	-0.54667735	-0.16673623	0.2498708	-0.2591699	0.22598049	0.12644859	0.6141658	-0.20234379	-0.13746715	-0.3024146	-0.22735642	-0.21229143	0.08414307	-0.067166895	0.11892027	0.14812317	-0.15460257	0.15173542	0.11210051	-0.007861175	0.119914025	0.27704564	-0.16435981	0.2854432	0.2364151	0.27861056	-0.3224538	0.101258695	-0.00076529384	-0.225571	0.069520704	0.20278864	-0.5594458	0.42025658	-0.35511488	0.10979846	0.34107158	-0.07211367	-0.50096774	0.24409758	0.030615013	0.09313924	-0.17480232	0.354634	0.047365047
its	-0.16080281	0.05013469	-0.18227026	-0.09280049	0.26278657	0.0044228435	-0.16132763	0.043588884	0.0895231	-0.025388062	0.06342737	-0.118515246	0.09914671	0.0058932602	0.043524668	-0.0979958	-0.24933311	0.2596816	-0.15649472	0.29543406	0.22632092	-0.19833994	-0.07351667	0.06493771	0.19936919	0.088624686	-0.42909548	-0.2709322	0.04074274	0.10866882	0.1805847	-0.024705216	0.1286099	0.1605964	-0.0152853355	0.034820795	0.2061306	0.41661647	-0.07483834	0.044680566	-0.18892145	0.02308293	0.14880514	-0.13417986	-0.016504874	0.23011881	-0.043179482	-0.07711529	0.20534061	0.13330981
ll	0.015599526	-0.31290513	0.27658772	-0.1736025	-0.45233172	-0.07630421	0.077409744	-0.19623968	0.034900382	0.10342783	-0.23193902	0.09298368	0.0006041229	0.14082	-0.06281952	0.082470365	-0.00871633	-0.13685536	0.029294848	-0.13563603	0.037426353	-0.118193835	-0.053007454	-0.0543921	-0.15873146	-0.12768659	0.39696893	-0.01341106	0.21377897	-0.30009633	-0.04004738	-0.05862868	-0.102726	0.050044402	-0.22872525	-0.22973716	-0.2612134	-0.32287183	-0.09097569	0.40011418	0.0039002066	0.08285149	0.18860815	0.3766749	0.16713	-0.13627449	0.0648282	0.35777062	-0.39914492	0.029706419
an	0.12648539	0.060357563	0.047287047	0.054167863	0.06036946	-0.16313681	0.04640937	-0.2019536	-0.09385816	-0.046365187	-0.14614461	0.008577347	-0.21193826	-0.1408978	-0.032622345	0.028088883	-0.031932622	-0.13799895	-0.126054	-0.007709086	0.063850686	0.0030561239	-0.026315868	-0.057427555	0.047780722	0.22714841	-0.14934339	-0.064402014	0.02436693	0.05876057	-0.16644385	-0.168606	-0.026373036	-0.04688614	0.108184054	0.063607246	0.06318823	-0.032978356	0.023511656	-0.2098714	0.0033495761	-0.009353839	0.014638513	0.03166811	-0.046354897	-0.00084130466	-0.020334512	-0.07354091	0.22180334	0.010717139
)	0.024600923	0.054826096	0.0014089048	-0.10853212	0.05175886	-0.019296773	-0.066794515	-0.13217004	0.029411137	0.034616247	-0.14996064	-0.070032254	-0.0025381744	0.13588901	0.14845385	-0.21120158	0.017342597	-0.13698585	0.062200025	0.13469881	0.06908983	-0.1586299	0.17857245	-0.064243674	-0.1241422	-0.083968684	0.09428132	-0.0929562	0.044500798	-0.07978325	-0.15122998	0.15854356	0.006308578	0.17523369	-0.21695934	-0.07473008	0.012397148	0.2641804	0.018466542	-0.042266108	-0.07538504	0.12563205	0.01622969	0.23036078	-0.13094194	-0.09896587	0.035617977	0.12936531	0.032335475	-0.10434552
way	-0.0208155	-0.16112332	-0.13392177	-0.21957673	-0.037433654	-0.20291993	0.066597015	-0.040954694	0.17360874	0.2860874	0.07856062	0.07380635	0.24835461	0.060393833	-0.0075671896	-0.00021360815	0.046853244	-0.022857152	0.11457967	-0.04425919	0.2846797	-0.22124322	-0.0022047758	-0.07844928	-0.18406734	-0.22425365	-0.1794395	-0.14440793	-0.08662632	0.24668129	-0.095965	0.220178	0.07613373	0.11770712	0.08126513	0.062179133	-0.08557142	0.11229882	-0.16084611	-0.11697866	-0.04487223	-0.08371692	0.11334727	-0.128173	-0.042922072	-0.23568314	0.04345815	0.12775925	0.0026048124	0.12305779
hatter	0.21959198	0.11281333	0.09661853	-0.0312118	-0.11825701	-0.11462263	-0.043101758	-0.016362824	-0.043841604	0.18226945	0.034444284	0.13676012	0.054233387	0.00069759786	-0.10340761	0.05429642	-0.031667605	-0.25625977	-0.08207142	0.07011756	-0.2846889	0.0937679	0.09320158	0.03588721	-0.048249155	-0.03217806	0.12111038	0.14826809	0.07479353	-0.2161296	0.06459825	0.21752201	0.19109778	0.21670619	0.09157446	-0.08795237	-0.0051417127	-0.12558967	0.07270676	-0.056477357	0.38655305	0.15039593	-0.10053201	-0.103447855	-0.102149054	0.3717851	0.06298226	0.043299016	0.07272438	0.13695818
quite	0.0024988055	-0.0454676	0.0766585	0.01073605	0.15901986	0.1926039	0.04614234	0.22648826	0.13580807	-0.058622524	-0.28466448	0.03109911	0.13230991	0.37774673	0.15417892	-0.24072498	-0.12015258	-0.24483263	0.12551259	-0.06800991	0.1466084	-0.055803508	0.057801574	0.093541056	-0.15059225	-0.08963712	0.0840016	0.18920958	0.14577568	0.05913326	0.08834826	0.06827217	0.11224076	0.05537733	0.13657023	-0.14829947	-0.11134787	0.21161677	-0.070497416	0.0813696	0.02157458	-0.06966925	0.27778223	0.15924613	0.16649063	-0.044070587	0.19709173	0.37443864	-0.08774721	-0.23402973
mock	0.14522134	-0.20290947	0.26883674	0.21610408	0.4619854	-0.4853592	0.013383254	0.25387755	-0.30417895	0.12356819	0.022556756	0.5140939	-0.16965231	-0.12334633	-0.4743732	-0.1606946	-0.24724078	0.12599745	-0.10198568	0.07345423	0.035886437	-0.21565917	0.23174164	0.19403517	0.09997788	0.1668993	0.27191177	-0.017939929	0.24300039	0.2193341	0.29454872	-0.5431867	-0.14422815	0.08266625	-0.29034537	0.01595562	0.22198567	-0.4991415	0.49908555	-0.24241936	0.21633317	0.2565279	-0.025015965	-0.5622504	0.24468727	0.058512688	0.15267332	-0.20024648	0.35592905	-0.034986027
gryphon	-0.06254099	0.10821222	-0.11130673	0.08280457	0.16190436	-0.18909054	-0.07265949	-0.08059889	-0.35423672	0.13751698	0.046006724	0.30400696	0.20178439	-0.08715994	-0.19330785	0.034628518	0.18124108	-0.08115552	-0.18206814	0.11092362	-0.32024786	-0.16811854	0.10451567	-0.056402326	0.3545726	0.10366805	-0.1281572	0.03446603	-0.119372085	-0.14074394	0.028973734	-0.120176464	-0.237714	0.32992318	0.035460435	-0.016937181	0.3397921	-0.1532411	0.32971093	-0.2900042	0.21027122	-0.0325737	0.13123564	-0.38793784	0.18006067	0.24828374	0.039987795	0.07435778	-0.06568546	0.070808955
are	-0.043498084	-0.03792461	0.09178379	-0.027798347	-0.24389982	-0.07612855	-0.1425902	0.12482408	0.019063082	0.11811353	0.18790206	0.2595907	-0.15505382	-0.24992514	0.34878993	-0.029307723	0.033025816	-0.16848522	0.107854016	-0.22011773	0.08491255	0.2285764	-0.0060371757	-0.10887739	-0.03921187	-0.24809936	0.1957213	0.17300422	0.063604385	-0.34645563	-0.07990115	0.15015224	0.108965576	-0.27141115	-0.1201791	0.15296498	0.30273646	-0.27146977	0.28633037	0.0073346794	0.353948	0.17752407	-0.111544445	-0.16758278	0.19692594	-0.0661762	-0.16811702	-0.15274826	-0.18452206	-0.079964094
think	-0.0053319186	0.12097967	0.10443771	0.07295854	-0.19786572	-0.27456638	0.0814527	0.05016777	-0.0420979	0.21275705	-0.114076674	0.361455	0.19715573	0.14776158	0.039296597	-0.26517147	0.322009	-0.17675532	-0.055891614	-0.091572985	-0.0070199072	0.19197197	0.054654777	-0.063688815	-0.5797439	0.23214321	0.26706678	0.036052234	-0.025481924	-0.42704874	0.009164289	0.11407025	-0.39733166	0.0038342103	-0.034765393	-0.23272862	-0.018449094	-0.30115253	-0.1176813	-0.051798746	-0.30098018	0.035312995	0.064523265	0.28418365	0.13962771	-0.13356583	-0.17736575	0.25661337	-0.51835567	-0.1928606
just	0.0054843724	0.088142306	-0.24404517	-0.06163401	-0.07280496	-0.0714291	0.0062963814	-0.19176544	0.2355967	-0.14881572	-0.064585954	-0.10648859	0.0993143	-0.053943325	-0.1601115	-0.21747501	-0.16444132	-0.035989955	-0.054160222	-0.006543249	-0.13607898	-0.023149937	0.16986498	0.1710898	0.050278857	-0.06409623	-0.0945182	-0.09804456	0.023376003	-0.29302973	-0.023798577	0.0024864376	0.0011674389	0.06557485	0.1585356	0.14372891	0.18780467	-0.02068656	-0.09548878	0.0836474	-0.26996043	-0.09801328	-0.04643616	0.05673121	-0.038776595	-0.0026786309	0.030038014	0.020319283	0.005658537	0.01027298
their	-0.34638256	-0.09195852	0.035464585	-0.0008831993	-0.043606594	0.26350194	0.018003821	0.089050986	0.0975148	0.05005583	-0.058465116	-0.017368518	0.1993134	0.10666003	0.16874593	-0.2019052	0.20045823	0.29534766	0.17065085	-0.1133599	0.111658186	-0.17725088	0.17817563	-0.26471058	0.091154814	0.038350623	0.021114327	0.0061872154	-0.09871873	0.07101756	0.16335723	0.0135656	0.058324426	-0.28093183	-0.13099808	0.08734974	-0.040509447	-0.05996164	-0.00069306046	0.05946046	0.16828331	-0.17714939	-0.12892787	0.009397134	-0.048891917	0.15986973	0.187559	-0.13271028	-0.13238189	0.025992766
(	-0.0032877699	0.12488	0.21779872	-0.026347578	0.007556513	-0.12134381	-0.1836272	-0.13251536	0.033524513	-0.115080595	-0.080223545	0.074135676	-0.025613278	-0.0032574162	0.23396638	-0.096790284	-0.039405435	-0.353648	-0.13904956	0.20914713	0.13875468	-0.09531243	0.029166937	0.1746574	0.032852665	-0.112981096	-0.0019731969	-0.0051450804	0.1692822	0.1272293	-0.1931102	0.13654222	-0.123928495	-0.21364094	0.089825615	0.14017919	-0.11050748	0.21913606	-0.30467278	0.03893754	0.032580744	0.16478471	0.19821355	0.06436942	-0.058784023	0.12657052	0.11914357	0.09974186	-0.07896221	0.043109037
much	-0.11257266	-0.09357851	-0.21808529	0.050233133	-0.11063345	-0.12718402	-0.12115221	-0.2270751	0.014162814	0.07892236	0.08065121	-0.111138485	0.3326664	0.24350134	0.12066363	-0.09226827	0.024531454	-0.31304696	0.009465858	-0.098897874	0.0008675456	0.16254668	-0.102974474	-0.10511714	-0.04487586	0.18242905	0.39444268	-0.07617218	0.3117342	0.28331658	-0.45337504	-0.1296887	-0.36050132	0.02222488	-0.2106652	0.012435764	-0.10578046	0.17445372	0.0060379654	-0.14000502	-0.037598215	-0.25609708	0.35183254	0.091301255	0.06659606	-0.21621536	-0.11162359	0.048744217	-0.05099596	0.22714077
say	-0.009574279	-0.2534578	-0.1358982	0.0060536787	-0.096974604	-0.0988401	0.044409856	0.1279531	-0.063354984	0.08289604	-0.13550441	0.025409847	-0.12836431	0.27485988	0.010799196	0.051749952	0.06985324	-0.3405514	0.18046963	-0.111070246	-0.13489409	0.09562952	0.28189224	0.08777183	-0.37570834	0.2817659	0.2819563	-0.112310566	0.06314017	-0.3240104	-0.2011251	-0.10747653	-0.26280397	0.12163748	0.033300273	0.17817837	-0.013674062	0.2195555	-0.19956459	0.22799306	0.07679413	-0.09026459	-0.07281384	0.29253203	0.12574194	-0.26928607	-0.0018483847	0.015042335	-0.54226696	-0.12864718
some	-0.020266775	0.12967105	0.10997486	0.0956617	-0.13212164	0.23186973	0.16680682	0.0561658	0.22556576	-0.040612474	-0.028847665	-0.14589776	0.08457132	-0.07608751	0.043230407	0.07844786	-0.06834543	-0.08120225	0.094703235	-0.07278603	-0.18632887	-0.22346658	0.04527259	0.11360803	0.18218467	0.002495326	-0.12993455	0.06995918	-0.0017324537	0.09027276	-0.1687735	0.067453295	0.29647088	-0.0047425386	0.13797486	-0.00840275	-0.014722638	-0.09788494	-0.06214506	0.11480431	-0.12003486	0.057217807	0.052193582	0.1679937	0.02415317	-0.17469232	0.11178198	-0.029202893	-0.06990443	-0.17425108
first	0.03057094	0.013775509	0.12868421	-0.22674932	0.078527026	0.10509361	0.01743126	0.1014788	0.023509383	-0.058092833	-0.031604618	-0.21701312	0.047375143	0.042686753	0.042001747	0.08005485	-0.16783285	-0.15790977	0.15548567	0.106476754	-0.13018446	0.040611792	-0.1432398	0.13917527	0.09743872	-0.0562194	0.08959693	-0.2730994	0.066855796	-0.14729904	-0.2462027	-0.07768935	-0.15422833	0.040905394	0.06483484	0.052428022	-0.10333061	-0.07626549	-0.028963348	-0.14416465	0.023057573	-0.0145514645	0.2122303	0.03756543	0.24193422	-0.10259132	0.08617987	0.33918226	-0.0041848123	-0.11479552
here	0.116773605	-0.39857948	0.31048262	0.06720362	0.17647573	-0.20525464	-0.19822611	0.1445399	-0.33635676	0.21866459	0.053000875	0.043834798	0.31167048	-0.2248305	-0.05631879	0.27659395	-0.041394845	-0.14138581	-0.19272459	0.016968027	0.13239178	0.23688148	-0.069010705	-0.062091827	0.15154304	-0.25168526	0.30491412	-0.121848	-0.16259852	-0.05417718	-0.11605066	-0.034006238	0.08231756	0.02329053	-0.032170363	-0.3181279	0.3654732	-0.31920475	0.10886955	0.21345916	0.072047636	0.020746283	0.29265022	0.14750491	0.15259036	-0.026836505	0.055177957	0.118097916	-0.09118192	-0.14697616
head	-0.112631395	-0.053428933	-0.077120155	-0.23352474	-0.16149642	0.013727449	-0.37775844	0.31170845	0.032720372	0.14427342	0.28957504	-0.36480886	-0.07013151	0.111926734	-0.12240401	0.08894534	-0.17135197	0.16512927	-0.0014874786	-0.10137972	0.03319563	-0.25134927	-0.13185012	0.22258335	0.2821794	0.0065497383	-0.062280048	-0.24083665	-0.034426093	0.031758778	0.006882645	-0.36013767	-0.1336301	-0.13918966	0.12000044	-0.03267336	0.12389509	0.15231341	-0.059485808	0.11775799	0.09048574	0.040474344	0.12692466	-0.25212446	-0.096798174	0.24287263	0.11231592	-0.3257488	0.07793647	-0.16147704
go	-0.016033828	-0.33968627	0.10183744	0.16160034	0.009385817	0.04311281	0.0326958	-0.09622429	0.14961435	0.16590698	0.20537832	0.14448911	0.10120651	0.11328651	-0.19344181	0.16187358	0.02927047	-0.23369454	0.1043423	0.07935694	-0.2953544	0.16344926	0.030279249	0.026200473	-0.099301055	-0.14821032	-0.027606785	0.025123	-0.047344513	0.17830245	-0.02304259	0.04921657	0.008555561	0.22410968	-0.22079599	-0.009500116	0.1705223	-0.072871566	-0.057277843	-0.057983276	0.13085002	-0.009748884	0.41192988	-0.13625956	0.18305951	0.0087676495	0.020553961	0.31665435	-0.14943683	-0.0200634
only	0.28736573	-0.20136361	0.083150804	0.011677146	-0.17754763	-0.058521416	0.018216133	-0.06290813	0.19034794	-0.009484589	0.1823956	0.19741815	-0.006083414	0.1595996	0.04896363	0.006804377	0.03497672	-0.05561383	-0.019446135	-0.116309315	0.011584938	0.087960035	-0.014199346	-0.10361543	-0.49370646	0.29841748	0.047767416	-0.020459682	0.023634672	0.07831432	-0.2096553	0.031405926	0.044403438	0.020368561	-0.078282975	0.09207562	0.12983853	0.04901638	-0.09962676	-0.045981407	-0.34772485	-0.019409299	-0.056726277	0.20507708	-0.008249328	-0.012787402	0.06166327	-0.050985515	0.17244619	0.11908321
rabbit	-0.023820948	-0.055317715	-0.30107486	0.18610336	0.30979455	-0.11317472	0.17670491	-0.08555393	-0.13017084	0.10410243	-0.405241	-0.17446287	-0.31003007	-0.03569314	-0.03401193	0.34269542	0.0043313205	0.28031176	0.008640317	0.39670023	0.24595933	-0.24370669	0.050088435	-0.08495194	0.19025435	0.0030019414	0.10160261	0.08069206	0.03976284	-0.094506904	-0.08238593	0.20813267	-0.020939782	0.057073094	0.17129998	0.023194	-0.056470387	0.07233546	-0.03135084	0.15413257	-0.0229485	-0.31387302	-0.07452956	-0.41178077	-0.17127904	0.13894448	-0.15237151	-0.15081725	0.2521487	-0.03243211
which	0.024582118	-0.060492545	-0.04544884	0.14673549	0.0075181574	-0.3634227	0.009895235	0.006887153	0.007537702	0.016215116	-0.17124361	0.097307235	0.016244143	-0.038638227	-0.16269319	-0.07398244	-0.120410815	-0.034584373	-0.09110181	-0.050254464	0.052270427	-0.1604124	0.08044332	0.002258569	0.11598447	-0.17334662	-0.17238155	-0.09898006	-0.15929785	0.03585355	-0.028012086	0.032665253	0.15991302	0.015729185	0.32177302	0.25933537	-0.116249286	0.1740083	-0.110983886	-0.009832606	0.07483158	-0.052695114	0.15079822	0.04996317	-0.16450924	-0.037219323	0.115838	0.086708784	-0.07680343	0.13442966
thing	0.22413108	-0.010005772	0.13364646	0.09795969	-0.066685185	0.044389427	0.0050827265	-0.29040667	0.064737104	-0.28055555	-0.34948236	0.21359707	-0.04946652	-0.09996041	-0.12951066	-0.16757292	0.07998605	0.0037696362	-0.26816294	-0.02947162	0.054607064	0.05779043	0.4464648	0.002802819	0.0016152859	0.06881823	-0.06477694	0.019512855	0.16802838	0.071934566	-0.04578307	-0.2841211	-0.38446206	0.01369616	-0.2684087	0.06241253	0.06593712	-0.010004044	0.009675428	-0.24781382	-0.014590127	-0.15186727	0.15274298	0.31545988	-0.16206282	-0.15243152	0.21673785	0.3850731	0.061674118	0.24736749
more	-0.21926534	0.054140218	0.1090081	-0.12593004	-0.034053918	0.12035857	0.0248328	-0.017145626	0.27618748	-0.046057925	-0.081363864	0.052498095	-0.052432954	-0.0019685812	-0.1401065	0.118665814	-0.14940906	-0.29934675	-0.027460799	0.0638192	-0.30600375	-0.04925687	-0.06176421	-0.068256944	-0.12762615	-0.0572918	0.28857625	-0.3446584	-0.08589479	-0.055686325	0.014995495	0.13553703	0.18810695	-0.00091912877	0.12826805	0.027686507	0.19845977	-0.16213498	0.19237068	0.06733607	-0.18759303	0.06378648	0.034699917	0.5316902	-0.038815543	-0.21948016	-0.39091432	0.13180026	-0.04811424	0.0978981
never	-0.0132786	-0.05930285	0.014769405	0.04565283	-0.13149478	-0.29315612	0.05601026	-0.3576213	0.10777119	0.13706285	-0.071241006	-0.13799182	-0.21870829	-0.23673618	0.13008115	0.089674324	0.07266483	-0.16709572	0.12368036	-0.039383724	-0.0590519	0.102446616	0.1023958	0.060846597	0.008838773	0.13076238	0.028731808	0.10053803	0.0643502	-0.1348199	-0.32986876	-0.44033802	-0.16940168	0.08908215	-0.121791124	-0.02959098	0.14020874	0.07511781	-0.052123845	0.15417479	0.338355	-0.09384124	0.045877576	0.44552034	0.026245032	-0.21944204	0.20289697	0.24834694	0.07794823	-0.1615341
voice	0.0583466	0.109688625	-0.25554973	-0.053276	0.27051294	-0.084831715	-0.13539603	0.121506676	-0.6782655	-0.0251135	0.119985625	-0.25131875	0.09580466	-0.063556194	-0.108282	0.22199404	-0.13496137	-0.055629775	-0.2298063	0.03696707	0.1161052	-0.003671987	0.25007612	0.069728196	0.37555638	0.38294026	-0.23641887	-0.10760087	-0.109886274	-0.17727742	-0.072930284	-0.13605173	-0.04154578	-0.08583578	-0.052009016	0.31506488	0.3753503	0.15020624	0.06269659	-0.014918596	-0.053962477	-0.2841441	0.020979062	-0.27440947	0.0040997807	0.19539264	0.011328876	-0.13195394	-0.06024904	0.24870987
get	0.33703536	-0.34184724	0.08155176	-0.39549333	0.038279727	0.40024763	-0.15087727	0.017324537	-0.055778973	-0.063592106	0.0012040436	0.067873985	0.17211774	0.17225261	0.28166926	0.26705974	0.53869057	-0.30350924	0.054401048	-0.07022387	0.13772793	-0.016637735	0.1530574	0.29697132	-0.23664299	0.03084737	0.14148176	0.11586061	-0.15958351	0.22402644	-0.08721428	-0.36785537	-0.32866228	0.37136376	0.008939767	-0.010634109	-0.11215768	-0.016962923	-0.5062791	-0.057700247	0.26501864	0.17878935	-0.0068314075	0.13970175	-0.0008527711	-0.20957178	0.05149491	0.26381665	-0.063364044	-0.015665183
come	0.015479334	-0.057248637	-0.07883489	-0.024108686	-0.056885857	0.0026088096	-0.04702054	0.009238981	0.11431843	-0.08639097	-0.045802757	0.030418009	0.08786729	-0.23186332	0.028826006	0.2447954	0.04184279	-0.14885747	0.057221152	-0.037049964	0.11024591	0.025369167	-0.19842193	-0.03578314	0.12784952	-0.20763941	-0.057826072	-0.09297982	-0.35622478	0.08498623	-0.020842867	0.051090747	-0.033416003	-0.16807933	-0.27202702	-0.2028518	0.19655383	-0.02299507	0.1810358	0.11122434	-0.022074282	0.22134678	0.059818745	0.06308769	0.10613054	-0.055677455	0.14435944	0.16362715	0.0025645643	-0.057663362
oh	0.30609357	-0.10752244	0.033527613	0.18733653	-0.3302444	-0.14824802	-0.22599079	0.028513193	-0.16419491	0.24848942	-0.10442647	0.3021754	-0.1872151	-0.093491785	-0.35049194	-0.2730764	0.12770641	-0.13605781	-0.35035458	-0.63671404	0.29648027	0.31515047	0.07541329	-0.2890437	-0.03137991	-0.037868164	0.4192552	-0.057831734	0.030096628	-0.21733624	0.09539351	0.063533634	-0.19798973	-0.050297737	0.064331904	-0.14205326	0.19174546	0.18308936	-0.11126567	0.13293983	0.40514958	-0.0393292	0.050215516	0.57091904	0.19495587	0.11023049	0.098920055	0.042577952	0.02493269	-0.2362381
looked	0.094467916	0.5381119	-0.100483954	-0.28366393	0.084687844	-0.2683761	-0.2274413	0.044175126	-0.16442361	0.08638018	-0.051180176	-0.09696202	-0.30189863	0.079479605	-0.1487677	0.0783039	-0.37124544	0.06863496	0.26883957	0.28033608	0.33095786	-0.044187427	0.067765325	0.33755207	0.37106407	0.15762761	-0.14261186	0.10506844	0.091614306	0.1661324	0.008096678	0.25568762	0.19863336	-0.03729103	-0.14164618	-0.11459015	-0.12728329	0.34748274	-0.23732887	0.18316142	-0.13825636	0.038227074	0.008937135	0.06385821	-0.19571635	0.10175933	-0.026562601	-0.012833089	0.13316926	0.3958732
got	-0.17271523	0.20236266	-0.12902634	-0.26696292	-0.07214214	0.0006775211	-0.2077857	0.090173244	0.07136203	0.1584913	0.24152878	-0.13089849	-0.035181656	0.27129656	0.093125895	0.23422012	-0.0036471784	-0.08078739	0.0072887167	0.03170547	-0.04289943	0.093153775	-0.1574415	-0.21140853	0.0500831	0.13771716	-0.13889743	-0.23514348	-0.33953002	-0.071884885	0.02965585	0.16515541	-0.091259584	0.15374899	-0.31699178	-0.23014754	-0.06976054	0.14286491	0.016842349	0.15013805	-0.024343759	0.16972587	0.22661258	0.124085054	-0.1857509	-0.10574125	0.13086787	0.27594212	0.24539417	-0.1758562
ve	-0.28058544	0.20715852	0.07056934	-0.11643766	-0.44936293	-0.24506676	0.0019778982	0.21470894	0.075131364	0.2778191	-0.22244039	-0.06593082	-0.044071168	-0.067460775	-0.21250346	0.1248834	0.18160246	-0.17020866	-0.17733815	0.06204793	-0.17876454	0.13560447	0.19159919	-0.05733061	-0.23979694	0.08994646	0.34094182	0.03421554	-0.5363549	-0.4405705	-0.07399535	-0.04925263	-0.2769313	-0.10924995	-0.040555317	-0.09958113	0.1692417	0.17923945	-0.23573548	0.028561272	-0.18084036	0.18780017	0.14168955	0.58630955	0.10296306	0.13491426	-0.17692758	0.1416977	0.14638412	-0.29671642
must	0.36005205	-0.08329029	-0.094495445	-0.14118823	-0.16290152	-0.11764255	0.15147084	-0.2613229	-0.2793539	-0.05305566	0.26360396	0.12917016	0.033581257	-0.13981481	-0.15124659	-0.05343108	-0.2640985	-0.12204708	-0.12351287	0.1372839	0.042467102	0.10979764	0.18353865	0.04080528	-0.36376157	-0.26158673	0.027823195	-0.006362483	-0.08935162	-0.015949667	0.43786216	0.12559009	-0.08092846	-0.0525229	-0.22062887	0.01563108	-0.22310476	-0.28740457	0.29483598	0.1970202	0.3559862	0.14950745	-0.017821409	0.33753186	0.07843867	-0.4068771	0.08927784	0.14322796	-0.39122018	0.012782976
mouse	-0.11793313	0.023822688	-0.075618654	0.053738505	-0.108251885	-0.33021152	-0.19044372	-0.10683185	-0.38250038	-0.010165539	0.15583056	-0.020206913	0.3192761	-0.07722671	-0.06382154	-0.033626407	0.16024312	-0.35875285	0.00027906895	0.2313404	0.16002963	-0.01664202	0.037239313	0.22424702	-0.14109519	-0.03537298	0.26561373	-0.3478226	-0.3179217	-0.027979463	0.39692995	0.03484264	0.11462636	0.12290335	0.054851465	0.005377874	0.53754985	0.012590185	-0.2959192	0.1804206	0.22193138	0.05054313	-0.063822806	-0.033273593	0.12753044	-0.029498242	-0.16512266	0.09902629	0.23996267	-0.16870488
after	0.30161598	0.2739929	0.14167097	0.14438094	-0.05421775	0.20602438	0.21730426	0.25302738	0.027885675	-0.22748397	-0.14864832	-0.13459252	-0.0015874356	0.106699556	0.27694654	-0.13371226	0.1967949	0.13705346	0.18848038	0.03788939	-0.3615639	-0.000337407	-0.18965867	0.275761	-0.06386368	0.22905393	0.029735506	0.2540832	-0.0031187478	-0.08505778	-0.10732774	-0.049677327	0.12300327	-0.16379225	0.07079099	-0.10828242	0.16990738	-0.03166885	-0.061269004	-0.015470386	-0.26241684	0.2237517	0.0014445186	-0.06763425	-0.17635687	-0.032274872	0.09676118	0.01600912	-0.015442014	-0.25443664
him	0.11561248	-0.16447978	-0.053503007	-0.08892304	-0.25291237	0.11964919	-0.08634065	-0.19680366	-0.30107826	0.04132065	-0.2381506	-0.23793781	0.21465243	0.25200906	-0.065376416	0.052867055	0.22540134	0.016281858	-0.09392287	-0.01276198	-0.0069307983	0.045643732	0.14007807	0.04278508	-0.08465685	-0.051552355	-0.013282148	-0.12220976	0.19248188	-0.17101975	-0.092397906	-0.01577589	-0.00048433617	-0.07016252	-0.18104842	0.06616478	-0.14956434	0.12017689	0.14102137	0.09909147	0.19703278	0.06905356	-0.17439689	-0.05649317	0.2918949	0.10793524	0.19689658	-0.06046444	-0.14336367	-0.092168786
duchess	0.3855741	0.020160304	-0.038132757	0.43363348	0.24659505	0.08875113	0.09428209	0.16510066	-0.2776501	0.29565465	-0.031699196	-0.07905734	-0.012394071	-0.12876625	-0.2522567	-0.22833008	-0.17694953	0.0009261705	-0.19168526	-0.40094545	-0.08372098	-0.17837527	-0.27235845	0.010280848	0.021693423	0.031250224	-0.13273302	-0.24265802	0.060941827	0.17790063	0.07378576	-0.082901716	0.045155387	-0.18649006	-0.22458567	-0.00035294704	0.21327744	-0.02544915	-0.042915758	-0.14487132	0.19661495	0.14038768	-0.26114413	-0.053026013	0.13805377	0.1272378	0.28086683	0.07650944	-0.17209534	0.45876515
such	-0.15126836	0.22737612	-0.078956425	0.3095178	-0.07620649	-0.23900488	0.16369444	-0.021362573	0.022791311	-0.40211028	-0.2946251	0.1910218	-0.065116405	-0.17130034	0.14873123	-0.25163284	0.13915055	0.027643505	0.008240201	0.03759405	-0.00016731024	0.04391094	0.22519633	0.046996117	-0.26922956	0.08314101	-0.2269752	0.31034124	-0.04439886	-0.1895976	0.12322571	-0.21598691	0.119934335	-0.34344912	0.28657645	-0.044275284	0.12756509	0.061923966	-0.18580431	-0.24278277	0.020241577	0.1509426	0.1351293	0.44519967	-0.3038457	-0.18284442	0.019840539	0.3895442	0.25224802	0.0715307
round	-0.457816	0.10934643	0.124491826	-0.5272355	-0.11288223	-0.13481879	0.071505696	-0.14596072	0.18519875	-0.03149946	0.2141629	-0.07838309	-0.0074810833	0.008150607	0.3779429	0.04182504	-0.3684101	-0.0201957	0.43353847	0.25526097	0.10553771	-0.06186072	0.13940346	0.28581417	0.25131345	0.2743082	-0.12253311	0.19496277	0.36025065	0.35792106	0.028301012	-0.04992044	0.32546744	0.38571745	-0.33713582	-0.29391146	-0.022104515	0.16263404	-0.23813349	0.24571554	-0.10249323	-0.04564069	-0.3201908	-0.003791228	0.07312161	-0.117456116	-0.25905973	0.00936982	0.24460526	0.3889349
over	-0.066679925	-0.14606988	-0.24719644	-0.07908001	0.0038179383	0.05413416	-0.13028152	0.15427966	0.19173351	-0.054776803	0.12894286	-0.04434283	-0.19640651	0.13721246	0.065174386	-0.040245876	0.28868568	0.19538599	-0.06010913	-0.122445226	-0.097974	0.048873127	0.05648011	0.177814	0.24503037	0.24550661	-0.20379713	-0.0609736	-0.15355352	0.2584588	-0.19440305	0.029431105	0.22924326	-0.01996797	-0.21375057	0.1706635	-0.1957853	-0.067042276	0.07665449	0.2935725	-0.048992448	-0.02667892	-0.20300142	0.05954535	-0.036471345	0.038082186	-0.23181373	-0.15979293	0.19513492	-0.18867272
why	0.16304728	-0.19431004	0.28971177	-0.16945586	0.18861064	0.20495966	-0.2393485	0.022299036	-0.27359435	0.40112722	-0.059703983	0.017992467	-0.19802505	-0.023421586	-0.02372159	-0.37201315	0.1949007	-0.32038334	-0.066394396	0.15570574	-0.25981942	0.34627408	-0.076185346	0.2663445	-0.02283135	-0.019282162	-0.16546527	0.123369515	-0.044962436	-0.5838172	0.13150133	-0.037206948	-0.28543305	-0.074901804	-0.34326902	0.4798756	0.35674894	-0.14793913	0.34466052	-0.12856466	0.26209593	0.13920651	-0.2489844	0.11282527	0.26887077	-0.24044037	0.16139878	0.04334569	-0.6037963	0.0639994
came	-0.21639162	0.07240809	-0.003329724	0.1729487	0.22303927	0.18393478	0.09945308	0.09090116	0.051730167	-0.04012116	-0.17257442	-0.46670446	-0.24640295	-0.059940822	0.11392483	0.1350407	0.1913434	0.5035183	-0.089539334	0.14824447	0.059911042	-0.03371921	0.10395965	0.18984514	0.28577313	0.5009872	0.13423678	0.18530084	-0.14554651	-0.1621891	0.15146455	-0.1338709	-0.09392679	0.19173278	-0.2934907	-0.1467686	-0.24543695	0.18974313	-0.0060053356	0.0026336983	-0.06563207	-0.212737	-0.079323456	-0.21443889	-0.48916698	0.18822286	0.025239915	0.3515991	0.18686223	0.23318958
other	0.08246043	0.17274286	0.11263627	-0.30294484	0.11185729	0.02484848	0.092231184	0.0010579228	0.386501	0.12408118	0.32398397	0.055614617	-0.21039924	-0.1527829	0.040155474	0.30649495	0.09955781	0.16829357	0.24687606	0.045612857	-0.12196833	-0.31707847	0.12404248	0.16150433	0.08553997	-0.22413343	-0.05662465	-0.055932965	0.11530551	0.0070438087	0.14984544	0.00991267	0.26961094	0.15024945	-0.0072194487	0.03151992	-0.2450102	0.030187868	-0.07701638	0.04380609	0.07809445	-0.083536156	-0.03275819	-0.2303446	-0.3349685	-0.2675671	0.1942633	0.08852846	-0.13151231	0.31157625
two	-0.024240542	0.3208257	0.033691525	0.2946893	-0.18709248	0.10209044	0.025986437	0.1357749	-0.18612185	-0.041031644	-0.27277982	-0.5852429	-0.2580403	0.20398742	-0.037661843	0.12918709	0.07801293	0.19205803	0.11182951	-0.030537114	-0.24161528	0.22993362	0.18484217	-0.22329779	-0.17421472	-0.07890639	-0.31048608	-0.3526007	0.026310205	0.14883818	0.4559035	-0.1856238	-0.15035094	-0.15516075	0.46264172	0.23409438	0.18171607	0.014202142	0.40893024	0.47189808	-0.20703816	-0.051182896	-0.25790685	0.059545204	-0.26666817	-0.019604346	0.002542723	0.15436989	-0.1998493	0.08111185
tone	-0.049690418	0.32129878	0.045042932	0.10508623	-0.21832566	0.07248005	0.1152609	-0.30298874	0.15271705	0.17619973	-0.20620358	-0.30911246	-0.2219314	-0.19898874	0.1271335	0.019405141	0.44866824	-0.27890337	-0.14197959	0.19611049	-0.26776555	-0.12749755	-0.015594423	0.10454273	0.28746915	-0.17820968	-0.013039216	-0.14482588	-0.10536498	-0.12742631	0.42840064	-0.073402226	0.07628246	-0.006331455	0.28718343	0.12012111	0.16941419	-0.02173677	0.036897644	-0.5638091	0.15845756	-0.4701344	-0.25645152	0.028195381	0.26755172	0.114069775	-0.19625363	0.14283459	-0.094223216	0.18531632
dormouse	0.17727084	0.30929136	0.008089006	0.034059912	0.34681976	0.0013383031	-0.16315705	0.30171627	-0.14419876	-0.15507524	0.13505739	0.16191249	0.5459944	-0.0284869	0.066146456	-0.14790538	0.14422992	-0.122740015	-0.04535846	-0.14063725	-0.29474708	-0.123955525	0.040755868	-0.19468561	0.110775486	0.08070725	-0.22892569	-0.030698605	0.055450067	0.029216625	0.012990679	-0.15972069	0.08349202	-0.0776202	-0.18527424	-0.13520509	0.17206669	0.07038464	0.09517224	0.30153975	0.2718467	-0.17288202	0.11001247	-0.17623143	-0.28834808	0.15547347	-0.026147619	0.03184098	0.06787071	0.20710444
great	-0.040485457	-0.1284334	-0.077399135	0.04692681	-0.1596389	0.28327513	-0.07387018	0.20285416	0.01046326	-0.17745683	-0.202659	-0.107042305	0.018071443	-0.14631914	0.08658394	0.14403042	-0.09308737	0.17877103	-0.019541766	0.32505336	-0.2499646	-0.12511602	0.06384045	-0.031290144	0.25620425	-0.0784265	-0.34266102	-0.091213346	-0.022403345	-0.020871356	-0.0230925	0.011758089	0.30428723	0.11015379	-0.059572734	0.082387686	-0.14499138	0.089247495	0.09273959	-0.13836199	0.07057082	-0.32713807	-0.27283096	0.1383737	-0.23501818	0.1553297	0.14692247	-0.07336968	-0.04262297	-0.28130838
any	-0.31057453	-0.07755515	0.3168079	0.18391451	-0.042343892	-0.1340794	-0.18555185	0.2103853	0.24280855	0.3547292	-0.06496448	-0.2863909	-0.023395613	-0.053162657	-0.034969658	0.31389365	0.18655877	-0.3763066	-0.005463429	-0.10685435	-0.062442064	0.23826547	-0.27107662	-0.013461113	-0.21023957	0.00012681633	0.43792447	-0.27593556	0.1358419	0.3076185	-0.21656018	0.08920461	-0.28801408	0.16209824	-0.080380276	-0.2034854	0.034762785	-0.23026419	0.40991646	-0.17760177	0.02007319	0.089058645	0.3050878	0.15733622	-0.15059805	-0.3286506	0.10744555	0.4499303	-0.17912705	-0.030036591
back	-0.050499577	0.17177407	-0.048051357	-0.0740894	0.08379274	-0.008086845	0.103694946	-0.099613294	0.09019085	0.03626228	0.29328227	0.18886077	0.034824193	-0.15386346	0.041960135	0.43710023	-0.3650386	-0.103544705	0.11345197	0.050787807	0.030645862	-0.3439504	0.018914908	0.038207024	0.41912606	-0.0049263234	-0.48021236	0.17012192	-0.4197092	0.05648417	-0.13108942	0.20285599	0.41458234	-0.17128845	0.09103049	0.11779122	-0.2139973	-0.037509367	-0.08832527	-0.13606234	0.04665613	0.21695632	0.12602983	0.05539374	0.36438876	0.06887169	0.1764125	0.0073772	-0.027808653	-0.017570186
before	-0.25731924	0.2409304	0.022750184	0.03755152	-0.27333018	0.007049434	0.38871357	-0.022333398	0.2511618	0.015131965	-0.25241005	-0.24426065	0.15728953	-0.22780347	-0.17718396	0.038289994	0.25938755	-0.09540132	-0.085438825	0.24278238	0.06019722	-0.28055292	0.020692527	0.020289958	0.088790566	0.10530161	-0.04674504	0.021673977	-0.059882984	0.44602272	0.01347724	0.033288047	-0.28375423	0.19586438	-0.24456662	-0.07550031	-0.05397418	0.04149826	-0.034819156	-0.025917917	0.08839421	0.19397742	-0.18213686	0.24434811	-0.028964296	0.13507004	0.07184845	0.28095734	0.24913067	-0.5106596
re	-0.012730032	-0.29176822	0.04527515	-0.12497218	-0.0760134	-0.050698064	-0.18103097	-0.2029178	-0.065301344	0.31490386	-0.25416964	-0.092789546	0.22587162	0.16675597	0.0663664	-0.040681317	0.28264317	-0.026546821	0.14462198	-0.03801185	-0.06259501	0.20351148	-0.15011385	-0.07130644	-0.39112958	-0.35390425	0.36429977	0.09178718	-0.018218368	-0.3232067	-0.16382535	-0.14816688	-0.22209288	-0.047329567	-0.28331953	0.46055079	0.09978229	-0.29357976	0.07651967	-0.27865338	0.0979895	0.31593132	-0.1502654	0.23282385	-0.03666121	-0.06605333	-0.15442431	0.23468792	-0.34577	0.13566735
been	-0.47681603	0.12556617	0.08154032	0.10576725	0.14859436	-0.30943066	-0.10999126	-0.46444398	0.041250855	-0.100352876	0.12513675	0.18317097	0.20404437	-0.19888657	-0.33396932	0.19690797	-0.38585392	-0.25295338	-0.08680051	-0.073699504	-0.07536413	0.20408773	-0.040953815	-0.035563886	-0.06493504	-0.124418244	0.084342085	0.099638134	-0.3190586	0.065464616	-0.11280647	0.34170908	-0.3107789	-0.32638586	-0.22391143	0.10839799	-0.23160382	-0.055400595	0.2128211	-0.09607529	-0.06304116	-0.10995553	-0.06820837	0.41214257	-0.13178022	-0.0157366	-0.12012874	-0.072471336	0.004611835	0.2150021
cat	0.3041702	-0.086453676	0.049228758	-0.045719236	-0.07914463	-0.42703	-0.34310484	0.011575125	-0.1428902	0.18941835	-0.25198382	0.42416635	0.18812497	-0.013975002	-0.11992721	-0.01192686	0.45042542	0.21842422	0.2499661	-0.19072853	-0.12911898	0.18779579	0.2937708	0.10085474	-0.3804571	0.2024056	-0.28927204	-0.20063806	-0.091946244	0.44608235	-0.09030773	0.08445656	-0.10693759	0.09720728	-0.022222802	0.116529636	0.12229974	-0.25000757	-0.15696731	0.06954129	0.2067995	0.347635	0.07451025	0.32156923	0.26710945	0.117590874	0.18779108	0.089501806	0.09498965	0.3661713
from	-0.054052517	-0.14450034	-0.115814865	-0.21686085	0.0022946	0.13256207	0.2502679	-0.012445092	0.20319685	-0.1334041	0.32196438	0.10735654	0.08536625	-0.20463407	0.36867154	0.3440078	-0.13904555	-0.12490447	0.06966043	-0.07608146	-0.264071	0.091049656	-0.07335174	-0.03528297	-0.29558125	-0.008456999	-0.030366704	-0.113888666	0.035503194	0.05192466	0.33358198	0.0318442	0.050311856	0.11491397	-0.25950283	0.018792406	-0.052977145	0.19855213	0.032129243	0.12316918	-0.08215485	-0.16057566	0.05640194	-0.27619794	0.06769135	0.01939423	0.1885671	-0.021940626	0.2474095	0.14153259
nothing	-0.30205706	0.09128072	-0.13804993	-0.28617766	0.26596972	0.06672403	0.027084589	-0.068354055	0.31279653	0.17735793	-0.07763456	0.076754905	0.20432396	-0.035467222	-0.27618578	0.18112183	-0.02740068	-0.43572962	0.5345712	-0.10542828	-0.07201727	-0.049188845	-0.3586511	0.10747242	-0.117915705	0.068882436	0.02438084	-0.55425	-0.25997046	0.047347523	-0.22295278	0.03364753	0.05701614	0.12075782	-0.4072801	0.1853316	-0.026064605	-0.36274898	-0.5026965	0.049910128	0.14362887	0.48070186	0.54616874	0.6235559	-0.192798	-0.35938132	-0.16210145	-0.54186964	0.0900953	0.0024541765
once	-0.16015099	0.43636382	0.12094676	-0.11061644	0.22641608	-0.025822863	0.7177574	0.1196284	0.124942705	-0.30539307	0.2082844	-0.065903485	-0.121597275	0.28590125	-0.00064635277	0.30327156	-0.2693876	0.17839332	0.41977927	0.75454754	0.19286896	-0.19529203	-0.14562961	0.6806872	0.45843714	-0.07037404	-0.07448181	-0.16812152	0.066875145	0.23608568	0.10554734	0.15494074	0.14604199	-0.4433958	0.17810497	-0.48746103	0.013846554	0.23903963	0.05592963	0.14416474	-0.20233461	0.28736544	0.107037514	0.3581494	0.10553515	-0.03679605	-0.08483867	0.05918169	0.03502357	0.5022926
we	0.14888942	0.048288457	0.320155	-0.42108214	0.23544674	0.22978556	-0.15023866	0.06439359	-0.23972581	0.054996327	-0.47581226	0.35332942	-0.02959609	0.037622944	-0.5566011	-0.012850651	0.08920883	-0.20128468	0.25628132	-0.07901764	-0.04606445	0.17028144	-0.20717035	0.2838751	-0.24643089	-0.13298577	0.19725107	0.10537583	-0.0777176	-0.28266332	-0.29630938	-0.35723606	-0.3340966	0.06837611	0.096249074	0.18126284	0.14113598	-0.32100677	0.09607291	-0.21111593	0.22872758	0.4511333	0.063812554	-0.28998512	0.37750268	-0.04174246	-0.12168121	0.07484259	-0.11358166	-0.13772541
march	0.067630775	0.8644521	0.3366948	-0.26964623	-0.10004725	-0.29083043	-0.110735774	0.10969852	-0.13846362	0.30917126	-0.23047124	-0.10171586	0.34865597	-0.176585	0.08003859	-0.17806977	0.42293638	-0.40425652	0.061565608	0.0056522563	-0.11252959	0.19855292	-0.08470824	-0.21451265	-0.05846739	-0.33676696	0.043498233	-0.056964472	-0.16264814	-0.031896863	-0.037636623	-0.13330935	0.3818643	0.6191601	-0.040543452	-0.31410813	0.41993198	0.102239475	0.06603423	0.26482844	-0.13981971	-0.44856822	-0.11645376	0.17744488	-0.40262085	0.10607011	0.13986209	-0.34113258	-0.0038019419	0.42109844
large	-0.16201045	-0.17789257	-0.13249604	0.1787595	0.21759427	-0.16128507	0.061023444	0.2317264	0.08637199	-0.33434343	-0.07021718	0.10237457	-0.13806857	-0.16497692	0.0703308	-0.12270235	-0.2601568	-0.0018913373	0.23512363	0.22283289	-0.0019831508	-0.19957973	0.37731063	-0.37913728	0.2844611	0.009461001	-0.441059	-0.14062876	0.026359335	0.45418894	0.1903933	0.059828833	0.18962876	0.13200065	0.18126097	-0.029788688	-0.19866928	0.13286676	-0.29464993	-0.18977478	-0.043386936	-0.24071807	-0.26897907	-0.11887757	0.052273303	-0.11757292	0.120929934	-0.16218111	0.056590658	0.12232317
will	-0.364204	-0.36202174	-0.124711126	-0.22149166	-0.10104531	-0.28877497	-0.018280834	-0.2547142	0.033867776	0.28017905	0.09422037	0.35697472	-0.1861572	-0.017031275	-0.28046522	-0.4676518	0.108909324	-0.24954623	0.3950475	-0.35521293	0.35002393	-0.14527507	0.04708208	-0.06925303	-0.29463255	-0.2666617	0.44559923	-0.43757355	-0.21466208	-0.8091066	-0.081976116	0.69051886	-0.009126566	-0.39227796	-0.5636097	-0.296368	0.4605906	-0.55835843	0.52987194	-0.31657088	0.043727756	-0.5446898	0.018724218	0.05451817	-0.36296216	-0.068827875	-0.10855149	-0.10168517	-0.47057176	-0.14407869
last	-0.3491359	0.09990661	0.33003652	0.40505987	0.3500783	0.3829533	-0.40156442	-0.1547191	0.0894334	-0.30141926	0.30437168	-0.17648737	-0.10895093	-0.08084308	-0.11137941	0.040392995	-0.12149879	0.115737006	0.29220933	0.35935816	-0.3568486	-0.040931225	0.1690959	0.29527402	0.02398023	0.1055896	0.010279687	-0.1628855	-0.59883237	0.040880315	0.58040357	-0.376596	0.013876796	0.020163387	-0.3782057	0.09554875	0.42975426	0.059628576	-0.23819232	0.11366214	-0.021630973	0.28159738	-0.17073943	-0.52483815	-0.024190545	0.024808384	0.17238142	-0.17770052	0.3967156	0.37832493
found	-0.48262438	-0.1324609	0.42452946	0.25893843	0.06674655	0.0859054	0.09466425	-0.36597866	0.69263303	-0.018528357	-0.20149648	-0.18695402	0.41138554	-0.15642498	-0.1222852	-0.09105554	0.24418768	0.31395698	-0.07964544	0.13760003	-0.37875697	-0.19607657	-0.31625795	0.21617064	0.65605533	0.22462136	0.08937909	0.3150252	0.31230095	0.48589784	0.20902377	0.38084826	-0.025789607	-0.3868562	-0.0043383352	0.29119578	-0.19781435	-0.36790115	-0.79155296	0.16912055	-0.089278996	0.3873433	0.1802896	-0.12213006	-0.54010177	-0.14048328	0.38536137	-0.09098939	0.2957199	0.18826653
right	0.232701	0.12877513	0.27190557	0.31412637	0.06372826	-0.25657248	-0.16190456	-0.11626108	0.48818392	0.11065998	0.15216461	-0.08095391	0.48001146	-0.52008915	0.312661	-0.019762382	-0.036106065	-0.20097643	0.1539746	-0.17386222	-0.4806692	-0.086041704	0.17423883	-0.18472035	0.08832045	-0.0655317	-0.58693826	-0.08013289	-0.14987658	-0.22550628	0.18110125	-0.31912774	-0.5306609	-0.31824574	-0.34614894	-0.14859855	-0.057387263	0.3887714	-0.15899658	-0.15204227	0.13123102	-0.28132766	0.03516569	0.538475	0.54134774	-0.3556758	0.113915235	0.15237808	-0.04510249	0.35872883
tell	0.23642357	-0.15043616	-0.016215354	0.07776905	-0.43980938	-0.18419296	-0.080871664	-0.20618124	0.21284786	0.3584041	-0.69213	0.06426005	-0.030436754	0.035596825	-0.15469462	-0.06929029	0.060144193	-0.037874773	-0.009004451	-0.026743278	0.25716934	0.05400733	-0.26231086	-0.12529343	-0.09961879	-0.25796625	0.5468383	-0.43386233	0.44340697	-0.041089088	0.06984319	0.060286433	-0.06828777	0.18110882	-0.17908819	0.21609603	-0.08218832	-0.5134228	0.1423678	-0.32396865	-0.09441983	-0.11294843	-0.61507326	0.036548786	0.03300634	0.024939746	-0.3103735	0.027281132	-0.49822885	-0.025014512
looking	-0.28423896	0.23147774	0.76161414	-0.07516607	0.05968364	-0.0900539	-0.22298422	0.14134495	0.24458735	-0.13833004	0.4172305	0.022045799	0.14702302	0.30779368	-0.3349401	0.13124576	0.11989451	0.28761688	0.32170168	0.054237977	0.21592705	0.32255685	0.09104779	-0.3012864	0.35422185	0.046266094	-0.08776203	0.07501891	0.07209602	0.44166356	0.06839302	-0.3132426	0.18564647	0.11822604	0.12236348	-0.18775557	0.09430654	-0.085749105	0.019671582	0.26091188	-0.08047798	0.029995225	-0.5424635	-0.07389378	-0.2711011	0.17422593	0.050002392	-0.059677295	0.14628117	0.08761294
moment	0.021894097	0.23727423	0.0058909357	0.42686123	0.41788888	0.18565127	0.11561605	-0.15642165	0.116708145	-0.16643679	-0.32350242	-0.180747	0.188205	-0.31897905	-0.20492525	0.39344436	-0.2739129	0.3136544	-0.1648426	0.41522536	0.41174543	-0.04145646	-0.39159456	0.16707027	0.02099976	0.48619938	0.11196949	-0.018595576	0.17871347	0.3066768	0.03155268	0.08729315	-0.049951613	-0.7439966	0.23365432	0.37864095	-0.61151135	-0.3921881	-0.24681689	-0.20687649	-0.094724126	-0.46673062	-0.31386077	-0.41988635	-0.31502113	0.34967345	-0.13016506	0.3268375	-0.56895053	0.057696998
put	-0.39876634	0.055004112	0.3245396	0.2029675	-0.1913974	-0.12777507	0.119846985	-0.16581476	-0.113379724	0.14919034	0.08331771	-0.013459012	-0.4270396	-0.0049827844	0.2815968	0.16646944	-0.36816373	0.13607635	0.25235298	0.60005635	0.22310305	-0.115362495	-0.026600987	-0.059293687	-0.04348813	-0.35431767	-0.35717547	0.0062661767	-0.14334193	0.089416176	-0.046258442	-0.06978413	0.15903278	-0.45526212	-0.1288302	-0.35389242	0.18936789	0.24853197	0.09676292	0.31569135	-0.17187169	-0.21683073	0.14762998	0.2562274	0.33398458	0.029050909	-0.59254503	0.006134834	-0.09902963	0.29534146
things	-0.14658646	-0.18749508	-0.03115794	-0.045430966	-0.55393964	-0.026435109	-0.0320601	-0.010805666	-0.01588516	-0.22057989	0.22428349	0.16023636	0.21721596	0.02544026	0.19914207	-0.084998876	0.17043896	0.012200937	-0.033455253	-0.09534216	0.24160916	0.40823948	-0.013098508	-0.38375348	-0.21264131	-0.28128558	-0.15479666	-0.012314647	-0.07432371	0.06615114	-0.357748	0.049609154	-0.12174983	-0.10531403	0.34853753	-0.052991986	0.34168953	-0.27328563	0.008944012	0.03872113	0.005271867	0.26460484	0.038890567	-0.29969445	-0.4252844	0.35430545	-0.26083535	0.34847024	0.0089160465	-0.1265394
long	-0.07478102	-0.19316399	0.108405694	-0.01839424	-0.22522531	-0.1344519	0.24084067	0.03486576	0.093075484	-0.040653676	-0.22487867	0.14747722	-0.052817494	-0.4273397	0.17285262	-0.13142389	-0.2597298	0.21066879	-0.29627383	0.053417712	-0.07119346	0.07163237	0.23177928	0.08277333	-0.11870614	0.05556809	-0.3197084	0.02617529	-0.29945964	0.24429762	-0.08201381	0.23207366	0.24405675	0.29998422	0.24483821	-0.009610571	0.30721125	0.29305854	-0.056862015	-0.49543205	-0.050146304	0.16267362	-0.10264768	-0.034648813	-0.5142175	0.16138572	0.09777181	0.094223954	0.3490386	-0.08014386
hare	-0.19920671	1.1518242	0.4915977	-0.38152236	0.37013382	-0.46860453	-0.0289023	-0.050045907	-0.14870596	0.6580951	-0.75421035	0.19999549	0.31783646	0.037226845	0.010439798	0.19936888	0.62219715	-0.6577906	-0.3610107	0.30567762	-0.28686693	0.17595893	-0.14951327	-0.28838304	-0.12482347	-0.25872666	0.1174964	0.20414081	-0.22303255	0.11708984	0.1912488	-0.16055211	0.5033422	0.61135066	-0.25119376	-0.4483041	0.5534104	-0.16720414	0.49452507	0.36432034	0.07207398	-0.59254324	-0.8029758	0.3183903	-0.30803826	0.46536455	0.015594702	-0.42880636	0.09808782	0.39663333
made	0.04127963	0.2327997	0.426651	-0.025310852	0.23707381	0.06300535	-0.13080584	0.56667346	0.16140059	-0.27963686	0.3675995	0.10895553	0.045725822	0.13718691	0.35023022	-0.24499759	-0.4621323	0.07815776	-0.06042838	-0.1813007	-0.025701016	-0.22263905	0.19042632	0.22502807	0.16604337	-0.2646953	-0.15595253	-0.00037901476	0.1523751	-0.0042040646	-0.0002629906	0.044705644	0.4414692	0.06341866	-0.25287926	0.25746444	-0.1996361	-0.393145	-0.07577708	-0.1769998	-0.14060336	-0.24177343	0.040731132	0.110408515	-0.11989841	0.2074827	0.15813461	0.06241171	0.1553928	0.14071289
white	-0.011717595	-0.24062222	-0.11380139	0.37031198	0.6140065	-0.01779484	0.5350021	-0.4254197	-0.36307913	0.1854546	-0.36405224	-0.05129399	-0.731077	-0.3289524	-0.093585074	0.571458	-0.065666884	0.4460273	0.21153726	0.7077019	0.5951459	-0.16103621	0.32498088	-0.38273078	0.3246863	0.10698622	0.05345577	-0.1478608	-0.057733685	0.046725273	-0.056879994	0.40794647	0.4985038	0.05421313	0.117919885	-0.12964603	0.054232728	-0.08606239	0.15296432	0.1884658	-0.13957825	-0.39568165	-0.3576213	-0.6036428	-0.34525537	-0.027333096	-0.47216442	-0.06846257	0.47224975	0.373594
next	0.3010972	-0.7959142	0.368689	-0.0038348883	-0.11796899	0.04806938	0.46334827	-0.20849739	0.24369189	-0.54783726	0.29834515	-0.5984152	0.40511292	0.194101	-0.27290708	0.32058606	-0.05033125	0.014986217	0.28644556	0.08822265	0.1900992	0.3618176	0.4444524	0.36480075	-0.00494428	0.241217	0.2387339	-0.21686347	-0.07547487	0.6614039	0.068399996	0.0037571192	0.045704022	0.10026005	-0.27062613	-0.049054287	-0.075317346	-0.6050668	0.19691849	0.19460618	0.2701955	-0.35737273	0.430726	0.09965028	-0.25120613	-0.056431286	-0.004633844	0.39140636	0.047126595	0.2543021
door	0.086794734	0.36097628	-0.015324354	-0.29939994	0.28602177	-0.017272338	0.07101624	-0.34684825	0.4363289	-0.15306479	0.08840965	0.50048244	-0.004034646	0.5584332	-0.17704973	-0.14903957	0.32011774	0.28457308	0.43384463	-0.10167655	0.16340761	-0.19751589	0.16274111	-0.1621913	0.45557213	-0.0683997	-0.37893224	0.27529514	-0.05848509	0.28946018	0.17744392	0.22768667	-0.23053896	-0.41817147	0.2619894	0.24985415	-0.2571968	-0.76071906	0.07582108	-0.0041394234	-0.07661279	-0.113376535	0.05356772	-0.17270404	-0.29955018	-0.2467824	0.19983768	-0.16329432	-0.07473612	0.25006634
heard	-0.06546293	-0.026209148	0.034747824	-0.31368452	-0.06762794	-0.2164147	0.21860667	-0.23151764	-0.24954417	0.0037495047	-0.70823926	-0.43379486	0.35706195	0.59184164	-0.45906505	0.22707602	-0.054695055	-0.36408448	0.15397914	-0.17391507	-0.042019427	-0.11669206	0.2523594	-0.111225426	0.32385793	0.36250848	0.2906971	0.08708078	-0.13233143	-0.24270368	-0.19556102	-0.45703617	-0.19020927	0.024399899	0.393444	-0.23741117	-0.1954412	0.7377451	-0.14727275	-0.057102308	-0.34450424	-0.42377895	-0.12823497	0.43212545	-0.48795795	-0.08126193	0.3875	-0.20305781	-0.123749346	-0.105318256
day	0.025260428	0.54698753	0.16243011	0.024883226	0.22161242	-0.035638742	0.3132396	0.1463891	-0.09367217	-0.3765838	-0.13867265	0.30301797	0.051432863	-0.113080814	-0.23152961	-0.06476041	-0.13190761	-0.28992054	0.02865424	-0.1479004	-0.29116553	0.013888568	-0.1891168	0.3211588	-0.50122344	0.50325334	0.23634791	-0.06525412	-0.32125062	-0.6560631	-0.079861715	0.08437848	-0.09528316	-0.3968644	-0.03943251	-0.6198589	-0.086994015	-0.14076316	0.42326123	0.086854145	-0.18502903	-0.12171157	0.32791102	-0.05262869	-0.75989014	-0.028437847	0.25611588	0.21804594	0.044966247	-0.31755793
eyes	0.24224344	-0.13241403	0.15249628	-0.20681956	0.38263112	-0.108328715	-0.23538129	-0.059424475	0.11413247	-0.170789	-0.23364958	0.27031532	0.14279887	0.24696118	-0.3613693	-0.19244318	-0.25832444	-0.1426796	0.10434663	0.089912504	0.43087962	-0.096329376	-0.116696	-0.18071502	0.23567747	-0.010511458	-0.0945722	-0.09103833	4.1380525e-05	-0.04457985	0.4006762	0.28730717	-0.054910872	0.23686594	-0.097988434	-0.031691648	0.107317574	0.01932529	-0.24547654	0.060261697	-0.09728697	0.074810736	-0.31913152	-0.14318931	-0.4835703	0.23687604	0.15384191	-0.6441375	0.54132944	0.09370376
dear	0.5870234	-0.013406992	0.5034392	0.033804465	-0.29503945	0.3003302	0.18373148	-0.19384465	-0.07251535	-0.026276499	0.010488611	0.9677558	-0.38080797	-0.0987176	-0.26702464	-0.64716804	0.7688843	0.37663218	-0.14050134	-0.40966174	-0.067914754	0.41419923	0.2015323	-0.043035537	-0.08864552	0.15956712	0.6560574	0.22718693	0.10530341	-0.28963903	0.46007878	0.17811729	-0.07089164	-0.67033935	0.29932827	-0.09968324	0.3993287	-0.027146917	-0.095421106	0.23865776	0.51806545	-0.032284126	-0.0897938	1.3259604	0.54563844	0.019578367	-0.04974979	0.017338984	0.299435	0.2782979
look	0.17103325	-0.18359819	0.5794618	-0.69405746	-0.25404486	-0.17489797	0.0460317	-0.061768502	0.3033211	0.02849944	0.12177874	0.11419927	0.057014067	0.38433138	0.40895247	-0.23902784	-0.024771214	-0.16819634	0.5307796	-0.47697142	0.15596318	-0.2471378	-0.2614993	0.75832075	-0.05890846	0.19494845	-0.5167088	0.35229534	-0.31847894	-0.07874601	-0.7541018	-0.2865569	-0.21755968	0.018225353	0.29922387	-0.5598942	-0.26832527	0.035174705	0.029807597	0.46022022	-0.56433374	-0.33201933	0.43911475	-0.047730654	-0.04092377	0.2464606	0.066918746	-0.10449338	-0.27287167	-0.064968556
d	-0.21630763	-0.08914845	0.07925725	-0.07848416	-0.28685725	-0.051213726	0.14226153	-0.089352414	-0.19091958	0.26985237	-0.09465502	0.3271114	0.33892545	0.028380364	-0.37717262	-0.061608553	0.21905223	-0.32977355	0.19961043	0.007629633	-0.08763249	-0.2375324	0.051111072	0.14048427	-0.34543696	0.25610727	0.41436023	-0.041907474	0.09061561	-0.40873918	0.0985432	0.33375987	0.027278207	-0.29308417	0.14194068	0.22950155	0.026755415	0.001006905	-0.110649824	-0.06834878	-0.1089024	0.044342734	-0.04100984	0.23516704	0.1900346	-0.32217652	-0.253863	-0.07984446	-0.3590657	-0.013184203
