,	0.6213433	-0.6024656	0.6929519	-0.20907119	-0.14950253	-0.53235716	0.437957	0.39654523	0.888766	-0.76178217	-0.30575818	0.13727793	0.57667905	-0.51787704	-0.124795124	0.075361095	-0.87175167	0.084104896	0.0064571984	-0.1647448	0.08639594	-0.5972365	0.9988072	0.2837268	0.1327491	-0.98653543	1.3872381	-0.10745764	-0.29495132	0.17652492	0.547591	-0.009483684	0.26355794	0.47062594	-0.4547279	-0.11509	0.084267884	-0.8734144	-1.1165056	-1.2286572	0.1253855	-0.33074325	-0.4558306	0.66184515	0.37878248	-0.1523988	0.032606177	0.7753788	-0.41756245	-0.04209268
the	0.6327966	-0.5990089	0.6822489	-0.25185767	-0.16770203	-0.52132785	0.45887616	0.39668295	0.9851116	-0.6479404	-0.3624406	0.33993325	0.67662066	-0.6859782	-0.27805755	0.12275897	-0.8693415	0.1001748	0.047921937	0.005325623	0.05760066	-0.51816434	0.9546622	0.4144977	0.17375503	-0.843178	1.3660295	-0.22507095	-0.30980873	0.12418781	0.6389872	-0.017955609	0.23761791	0.4398367	-0.3475208	-0.15848711	0.16940792	-0.77408564	-1.2643696	-1.3420063	0.09772399	-0.34599632	-0.19446576	0.55566484	0.35330755	-0.013331502	-0.021028735	0.9316937	-0.63440144	0.0005461499
.	0.7404126	-0.51927394	0.7510981	-0.10601501	-0.114854306	-0.47422716	0.38287312	0.45242742	0.96363246	-0.69916296	-0.29921335	0.2855668	0.5634716	-0.45211717	-0.20408806	0.093033336	-0.7670541	-0.056315467	0.16562773	-0.047300138	0.04263901	-0.51575947	0.8620456	0.4036932	0.015948642	-0.9765487	1.3182588	-0.21324123	-0.27131116	0.13676395	0.5490633	-0.032585226	0.22180949	0.3726378	-0.30361778	-0.01876859	0.25186142	-0.7391616	-1.1015337	-1.2873144	0.24895059	-0.25764427	-0.28108132	0.6535743	0.37243396	-0.094778635	-0.11071063	0.84975106	-0.44819212	0.051527865
and	0.5689587	-0.5858618	0.6340721	-0.24485949	0.04077561	-0.42874983	0.49149552	0.40521702	0.8714801	-0.672101	-0.2893131	0.26885098	0.687043	-0.6552485	-0.24255785	0.041438706	-0.81899345	0.18394479	-0.00799123	-0.1631003	0.29226446	-0.47320217	0.89061797	0.23153615	0.17204836	-0.87011886	1.3622959	-0.17984624	-0.3549935	0.2747645	0.50374615	0.11120942	0.21610838	0.26053816	-0.43767914	-0.043665558	0.15576267	-0.7826139	-1.2158432	-1.186966	0.082651444	-0.33952832	-0.12198615	0.69377667	0.41944885	-0.01548156	0.018377703	0.7720494	-0.42261744	0.026029017
to	0.6005033	-0.62180734	0.5073948	-0.024712117	-0.15338862	-0.3963488	0.41852823	0.37846068	0.73343414	-0.7579227	-0.19862354	0.15275127	0.41278982	-0.5574682	-0.13025703	0.14608607	-0.82673025	-0.17408016	0.08844246	-0.22575074	0.18089384	-0.5736285	0.76775926	0.33540842	0.1011057	-0.920825	1.313998	-0.13239628	-0.30364555	0.2237017	0.5683477	0.11658462	0.14143395	0.42785925	-0.3921029	0.00380449	0.08387473	-0.85863256	-1.0495485	-1.0306369	0.2682821	-0.25228298	-0.23789647	0.66509646	0.36415082	-0.1882971	-0.086199135	0.79923266	-0.52878803	-0.036246195
-	0.5252611	-0.42929748	0.56287456	-0.22960433	-0.29204068	-0.44345778	0.40838656	0.20274466	0.7908088	-0.6162299	-0.38753468	0.38244742	0.71489686	-0.5864448	-0.14251566	-0.07964684	-0.60044795	-0.08643178	0.12692684	-0.11735906	0.20160632	-0.3227405	0.83152425	0.2910226	-0.09597968	-1.0041162	1.3904303	-0.24292307	-0.21773222	0.10490374	0.46599066	-0.14419141	0.044114858	0.28555527	-0.29389203	-0.21706055	0.3155592	-0.88490796	-1.1727401	-1.2798793	0.38871694	-0.1817781	-0.18255784	0.6784283	0.40956268	-0.39260155	0.047401235	0.8065911	-0.51095146	-0.085927166
a	0.45526636	-0.43192068	0.6286419	-0.078529105	-0.058340546	-0.57394	0.42688268	0.33487102	0.7882821	-0.83725035	-0.28972656	0.25906855	0.6576722	-0.63718086	-0.08760364	0.13290004	-0.7116145	-0.034142084	0.0184878	-0.17339481	0.12133415	-0.5864298	0.8927301	0.31014806	0.06641938	-0.72330403	1.3035649	-0.13517696	-0.3397986	0.1988816	0.5233319	0.081477255	0.23228484	0.27638862	-0.35676455	-0.110994786	0.13934828	-0.72912556	-1.3974559	-1.2305089	0.13367237	-0.38685897	-0.13714755	0.75429606	0.3564331	-0.07575514	-0.0028359112	0.7070531	-0.50918525	-0.03810543
it	0.5382989	-0.49921858	0.70111173	0.030248864	-0.1413366	-0.49592376	0.35748407	0.40764797	0.8823693	-0.57538086	-0.3418662	0.2576512	0.4681223	-0.46849936	-0.054461386	0.23932523	-0.7805008	-0.19549997	0.1555424	-0.10236288	0.15024337	-0.5977051	0.8289752	0.32533115	0.01745968	-0.91764987	1.2758192	-0.06063217	-0.22763169	0.2365817	0.42269123	0.035765953	0.24203189	0.4042639	-0.30208626	-0.05622439	0.15438698	-0.96231014	-1.1312743	-1.0720199	0.15987664	-0.29951212	-0.24574865	0.65661854	0.39456612	-0.08332873	-0.03220752	0.7793898	-0.42590386	-0.05949539
she	0.4940278	-0.5603444	0.6078114	0.034234613	0.13579777	-0.4003325	0.40733895	0.2897971	0.77950907	-0.7117989	-0.20360199	0.14780279	0.36717966	-0.53419614	-0.040093027	0.28483537	-0.95377225	0.065693475	-0.06497135	-0.14936675	0.39754272	-0.6200428	0.63304234	0.14591902	0.22602135	-0.94332206	1.1747189	-0.091945626	-0.3089666	0.2900226	0.48485535	0.07874605	0.29786536	0.39701074	-0.3114791	0.0030826684	0.028834209	-0.7406666	-1.2410328	-1.065932	0.08229975	-0.33230108	-0.14056832	0.6849117	0.34487525	-0.12454651	-0.06657067	0.57495457	-0.5770128	0.09295154
i	0.76031935	-0.30111864	0.6292914	-0.1005799	-0.3257112	-0.4660883	0.20348792	0.5188661	0.7891047	-0.63049966	-0.21722212	-0.004590437	0.4089781	-0.13820049	-0.020186462	0.02632856	-0.6098192	-0.30877042	0.19125432	6.809831e-05	0.111281745	-0.40019172	0.7148434	0.1956888	-0.11966894	-1.1380062	1.2851865	-0.10867874	-0.06840009	-0.07537581	0.5910754	-0.03671895	0.20081164	0.5272525	-0.13830018	-0.09512469	0.09553458	-0.83300203	-0.8360646	-1.0628561	0.46308497	-0.067601204	-0.39638162	0.73012716	0.47521025	-0.2764739	-0.025734812	0.6665026	-0.52439576	-0.06726464
of	0.35711816	-0.34740737	0.74091995	-0.20932855	-0.10479042	-0.6093348	0.33193615	0.22787234	0.753977	-0.752438	-0.3856482	0.30355036	0.5157748	-0.5825337	-0.17599411	0.1864911	-0.5749979	-0.021883294	-0.102609046	-0.13074842	0.18689811	-0.46757147	0.8390385	0.2999704	0.12396957	-0.82251906	1.2342001	-0.28558666	-0.33171093	0.036073275	0.47033933	-0.07350333	0.09750554	0.31041718	-0.32015178	-0.111340486	0.13106346	-0.5830412	-1.2738925	-1.1964769	0.037512064	-0.45727822	-0.06297352	0.558409	0.40703526	-0.08602309	-0.08860199	0.7104497	-0.55906683	0.058462795
said	0.74917495	-0.4728537	0.5563667	-0.10851167	-0.32457852	-0.67000175	0.33973157	0.29635224	0.95220745	-0.54530215	-0.3523709	0.15307982	0.43569925	-0.3167419	-0.29132733	0.069827124	-0.7036859	-0.21027279	0.17609435	-0.045838796	-0.13604042	-0.46819133	1.0706773	0.46753564	0.062493235	-0.6806959	1.2241197	-0.13337532	0.091104664	0.090557516	0.5889176	-0.08097991	0.25936386	0.37838483	-0.41919863	-0.049623493	0.17849374	-0.6431293	-1.0658518	-0.98764855	0.1306772	-0.0738302	-0.44352782	0.6057849	0.37629503	-0.1569846	0.013207018	0.85748553	-0.26784927	0.0413201
!	0.70647365	-0.39447352	0.557987	-0.07886595	-0.30724043	-0.519827	0.34871787	0.40555292	0.8212826	-0.5000577	-0.17404753	0.2656536	0.6113205	-0.5001224	-0.23638797	-0.01965981	-0.5495681	-0.16589214	0.14206587	-0.11272535	0.16961621	-0.24292111	0.95453435	0.48531964	0.07894476	-0.7397312	1.2130319	0.0071973912	-0.13479412	0.107427955	0.49549276	-0.025872104	0.062889986	0.44494632	-0.20862222	-0.20142537	0.1935768	-0.7255395	-1.0264732	-0.98827124	0.20815268	-0.15269566	-0.20777865	0.8860091	0.3383211	-0.2839556	0.019856632	0.7747741	-0.2276572	-0.18804237
you	0.5678536	-0.4987186	0.40167794	-0.12890409	-0.29622003	-0.5819377	0.09882069	0.61239547	0.8510177	-0.4486127	-0.055593878	0.19594541	0.3796604	-0.24979341	-0.026667941	-0.064350486	-0.57666117	-0.40018487	0.42496425	-0.08194073	0.04330852	-0.47910228	0.8140281	0.2516019	-0.18096696	-0.9202093	1.147261	-0.28873444	-0.015946314	-0.0652847	0.6778702	0.035931006	0.13904992	0.5763965	-0.33491606	-0.09853971	0.065656364	-0.9579345	-0.6733636	-1.1406893	0.4507995	-0.07050857	-0.50435024	0.59118205	0.49732646	-0.43555215	-0.20615079	0.78709114	-0.45172945	-0.05473426
alice	0.7165467	-0.5594975	0.72265637	-0.030881524	-0.061515257	-0.4953928	0.33564174	0.331457	0.84920025	-0.6284147	-0.22482562	0.03316155	0.40747008	-0.43285263	-0.071367145	0.020043617	-0.58376974	-0.015176609	0.07656329	-0.021526322	0.04164271	-0.7084975	0.9372164	0.29142484	0.0665299	-0.77068985	1.3551748	-0.05708149	-0.17692746	0.12049393	0.45787224	-0.06014494	0.25345019	0.3771573	-0.3306559	0.07111031	0.15110445	-0.77695864	-1.1065238	-1.0462528	0.30409348	-0.15898919	-0.37424976	0.67607605	0.30416527	-0.054031324	-0.07870075	0.6827826	-0.26151353	0.026250154
in	0.46716645	-0.39254284	0.62010044	-0.052659336	-0.20932043	-0.44328228	0.4818715	0.21701801	0.8875631	-0.70673597	-0.23378956	0.15353969	0.620165	-0.7450609	-0.25681558	0.08421698	-0.73128426	0.023327433	-0.07179468	-0.08051725	0.21036813	-0.40784845	0.93092084	0.27200997	0.12246128	-0.95259994	1.1072268	-0.13194385	-0.3461848	0.29704213	0.49513415	0.08315711	0.1923582	0.39694223	-0.3497704	-0.026120428	0.091941684	-0.6920038	-1.2883147	-1.1000185	-0.016308095	-0.30399173	-0.17398155	0.60120016	0.32907465	-0.04741488	0.016412042	0.7334014	-0.6311035	-0.072987765
was	0.39481997	-0.47762275	0.7200398	0.10260846	-0.05502054	-0.48012558	0.3133168	0.3351241	0.81443465	-0.66982853	-0.3440441	0.37660682	0.5309011	-0.48237145	-0.04513541	0.116905004	-0.828694	-0.05316423	0.022714023	-0.23791626	0.34151998	-0.52183926	0.7497623	0.19609097	0.1507932	-0.8957264	1.1737127	-0.13023841	-0.25506282	0.27154064	0.36775628	0.16156338	0.24887753	0.3193051	-0.2634346	0.114035256	0.0015581399	-0.76383007	-1.0296614	-1.017339	0.09034912	-0.26669204	-0.22095177	0.618412	0.32667562	-0.04504399	-0.09300089	0.6333544	-0.5489147	0.015461413
that	0.49355233	-0.39013803	0.73297167	0.060415365	-0.22350097	-0.5317955	0.31911322	0.3199779	0.7440412	-0.58032906	-0.21145247	0.2267948	0.50773406	-0.5043614	0.028932007	0.03595102	-0.84619737	-0.18362176	0.11039712	-0.20119348	0.23736244	-0.47043157	0.669415	0.28803533	-0.005519177	-0.7876755	1.244879	-0.13810904	-0.35391453	0.06679807	0.41323626	-0.055674784	0.12423689	0.41097844	-0.32613876	0.04599831	0.057698417	-0.8018227	-1.0878985	-1.0730274	0.26907727	-0.24414568	-0.23568016	0.6804114	0.2975729	-0.0439679	-0.068115756	0.65168905	-0.6023398	-0.008802808
as	0.5695457	-0.47163576	0.5791432	0.033213183	0.12212375	-0.27570823	0.35579583	0.06696038	0.84032375	-0.5856059	-0.18451595	0.03683573	0.24676178	-0.3115946	0.06192373	0.21969105	-0.7978246	0.07219971	0.08137141	-0.0483118	0.28845692	-0.5174994	0.5236589	0.13970049	-0.020438999	-0.91255736	1.3707874	-0.023785837	-0.25171858	0.30884793	0.4211533	0.04374943	0.18842542	0.406544	-0.21605396	0.075047895	-0.010188498	-0.7321594	-1.0586871	-0.98852026	0.022091188	-0.26570165	-0.24204841	0.7675048	0.33094606	-0.024156488	0.03981226	0.5250752	-0.48759368	0.07166676
her	0.39328933	-0.4284128	0.6239498	-0.036677513	0.15504491	-0.3175124	0.3721276	0.15443265	0.7417702	-0.6843331	-0.13910171	0.43018824	0.52584577	-0.7158426	0.009243017	0.1884493	-0.89793235	0.09546646	-0.11084292	-0.16674429	0.37381288	-0.46320787	0.6754487	0.1225387	0.09922867	-0.7797917	1.1267214	-0.25043052	-0.46340704	0.2579352	0.40569007	0.04901522	0.010726653	0.19780463	-0.36474168	-0.09285331	-0.04962561	-0.57931596	-1.243737	-1.0486988	0.069220684	-0.42755115	-0.15149094	0.6463152	0.24774787	-0.015939333	-0.2568624	0.49247098	-0.4354384	0.25281692
:	0.5083606	-0.40362552	0.5585878	-0.052890733	-0.060228165	-0.483062	0.34094957	0.26234955	0.757551	-0.53536767	-0.19992822	0.32929376	0.51805	-0.4414839	-0.108346865	0.009471744	-0.68782866	-0.16674167	0.16609654	-0.023623064	0.14098424	-0.44136167	0.7082267	0.2674225	-0.0047986098	-0.85108066	1.1746955	-0.025199205	-0.28930506	0.06164539	0.3534536	0.02370014	0.28142107	0.11739915	-0.26053143	-0.10079311	0.026832476	-0.75488234	-0.9717005	-1.0275913	0.21869364	-0.28839245	-0.14159836	0.6250511	0.5225944	0.03920182	-0.00072295463	0.6834068	-0.43294033	0.024780253
t	0.6484578	-0.50103945	0.47318003	-0.23134743	-0.3515796	-0.43413037	0.14894089	0.65054685	0.9876993	-0.24278916	-0.23776767	0.115036935	0.6490401	0.04485625	0.12228651	0.10352369	-0.51205254	-0.48630297	0.5089799	0.22411214	-0.078736775	-0.3123588	0.63932073	0.34783092	-0.23016953	-0.84584594	1.1320975	-0.018005595	0.08009105	-0.15106344	0.322263	-0.012945741	0.28999698	0.3869825	-0.14105284	-0.08259926	0.17243585	-0.86867243	-0.60397065	-1.131412	0.4946676	0.16750516	-0.5244846	0.67190814	0.33683985	-0.3369336	-0.07789254	0.68453634	-0.15359347	-0.24138783
at	0.5890041	-0.4546342	0.7366356	-0.0390417	0.021602575	-0.46780363	0.42285657	0.13597625	0.713321	-0.47537225	-0.19971216	0.32820955	0.6241058	-0.30798084	0.046057016	0.22341442	-0.7241058	0.22405021	0.19703545	0.13267793	0.14758457	-0.34210482	0.7129202	0.20690477	0.050215136	-0.7554103	1.1409467	-0.14433931	-0.25053993	0.18816149	0.469975	-0.0017310232	0.38557428	0.033168744	-0.31232604	-0.28488013	0.21898684	-0.76049423	-1.1122147	-0.8808122	0.056832794	-0.31486005	-0.026863322	0.5364553	0.31695867	0.17047334	0.08252305	0.48888335	-0.44271657	0.016918698
?	0.4204777	-0.38237602	0.6519408	-0.25140458	-0.28452265	-0.5557272	0.060898747	0.44838881	0.665149	-0.57966954	-0.23789135	0.052451387	0.1972022	-0.3479759	-0.22162554	0.011671135	-0.4294132	-0.4718567	0.26950315	-0.2090886	-0.070249856	-0.36379808	0.86979693	0.20501	-0.2859991	-0.6441667	1.0097748	-0.11202122	-0.034348354	-0.21190482	0.659876	-0.118150875	0.042169794	0.41401935	-0.2290892	0.06291923	0.18193266	-0.85479856	-0.8027502	-1.1429932	0.440874	-0.18952705	-0.41265616	0.54907197	0.589763	-0.34876448	-0.1592977	0.8126488	-0.3538814	0.04081759
s	0.5441851	-0.2078185	0.60419303	0.027064819	-0.23019618	-0.48826188	0.032523543	0.23969777	0.70663303	-0.5202468	-0.30713168	0.2701132	0.6213837	-0.27392817	-0.15552214	0.12406643	-0.6303159	-0.066043235	0.016927034	-0.07921337	0.14560643	-0.30282277	1.0075216	0.3399815	-0.0062943026	-0.6273777	1.0882516	-0.04475063	-0.28238803	0.08362129	0.37106612	0.058467966	0.18981881	0.36096644	-0.29469296	-0.071198404	0.2331993	-0.70912874	-0.98871195	-0.83170396	0.2047921	-0.18221165	-0.1480545	0.67882913	0.3818509	-0.055297	0.049302395	0.8053181	-0.31519875	0.0020763893
;	0.36320227	-0.42255658	0.50717884	-0.027877174	0.0139992405	-0.41080123	0.20153861	0.24285537	0.63714796	-0.51919705	-0.062098686	0.16531089	0.49525806	-0.25777608	0.088085435	0.17723447	-0.7396319	-0.024024509	0.17757203	-0.18492466	0.17523925	-0.30220044	0.6429159	0.15057997	-0.058300085	-0.7635647	1.370784	-0.072941884	-0.1903562	0.17136143	0.26164803	0.11319354	0.1471148	0.08684841	-0.30708763	0.17208005	0.119660445	-0.7145937	-0.9652329	-0.96557075	0.07886416	-0.22951251	-0.09360249	0.6307668	0.36098272	-0.06412698	0.047336116	0.55778	-0.41021323	-0.030274395
on	0.38155296	-0.5081576	0.41558447	-0.3615486	-0.025749756	-0.24698895	0.43586797	0.26265907	0.7297771	-0.47942078	-0.28955865	0.15235606	0.694482	-0.56822914	-0.40126643	0.13272953	-0.68638796	0.14598837	0.112213075	-0.38130376	0.10569187	-0.310756	0.8734561	0.27562696	0.05402542	-0.77062076	1.2099758	-0.07192522	-0.35827357	0.26471704	0.36445773	0.23429127	0.08358677	0.20299198	-0.22284499	-0.074297786	0.025498733	-0.39690876	-1.0665586	-0.7934233	0.16403893	-0.277884	-0.13082565	0.62859213	0.4438531	0.015444774	0.036049787	0.6623773	-0.5480998	0.12576213
all	0.38210797	-0.47476256	0.6719852	-0.09417603	-0.023846965	-0.46824732	0.3863324	0.41141033	0.8741969	-0.53307337	-0.11060099	0.27805722	0.5334388	-0.32525057	0.009502945	0.11519197	-0.6566595	-0.00079242885	0.18908988	-0.026129074	0.23670262	-0.25534272	0.5003091	0.2199395	-0.023304462	-0.74414	1.1472349	-0.10700936	-0.32845497	0.15641513	0.5185312	-0.026688982	0.17460692	0.17586419	-0.2785291	-0.18383536	0.18051751	-0.66523063	-1.0269091	-1.0095	0.13760197	-0.2091473	-0.053265326	0.5879438	0.4097636	-0.13388555	0.1216079	0.4537355	-0.36817843	0.22426991
with	0.348872	-0.5135515	0.5081854	-0.35736507	-0.12644629	-0.32001996	0.25118294	0.30207333	0.69574076	-0.72580314	-0.112706035	0.31493843	0.5298258	-0.4696906	-0.28019413	0.103531346	-0.6869974	0.06757304	0.016760971	-0.19192457	0.24579303	-0.12925051	0.7861735	0.26056767	0.032547202	-0.6846585	1.1068171	-0.32135773	-0.34381473	0.22694501	0.41739893	0.14700124	0.06723637	0.05206462	-0.21583061	-0.026071997	0.13582967	-0.6125638	-1.0937636	-1.0806706	-0.06561205	-0.23082806	-0.08208034	0.67318296	0.3186334	0.14208438	-0.218179	0.61902595	-0.39870468	0.09237416
had	0.30736023	-0.43776378	0.69797766	0.10672349	0.10983682	-0.3304854	0.3287797	0.058609657	0.8103075	-0.58284044	-0.15968096	0.3464151	0.4173663	-0.6984348	-0.037412263	0.11105339	-0.91017115	-0.06409064	0.087832496	-0.14844078	0.35892698	-0.6227943	0.54453915	0.029172383	0.2015731	-0.94465107	1.1656977	-0.110619545	-0.24970616	0.20828342	0.3934177	0.14146027	0.034587078	0.33280575	-0.281596	0.13517687	0.14669795	-0.7861074	-1.0278026	-0.80636	0.17873506	-0.2612151	-0.027713925	0.6401667	0.30786362	0.1204593	-0.072730824	0.29103723	-0.4988022	0.18608579
but	0.47165298	-0.44284284	0.49964774	0.10282996	0.1289888	-0.5243237	0.19777387	0.24379411	0.72674644	-0.6293161	-0.1874463	0.112344116	0.46591637	-0.24601999	0.05682332	0.22845817	-0.63969	-0.17713533	0.12227309	-0.16337152	0.22954136	-0.3585336	0.63394964	0.09083758	0.096239954	-0.7901683	1.3183831	-0.09713034	-0.20055908	0.1973364	0.327261	-0.03898258	0.10285106	0.17387566	-0.2899223	0.09078945	0.18157606	-0.6623338	-0.9785609	-0.99929357	0.14431694	-0.20912611	-0.22859032	0.7095779	0.46750122	-0.25718868	0.12960732	0.44679037	-0.24866632	-0.059498
for	0.2887846	-0.3830068	0.56671727	0.036488492	0.006279383	-0.5439687	0.53402305	0.21921536	0.62979966	-0.4667178	0.0149887595	0.28493816	0.3309723	-0.48282212	0.08045252	0.01944875	-0.7281119	0.010838002	-0.012044184	-0.14811577	0.23268054	-0.38887474	0.58247584	-0.011709106	0.03757737	-0.75938106	1.182755	-0.23925894	-0.17058052	0.16541027	0.35182387	0.073293194	0.088802055	0.26186013	-0.24890134	-0.00835954	0.06935594	-0.5682972	-1.0657533	-0.94989586	0.09326158	-0.217599	-0.20758516	0.7893851	0.1562575	-0.1425086	-0.07463159	0.64948964	-0.3671834	-0.003111871
they	0.47950557	-0.4999729	0.64810216	-0.16152254	0.15353219	-0.342661	0.3538722	0.35847318	0.7637464	-0.66148144	-0.20971185	0.026319504	0.41309834	-0.5808122	-0.14137395	-0.011000093	-0.59788114	-0.12846607	0.2424113	-0.11503273	0.11511007	-0.29705292	0.63464785	0.032024123	-0.14493595	-0.76279986	1.1688508	-0.16281834	-0.47298902	0.08191512	0.41671127	0.13950457	-0.0028053173	0.023982812	-0.3331768	-0.19558638	0.15477255	-0.68394077	-1.041412	-0.95398873	0.3318397	-0.052994132	0.05577339	0.49068642	0.5238607	-0.2251502	-0.032229133	0.49848795	-0.39235818	0.15166217
so	0.5249435	-0.424555	0.50046617	-0.09822589	0.0011701109	-0.21369737	0.27227333	0.25054428	0.69609493	-0.31378585	-0.34659225	0.14059494	0.44210416	-0.41270345	-0.07355607	0.14930648	-0.6824327	-0.17601457	0.1448227	-0.13723353	0.18339725	-0.47802326	0.6916565	0.22166313	-0.07715653	-0.8936201	1.1363038	-0.17953086	-0.2224766	0.2236906	0.17373759	0.15349594	0.16364704	0.25036183	-0.3832016	-0.041369878	0.21332978	-0.5322254	-1.0556294	-0.99299055	0.41285875	-0.21263844	-0.080893725	0.73100704	0.37081078	-0.14928286	-0.07835882	0.46158427	-0.48646492	0.18676393
be	0.59695065	-0.49525046	0.40677717	0.048228912	-0.29497343	-0.5844393	0.33173501	0.21351588	0.5592629	-0.597219	-0.29930657	0.053191006	0.49830914	-0.25588185	0.19174257	0.07145584	-0.58474755	-0.21204107	0.20678946	-0.13147464	0.26805592	-0.50362784	0.5868846	0.57326585	-0.26283997	-0.71089375	1.2339919	-0.21384385	-0.11547475	0.047686927	0.25736624	0.05004588	0.2132065	0.48152107	-0.2765926	-0.056889534	0.058747403	-1.0210631	-0.795806	-0.7968225	0.31050733	-0.19216914	-0.18119487	0.81891143	0.23806883	-0.56935	-0.00165994	0.6536281	-0.5141937	-0.1370125
not	0.5425078	-0.43377408	0.54738694	-0.020766823	0.06676358	-0.62607896	0.2929089	0.17798345	0.48763877	-0.26260957	-0.13332818	0.11271413	0.1275599	-0.43750498	0.087913886	-0.025675561	-0.72904	-0.17227252	0.2143033	0.0035970462	0.34260526	-0.47200042	0.5101404	0.11302797	-0.10788785	-0.6487934	1.1739261	-0.07475443	-0.09831239	0.15736625	0.441778	-0.27455243	0.100908875	0.44708276	-0.43716845	0.16292359	0.1987851	-0.704847	-0.7455233	-1.1810036	0.4560044	-0.03780952	-0.26984096	0.4810015	0.40685666	-0.2489682	0.10165795	0.63117003	-0.37490425	-0.021404715
very	0.56153864	-0.43687248	0.56822985	-0.10132528	-0.08766385	-0.6291602	0.18040717	0.26145327	0.7786689	-0.44722658	-0.13602297	0.32692036	0.50086206	-0.41475406	0.06693867	-0.0545478	-0.67436314	-0.25702402	-0.08925955	-0.092751436	0.22040673	-0.5941267	0.929767	0.25191805	0.12898687	-0.6439817	1.1621422	-0.011964824	-0.14102691	0.1650156	0.22532542	0.080218546	0.26437488	0.48098806	-0.24827813	0.0844256	0.16348228	-0.5367489	-1.0015451	-0.84984523	0.13431549	-0.2681091	-0.16880098	0.58623916	0.12195458	-0.009048882	-0.05136344	0.6031108	-0.34393874	-0.0044539087
what	0.3085456	-0.24844778	0.5334087	-0.14755812	-0.34151632	-0.5183862	0.07306759	0.4243564	0.61801094	-0.5950556	0.020654278	0.116997756	0.36342105	-0.41084847	-0.13233282	0.03693354	-0.35980606	-0.30270967	0.37303168	-0.22614163	0.15412661	-0.4023161	0.82923746	0.33751047	-0.29044744	-0.7929525	0.9911924	-0.11306162	-0.11907928	-0.23902565	0.42516172	-0.078942016	-0.021501604	0.3013494	-0.056485094	0.19881558	0.16940223	-0.97512484	-0.9007033	-1.1103024	0.3508079	-0.29792213	-0.13374615	0.2901377	0.28957823	-0.42070454	-0.18572044	0.8087825	-0.34650025	-0.14564377
this	0.46609575	-0.48896337	0.4488955	0.21303171	0.2495601	-0.4652064	0.2825218	0.24958593	0.48732087	-0.7729525	-0.4208337	0.08092969	0.28218958	-0.37031126	0.23142695	0.12998597	-0.6118464	-0.17608671	0.06117145	-0.11888679	0.25581133	-0.31914067	0.5852947	0.33562368	0.11822886	-0.68401027	0.9559664	-0.052734956	-0.11975673	-0.009568017	0.46922857	-0.0045351237	0.1198774	0.29496348	-0.1791958	0.034242798	-0.033208225	-0.75512713	-0.9819015	-0.74590564	0.3941088	-0.3426318	-0.0050215423	0.50992733	0.3666758	0.17621586	0.05217719	0.53243935	-0.44849956	0.03521531
little	0.50748944	-0.23722936	0.39223272	0.16746372	0.10732014	-0.14121637	0.18061799	0.22274429	0.648885	-0.5474454	-0.14426996	0.33884177	0.8186439	-0.43419895	-0.14674485	0.1492154	-0.6437832	-0.02350767	-0.25805622	-0.30660728	0.24970827	-0.5464566	0.7473949	0.32076323	0.25450167	-0.679542	1.006488	0.08924532	-0.3162737	0.22964486	0.33039343	0.06648496	0.21004143	0.30934852	-0.19755653	0.06536598	-0.06140212	-0.60404664	-1.0273364	-1.0391126	-0.07258166	-0.4320521	-0.06814775	0.69110376	0.27719453	-0.028077193	-0.103271365	0.4676183	-0.49034634	0.18427
he	0.6064217	-0.7112866	0.6409918	-0.21120393	-0.14803648	-0.28801325	0.21618292	0.1326558	0.7626444	-0.5593478	-0.1441963	0.25616765	0.48462215	-0.36264813	-0.29162848	0.18316148	-0.3545245	-0.008233249	0.050137732	0.089363486	0.20777088	-0.1586959	0.66013306	0.15803379	-0.15663432	-0.572144	1.2113609	-0.14411181	-0.012404319	0.018325135	0.40689433	0.32365882	0.3669843	0.083402865	-0.44556308	-0.10742574	-0.15770964	-0.6786224	-0.91799027	-0.89978725	0.12447223	-0.35948572	-0.3039325	0.65749234	0.51958	0.2967772	-0.014644457	0.5008017	-0.34091046	-0.10577359
out	0.27921444	-0.5180971	0.51971036	-0.15324059	-0.07889649	-0.26081532	0.19661838	0.3855583	0.42862788	-0.8071144	-0.26900142	0.09921357	0.48018748	-0.71052235	-0.25925234	0.19672416	-0.54110605	-0.03815779	-0.11615997	-0.119846605	0.29344726	-0.044925243	0.43536174	0.1436096	-0.11329657	-0.66319716	1.0602337	-0.15442988	-0.2159368	0.12663329	0.4499057	0.1245459	0.05677958	0.17861575	-0.33304211	0.06341582	-0.10375438	-0.55718195	-1.1622477	-1.0640302	0.023570362	-0.29037333	-0.13858594	0.4517097	0.37624818	0.22403523	-0.20761165	0.64085376	-0.41586503	-0.031689063
is	0.15084279	-0.05692099	0.41798797	0.11205573	-0.26793134	-0.5325956	0.0794256	0.102960415	0.597648	-0.4826347	-0.20208204	0.16815704	0.43787563	-0.24808502	-0.12933944	-0.21278931	-0.57268214	-0.35084337	-0.019057086	-0.086088926	0.06857373	-0.41453272	0.7228016	0.45801872	-0.18306431	-0.69507885	0.9814869	-0.21130748	-0.20229968	-0.18891448	0.39619213	-0.18597135	-0.033372995	0.26298553	-0.13478759	-0.16853242	0.19989917	-0.6373141	-0.8789202	-1.2730123	0.21010591	-0.067655906	-0.1241176	0.6449051	0.5637391	-0.38081437	-0.074056685	0.7468202	-0.35122007	0.03417843
one	0.46030915	-0.4257878	0.6936343	-0.19888055	-0.06475541	-0.4986625	0.2723501	0.42567095	0.603994	-0.329159	-0.18690518	0.27096438	0.5621803	-0.49613905	-0.14067271	0.32174847	-0.69961333	-0.06818703	0.056744404	-0.40831995	0.13517761	-0.2690433	0.5094329	-0.016946584	0.018840197	-0.74723047	1.0078213	-0.3109208	-0.4123618	0.14749178	0.38328612	0.20681638	0.052750174	0.012572698	-0.1605996	0.059284315	0.055747576	-0.5632665	-0.9250014	-0.8325266	0.15893479	-0.39286542	-0.0024264604	0.56804675	0.3933868	0.089925885	0.060365714	0.8864757	-0.25003	0.17420425
down	0.23460501	-0.26745173	0.44437236	-0.16644529	-0.089444414	-0.23325868	0.46794146	0.3384434	0.6808289	-0.46664244	-0.3745866	0.21020396	0.54663634	-0.61962914	-0.31628734	-0.036113966	-0.7428112	0.1691444	-0.06914025	-0.20096594	0.34243554	-0.32007506	0.39047888	0.15218957	0.18070227	-0.81861126	0.79319155	-0.2984503	-0.5925678	0.36997545	0.31045875	0.26847064	0.022862092	0.33522046	-0.1642654	-0.1027185	0.22402175	-0.51569617	-0.9580813	-0.87109554	0.13094027	-0.106335044	-0.1315918	0.6953439	0.3505215	-0.10754818	-0.11753139	0.32802007	-0.32713675	0.2785964
up	0.32328045	-0.17846361	0.33011395	-0.3201565	0.16660808	-0.1460218	0.55524784	0.09236059	0.41222245	-0.6783236	-0.20801668	0.19262111	0.53409284	-0.5803685	-0.04568726	-0.0015068627	-0.66381145	0.22255543	-0.16249235	-0.31023312	0.36562735	-0.3773939	0.60095346	0.088522084	0.110866144	-0.9372218	0.7501661	-0.1831886	-0.5856371	0.19949758	0.6049603	0.1122714	-0.11169633	0.29054004	-0.24523598	-0.06487199	0.35137415	-0.47612727	-1.0126847	-0.85158074	0.16762146	-0.29656574	-0.012813354	0.46502814	0.052611362	0.15938528	-0.16224934	0.81274235	-0.39846548	0.19738093
there	0.47131565	-0.22487414	0.6066813	0.14299183	-0.008296754	-0.4794831	0.16056566	0.31857547	0.46287605	-0.44979888	-0.3466085	0.24710661	0.3859889	-0.17865074	0.104242414	0.22298257	-0.6264351	-0.2257694	-0.023681397	-0.27378774	0.3326422	-0.38958514	0.6111138	0.28977698	-0.15705894	-0.5770359	1.0429367	-0.22733802	-0.43751752	0.2285588	0.11135855	0.21407641	0.17928162	0.17657235	-0.42601535	0.20598996	0.21601817	-0.8977102	-1.0910953	-0.7349064	-0.07847015	-0.1918514	-0.05031683	0.51084936	0.41357872	-0.11911398	0.20738786	0.84832174	-0.36612374	0.05232931
if	0.44334787	-0.7383965	0.47929806	-0.04573677	0.013090618	-0.40934148	-0.052728966	0.43550703	0.8872216	-0.4801741	0.034213345	0.18910997	0.35153937	-0.22282435	0.10675244	0.032676607	-0.5587087	-0.34563872	0.15176369	0.1349831	0.19393846	-0.4647317	0.37700826	0.26331404	-0.41150787	-0.8196291	0.95596975	-0.16073945	-0.1743277	0.0065185446	0.61273646	0.037349835	0.123330265	0.47584242	-0.15781574	-0.06442316	-0.103181876	-0.6611643	-0.6118321	-1.0361907	0.1083503	-0.045668535	-0.16055441	0.62104833	0.4126296	-0.18776147	-0.07664675	0.48602772	-0.3217116	0.06483338
his	0.39805892	-0.5874536	0.28835195	-0.45329505	-0.12637672	-0.17313744	0.104182586	0.045628816	0.68790275	-0.6905206	-0.05075473	0.35607165	0.7125602	-0.39064676	-0.18200141	0.04976335	-0.45231327	0.03983617	-0.06824082	-0.124893926	0.3273904	-0.058568656	0.6387419	0.13751252	-0.16389361	-0.672089	1.2446476	-0.11326801	-0.12748727	0.2382064	0.37370604	0.15900423	0.1036619	-0.06707646	-0.37591782	-0.115718074	-0.08947437	-0.5981285	-0.89497805	-1.0661904	-0.0586788	-0.05369812	-0.30419725	0.5158263	0.39542106	0.45393693	-0.0023555811	0.66280264	-0.32611755	-0.045421053
then	0.41842255	-0.24748947	0.4767134	-0.09557025	0.12663727	-0.24630335	0.28182203	0.38733882	0.7604977	-0.6235856	-0.27011758	0.22749192	0.5224406	-0.13444707	-0.17262954	-0.00067031523	-0.67918944	-0.15383576	0.2734331	-0.23102134	0.17071038	-0.304896	0.781697	0.2508384	0.3528568	-0.6055679	1.0508633	-0.2600242	-0.014553775	0.036500134	0.41143146	0.11198978	0.046304286	0.18861976	0.10899533	0.07957943	0.27735853	-0.7231523	-0.8517061	-0.7480738	0.15209983	-0.29574654	-0.3119742	0.61984026	0.5371836	-0.10017888	0.12368802	0.47860324	-0.43451503	-0.15206335
about	0.32374555	-0.3188359	0.46491432	0.41436744	-0.3636916	-0.19690797	0.22067171	0.10551298	0.7825892	-0.42653874	0.015485407	0.18387316	0.4036145	-0.31996894	0.14593145	0.22471282	-0.80322695	-0.18165393	0.30321428	0.29810372	0.10411255	-0.21125072	0.5013979	0.09423723	0.1888729	-0.81898725	0.8254127	-0.15088567	-0.18348686	0.37459958	0.36560166	-0.12596956	0.07485487	0.102124035	-0.48701	0.10056651	-0.24843657	-0.6820525	-0.6912852	-0.8231385	0.111491345	-0.28421548	-0.4198487	0.5443802	0.44946095	-0.45555687	-0.12718372	0.3482614	-0.38491186	0.110483214
no	0.386249	-0.43129447	0.7477535	0.119750924	-0.15983155	-0.36024302	0.113186374	0.16520995	0.61338335	-0.34052742	-0.28132084	0.082668975	0.33426422	-0.047851562	0.24398059	0.051300317	-0.46304983	-0.2192576	-0.050969757	-0.059461676	0.42632592	-0.3351022	0.5175111	0.2246314	-0.3830339	-0.6195911	1.0500122	-0.15821439	-0.2936513	0.15735114	0.18667266	0.053255983	0.065701276	0.2737835	-0.39625376	0.29426983	0.051519405	-0.9039328	-0.86251837	-0.78458714	-0.018583346	-0.10442804	0.029496025	0.6250985	0.3917501	-0.13452564	-0.064377636	1.029996	-0.20773761	-0.16685545
them	0.11274873	-0.47326365	0.5850884	0.16120563	-0.26698992	-0.2800146	0.2586943	0.3116253	0.77180374	-0.623791	-0.15539359	0.10893331	0.21026382	-0.14376648	0.023454962	0.27096727	-0.4716322	0.045391902	0.20323738	-0.026828151	0.33727103	-0.042960484	0.5102782	0.011640675	0.11677767	-0.81556547	1.1112611	-0.14873028	-0.14928266	0.06866756	0.70899683	-0.15499793	0.11168365	0.16387314	-0.0044657663	-0.14928843	-0.06416026	-0.67809296	-0.82082534	-0.7435907	0.06923993	-0.36126208	-0.12267446	0.831169	0.25883508	-0.10028403	-0.06725129	0.2127412	-0.5711831	-0.2193977
know	0.47671384	-0.17521432	0.25124153	-0.10465867	-0.53063846	-0.36054894	-0.029979723	0.637534	0.7426714	-0.24411124	0.25034112	-0.063782185	0.2849427	-0.17044201	-0.21963447	0.20620522	-0.533665	-0.3076675	0.43911272	0.098260805	-0.059055634	-0.13207757	0.6841884	0.056925535	-0.15758842	-0.8626923	0.91156113	-0.32797927	-0.016031884	-0.26334575	0.39132205	-0.060026694	0.113441125	0.4002402	0.08750361	-0.25368905	0.1146037	-0.6998284	-0.5494505	-0.99973154	0.3992315	0.430753	-0.47625184	0.17560738	0.5619568	-0.34475383	-0.12183556	0.37231305	-0.20001899	0.11585189
like	0.5311587	-0.4873059	0.32978195	0.028836705	-0.30481946	-0.51796025	0.30564392	0.47808722	0.2781865	-0.26113057	0.32075372	0.14569533	0.30133775	-0.27643904	-0.38800606	0.099448785	-0.31442463	-0.0132026225	0.17850815	-0.07775389	0.02789402	-0.44477952	0.4042917	0.19711696	-0.18519455	-0.6136752	0.8323925	-0.15858398	-0.3063088	-0.081642754	0.38240212	-0.1459995	0.1286495	0.22103243	-0.15744883	0.14003988	0.019130543	-0.6660607	-0.9171715	-1.2507906	0.4621788	0.065812945	-0.3050463	0.5534155	0.24371888	-0.25400785	0.010619231	0.76011413	-0.4248771	0.099136904
were	0.45456707	-0.51034236	0.6473267	-0.03674554	0.1097901	-0.51455474	0.091066755	0.56340945	0.47134686	-0.6794275	-0.028530195	0.08931807	0.34672844	-0.20272249	-0.033426482	0.104630604	-0.66783255	0.15407792	0.07990611	-0.26687443	0.32671228	0.0013457891	0.7279575	0.07397537	-0.062180772	-0.49811634	1.2350307	-0.08325435	-0.60390794	0.01671942	0.31026664	0.34233412	-0.03899534	0.06511685	-0.23769087	0.05296596	0.11630543	-0.66521513	-0.87406796	-0.8510846	-0.12681758	-0.29721504	-0.08076441	0.40218008	0.17979443	0.21851389	0.105557695	0.68109995	-0.4769862	0.29707485
would	0.12302228	-0.62277955	0.598083	-0.114599556	-0.06502843	-0.63087595	0.0591743	0.18996567	0.3165289	-0.18429177	-0.14672914	0.13464409	0.17175221	-0.4925658	0.48032868	-0.13841742	-0.5344808	-0.036570475	0.4506683	-0.0010684133	0.33753616	-0.6150155	0.6975957	0.3865416	-0.11754971	-0.6186773	0.79847014	-0.34458673	-0.25106052	0.21544783	0.42558718	-0.24332073	0.11851194	0.6166735	-0.4503161	0.01693543	-0.117102735	-0.7718841	-0.79010546	-0.74168146	0.397658	-0.14157906	0.105804	0.565862	0.3438766	-0.523412	0.02704947	0.5528843	-0.26781905	-0.18133265
went	0.61544585	-0.46166217	0.3899756	-0.41769597	0.021884963	-0.49830082	0.509719	0.3591708	0.5432037	-0.3813589	-0.5320655	-0.103517845	0.6086555	-0.442171	-0.4073162	0.011618454	-0.58838344	0.25088823	-0.13613138	-0.21737753	0.05382963	-0.41233486	0.8689546	0.45902768	0.232344	-0.7852642	0.77225864	0.105800405	0.007913039	0.38605195	0.28112748	0.21189381	0.2798022	0.31312585	-0.0018565971	-0.088125974	0.14754738	-0.19316469	-0.9447316	-0.8081502	0.3049111	-0.13338053	-0.06771228	0.59452873	0.03817247	-0.060852382	0.26742268	0.27246162	-0.40410388	-0.17738183
again	0.47510874	-0.096376345	0.114411525	-0.12511447	0.21896417	-0.14848669	0.3020887	0.22303997	0.5796747	-0.52384514	-0.4287622	-0.030264717	0.45464304	-0.22819734	-0.076942906	0.11589451	-0.7085161	-0.08225465	-0.061330844	-0.056328088	0.18869847	-0.66924894	0.5937487	0.27802896	0.11726229	-0.85768276	0.5160498	-0.16966721	-0.20350939	0.37179786	0.65192056	0.0016296972	0.108374104	0.38176796	0.10806967	0.19021896	0.08963926	-0.45931563	-0.9581461	-1.0043789	0.21938804	0.040893774	-0.20680107	0.71117896	0.45299864	0.053406466	-0.13258502	0.7844793	-0.25403148	-0.10999565
herself	0.20736454	-0.3194567	0.37231332	0.28201258	-0.28353482	-0.433497	0.54823923	0.14855917	0.57097715	-0.6834863	-0.31131706	0.10520181	0.09069002	-0.55964446	-0.0044070557	0.15014873	-0.5635389	0.091892	-0.048647407	-0.07065916	0.13102867	-0.79601645	0.47705114	0.23262917	0.28786457	-0.8053634	0.8194457	-0.011202805	-0.079006135	0.19421005	0.5234115	0.17267756	-0.033394143	0.4331192	-0.19160375	0.12840015	0.13895649	-0.609227	-0.9200793	-0.94649166	0.07841006	-0.16452916	-0.3605228	0.49912137	-0.0518647	-0.4381901	-0.3762567	0.18004024	-0.4948919	0.14949661
do	0.4617285	-0.16327934	0.6122407	-0.071744114	-0.37556106	-0.22718582	0.15818575	0.3316527	0.65362376	-0.5551927	-0.0640256	-0.42251235	-0.29063007	0.1430524	0.039614882	0.13123442	-0.7154992	-0.34477204	0.13277158	0.04153578	0.044799685	-0.29907444	0.49104077	-0.12068736	-0.23354942	-0.7402578	0.7906347	-0.27470535	-0.0057981014	-0.20464003	0.77292013	0.27325928	0.2272911	0.20500234	-0.274395	0.07629872	-0.0042074397	-0.8860775	-0.42986807	-0.7628982	0.67062104	-0.1264569	-0.31921166	0.2550773	0.4828028	-0.23330212	-0.5763486	0.43879455	-0.20791236	-0.33309346
have	0.52829814	-0.4916751	0.37409034	-0.033622667	-0.2720523	-0.43141082	0.25197566	0.32475126	0.4726816	-0.6274847	0.17826954	0.45161206	0.3700635	-0.33305886	-0.04366523	-0.13356069	-0.36102515	-0.38729855	0.29926902	0.09211243	0.21311127	-0.497634	0.7192143	0.08461709	-0.14066376	-0.7726282	0.93657327	-0.23366863	-0.094312035	-0.11039252	0.3398227	0.12902087	-0.05112018	0.16576034	-0.43531907	0.04357581	-0.24546446	-0.7878934	-0.63201994	-0.76063335	0.44667456	-0.12642989	-0.15552987	0.5111062	0.44608968	-0.34558994	-0.14863554	0.5715072	-0.49293816	-0.07142707
when	0.11667838	-0.34799802	0.5396323	-0.10965558	0.038863316	-0.36192223	0.20992067	0.31282228	0.51653194	-0.7232164	-0.09258194	0.13868687	0.4614951	-0.41864023	-0.01432091	0.084769115	-0.4640788	-0.09299645	-0.118098184	-0.15813386	0.3343777	-0.24878007	0.6625272	0.1278593	0.1575181	-0.971742	1.0349488	0.11459728	-0.3304075	0.023171347	0.4348077	0.2714746	0.096397944	0.20915487	-0.12763365	-0.17270187	-0.3841406	-0.71645594	-0.9885504	-0.83690023	0.19725053	-0.31306657	0.08818189	0.5938092	0.40872034	0.09179342	0.008791169	0.29414368	-0.37291068	-0.13529493
or	0.3263852	-0.04381268	0.53813213	-0.032451514	-0.034034025	-0.5920832	0.13177527	0.4896788	0.45050466	-0.8208037	-0.08835074	0.38242114	0.3981508	-0.21905605	0.1848004	-0.027301785	-0.60622567	0.0024059527	0.19394061	-0.04151179	-0.26966438	-0.7117373	0.7596538	0.025985574	-0.1880317	-0.78900725	0.5472439	-0.2903025	-0.21956314	0.28863373	0.46628264	0.1727252	0.10365033	0.28993014	-0.54566175	0.16156408	-0.07464111	-0.70094526	-0.602231	-0.9233226	0.027676694	-0.2587517	-0.16008198	0.20106554	0.0502849	-0.36675212	0.050470404	0.46233523	-0.6675217	0.12843868
could	0.58494383	-0.5085289	0.5057315	0.060839295	0.430605	-0.4781866	0.3734172	0.23418064	0.3566776	-0.33690742	-0.21489827	-0.035560876	-0.43994746	-0.2460472	0.2711289	-0.006713636	-0.50760734	0.014523201	0.07120578	0.13657066	0.53774047	-0.52914757	0.25633165	0.077291004	-0.282993	-0.67565846	0.84153247	-0.05244554	-0.36542442	-0.06462317	0.46717167	-0.17079023	0.21939452	0.51055014	-0.26799867	0.15341286	-0.16240256	-0.9509288	-0.8643855	-0.9365674	0.5661585	-0.2361193	-0.30990937	0.45133692	0.22764947	0.0050798208	-0.20609592	0.4773719	-0.23476282	-0.37514248
thought	0.5400752	-0.47537723	0.6022986	0.3755558	0.33993146	-0.41095707	-0.04665353	0.12869519	0.5098598	-0.58032525	-0.2581263	0.13450512	0.20096405	-0.20021212	0.36216524	-0.067615636	-0.57368696	-0.23343141	0.07118411	-0.18042073	-0.118210614	-0.94631124	0.75584906	0.3401002	0.1817901	-0.47295275	1.1579138	0.18078932	-0.0038257535	0.22397216	0.3001873	-0.03901227	0.12754604	0.13558063	-0.24551156	-0.006509088	0.32106924	-0.8409365	-0.8540444	-0.49110645	0.27048966	-0.32706678	-0.21052025	0.47511005	0.33062792	-0.40378234	0.18152642	0.40617976	-0.16611996	-0.17441021
queen	0.049488526	-0.59837914	0.9634824	-0.23147479	-0.28965318	-0.39308894	0.31275186	0.09951474	0.709264	-0.57741374	-0.101972595	0.14059266	0.33830842	-0.18138632	-0.26602197	0.08037136	-0.7184813	0.24172206	0.18582453	-0.16043583	-0.07078899	-0.054220483	0.9512597	0.17477557	0.17449635	-0.4996962	0.9978131	-0.32955414	-0.019268518	-0.16490915	0.57370377	0.0011604242	-0.029929876	0.2685734	-0.4463129	-0.21374166	0.07008403	-0.35391146	-0.6902911	-0.6548824	-0.076728605	-0.25925714	0.03993682	0.58936584	-0.045931328	0.06366031	0.0830737	0.2854893	-0.24358916	0.15517312
off	0.14086564	-0.7334809	0.38580838	-0.3237633	-0.20915736	0.014278211	0.1899854	0.4383875	0.68893754	-0.6075478	0.14869331	0.5455474	0.8248502	-0.5526733	-0.51058817	0.028057694	-0.5798925	-0.041119296	0.17423414	-0.13780189	-0.14117585	-0.15970467	0.68741125	0.14243944	0.029630229	-0.6720849	0.7233966	-0.23075287	0.09784284	0.5200773	0.24885057	0.20573081	0.03765671	0.2688203	-0.5290313	-0.15361531	-0.4129341	-0.38157526	-1.1030716	-0.46915513	0.0075667724	-0.2904808	-0.17401664	0.34613383	0.078905664	-0.13068372	-0.05870594	0.2526391	-0.19355273	0.15178601
time	0.13152826	-0.64697176	0.5159554	-0.011912197	0.15301754	-0.24653767	0.49028376	0.2502461	0.50251365	-0.41686922	-0.35672534	0.14869522	0.109909505	-0.17974262	0.41347095	0.1331285	-0.6124226	0.09579819	0.021748122	-0.14328274	0.19016014	-0.043545183	0.33616742	0.21589729	0.31355053	-0.8665743	0.9760616	-0.2729894	-0.4499937	0.23827681	0.46375895	0.16218267	0.30064905	0.496539	-0.32860783	0.40365243	0.17304336	-0.5868855	-0.7883316	-0.56320083	0.20235378	-0.25844327	-0.22039463	0.5622955	0.3965125	0.3525119	-0.1286954	0.57646376	-0.25717425	0.04105062
how	0.3582473	-0.44730312	0.45532626	-0.3375538	-0.17320181	-0.27655512	0.13779484	0.23967269	0.49031603	-0.26934245	-0.065741375	0.21196955	0.3563342	-0.59296435	0.17390591	-0.22521979	-0.40334135	-0.5450851	0.20520148	0.003152851	0.29326934	-0.34432316	0.7296975	0.30554518	-0.1559734	-0.5547097	0.9604979	0.10014241	-0.17482997	0.13139224	0.34922424	0.14301401	-0.26268652	0.31742334	-0.24186543	-0.32400724	0.034321267	-1.0135918	-0.7141497	-0.9855918	0.2192097	-0.36852896	-0.29014271	0.7195903	0.25383312	-0.17875022	-0.27004385	0.4003865	-0.3501684	-0.019414846
me	0.6744053	-0.33783817	0.25392672	0.21892166	-0.42218667	-0.39637914	0.34610245	0.737495	0.5799477	-0.37817332	0.24938712	0.18363762	0.13396177	-0.09021662	-0.31504	0.3046456	-0.19192976	-0.3764556	0.3805767	-0.18136792	-0.12290727	-0.4912796	0.43977982	0.13603643	0.17506331	-0.05933059	0.62760943	0.0211664	0.048490707	-0.19478968	0.29275674	0.07882676	-0.047739267	0.5564892	-0.23318414	0.04274881	-0.059162624	-1.0343117	-0.52399385	-0.7359202	0.38813365	-0.38657105	-0.39821446	0.23064363	0.595729	-0.059677433	-0.00057025254	0.90769255	-0.4210406	-0.2633059
into	0.2954567	-0.41053337	0.5409124	0.047762062	-0.1915188	-0.2562575	0.1706489	-0.00083746575	0.4564131	-0.5405483	-0.13697593	0.08631647	0.3847021	-0.4455498	0.21973991	-0.02865708	-0.90963894	0.032658763	-0.051314697	-0.14701352	0.47072625	-0.2647068	0.29019374	0.055427276	0.19675979	-0.24322279	0.9007531	-0.101587445	-0.77395797	0.2318022	0.81004184	0.2503283	0.16383192	0.16665892	-0.31982663	0.0862744	-0.07206379	-0.37893942	-1.1016874	-0.7592145	0.05969931	-0.46149063	-0.15718098	0.73101467	-0.02182569	0.3898682	-0.5020732	0.6939333	-0.48741773	0.35880375
see	0.28494844	-0.37957317	0.22076145	0.03487239	-0.048748206	-0.42741683	0.18111596	0.54363346	0.4202476	-0.20030248	0.00021596253	-0.19800244	0.22248265	-0.32108277	0.050896827	0.33385175	-0.6550773	-0.0110035725	0.15048698	0.14069025	0.10201932	-0.68039584	0.48254532	0.36033875	-0.25856516	-0.6162386	0.6979835	0.052164547	-0.37793997	-0.12667799	0.5788144	0.19768924	0.018849753	0.37256986	0.0063597523	-0.004324734	-0.27921504	-0.9872085	-0.78363526	-0.6911696	0.23883033	-0.11718416	-0.26142067	0.66512674	0.067520104	-0.26002422	-0.31716716	0.59753263	-0.68479687	-0.11008627
well	0.60195637	-0.078819245	0.7601876	-0.17889714	0.08825402	-0.5845824	0.11535707	0.31288946	0.8492936	-0.6151479	-0.22475952	0.021764763	-0.17443278	0.18799154	0.059825893	0.09038089	-0.52575874	-0.17906561	0.43827295	-0.10791387	-0.15487666	-0.5150986	0.65864587	0.18962604	-0.2944309	-0.6788425	0.8314069	0.011120394	-0.35644498	0.031111158	0.19457127	-0.35986507	0.21556142	0.6326663	0.18549128	0.2528782	-0.0795159	-0.89571613	-0.7787616	-0.46791315	0.16242999	0.0926424	-0.75069624	0.39333102	0.10877789	-0.19837964	-0.06268636	0.09052685	0.060652997	0.030335933
did	0.25682396	-0.5769975	0.39287743	-0.22190362	0.14902568	-0.24897617	0.17495307	0.14925887	0.3388858	-0.28790233	-0.046835124	0.22652185	-0.061015464	-0.36097386	-0.05520237	-0.087897	-0.5858899	-0.3117595	0.021064507	0.10642172	-0.13102902	-0.29639494	0.6267938	0.27367893	-0.2594283	-0.09410319	1.1348863	0.055391513	-0.06407337	-0.0305445	0.36440215	-0.45597637	-0.0032126755	0.05503519	-0.4224893	0.07148667	0.17265812	-0.7445276	-0.65218556	-1.1601363	0.85044944	0.022412783	-0.27063534	0.32818645	0.35837296	0.16265124	-0.018494174	0.6623483	-0.22244984	-0.032370206
m	0.9826071	-0.19017206	0.40525895	0.05154767	-0.42865407	-0.46828675	-0.039536435	0.4249748	0.5111325	-0.6541537	0.09778553	-0.17362416	0.2697132	0.014338382	-0.30088234	0.033977997	-0.2755791	-0.15377395	0.06545647	0.14755969	0.27159587	-0.04704038	0.25002456	0.09408659	-0.48275733	-1.052176	1.044445	0.15070263	-0.13581796	-0.21793687	0.44495547	-0.120416604	0.062367495	0.056057535	-0.042644504	0.26640615	0.03227835	-0.39715335	-0.8268727	-0.95545447	0.6502418	0.2350221	-0.3480838	0.76956993	0.7303575	-0.21796441	0.057703994	0.4643759	0.099880025	-0.23962164
can	0.60863316	-0.33797598	0.1617822	-0.0823576	-0.2692957	-0.42916006	0.08429414	0.40903118	0.7409477	-0.2608985	-0.33723146	-0.27012324	0.31129616	0.008709051	0.13349217	-0.19259058	-0.5579345	-0.7197797	0.5584032	-0.19748119	0.013124332	-0.35276562	0.39922717	0.21141297	-0.2522739	-0.5756413	1.091884	0.035055324	0.09764591	-0.15114526	0.363444	0.29397753	-0.023704164	0.40266693	-0.26968896	-0.18072924	-0.08592149	-0.7910134	-0.37168232	-0.9462635	0.5436235	-0.11879759	-0.40010855	0.49527562	0.48220763	-0.29496187	0.20045641	0.39284903	-0.13626498	-0.1888645
king	0.4566867	-0.26474258	0.70777273	-0.46483624	-0.29491538	-0.35440582	0.32759917	-0.023046352	0.8470797	0.012217611	-0.36577326	-0.11155845	0.39642915	-0.027501127	-0.47973198	-0.032352626	-0.49126148	0.11466625	0.13187855	-0.26640338	-0.267623	-0.26104793	0.8918226	0.584123	0.131747	-0.464345	0.94556797	-0.58971375	0.33130354	-0.16189408	0.144095	-0.15147345	0.63589346	0.43809843	-0.74216676	-0.2517574	-0.218312	-0.3602474	-0.7027408	-0.34200794	0.16997766	-0.09899509	-0.36360383	0.21570067	0.22165427	-0.013593273	0.16291173	0.69939923	-0.36941037	0.28707588
who	0.4137388	-0.1897766	0.5255835	0.30626568	-0.15455668	-0.445829	0.6365601	0.2172029	0.75762665	-0.6770927	0.07369995	0.3609125	0.13445626	-0.47149515	-0.15768452	-0.045378238	-0.6213733	-0.28108954	0.34161627	-0.07942825	-0.062294934	-0.29815736	0.7251996	0.12683624	0.08649906	-0.1933302	0.8832818	-0.163525	0.06766988	0.07743977	0.3446007	0.116340145	0.17208773	0.23791257	-0.29547873	-0.25183415	-0.2758418	-0.27924585	-0.85495436	-0.28743854	0.122506306	-0.27336812	-0.90286064	0.36793315	0.09832068	-0.05670812	0.09198904	0.8247661	-0.24765873	0.06187518
your	0.55723584	-0.35225436	0.17404398	-0.29592165	-0.491354	-0.47576514	0.15612657	0.47688395	1.1264188	-0.2569191	-0.02160552	0.04252827	0.16197878	-0.17112698	-0.43616107	-0.2822821	-0.21795332	-0.44892207	-0.16472319	-0.23457775	0.016910821	-0.4681186	0.8770224	0.42135686	0.083708234	-0.47960576	0.89446485	-0.5288282	-0.07402655	0.0023385808	0.27812982	0.026341617	-0.13387087	0.14090233	0.0068307985	-0.13546039	-0.010990933	-0.4782472	-0.7333727	-0.61041075	0.17387053	-0.23581654	-0.56696147	0.49694797	0.544214	0.110876575	-0.057219263	0.74820596	-0.1779937	0.073455304
don	0.45898402	-0.7259569	0.278776	-0.06262388	-0.24518627	-0.40605432	-0.12160686	0.49709064	1.0584244	0.27052087	-0.032759484	-0.20134571	0.87634647	0.28634357	0.27089998	0.12672469	-0.24585088	-0.31287444	0.44679865	0.22109485	-0.10141492	-0.3794583	0.26742166	0.6139344	-0.18868014	-0.80114967	0.92746043	-0.028990135	0.32633054	-0.115608655	0.3675613	-0.20907918	0.23207197	0.47820532	0.023343006	0.010876149	0.05087381	-0.5913702	-0.47782713	-0.92678607	0.62052894	0.47507083	-0.132518	0.1605319	0.27291977	-0.15345895	-0.18744928	0.53007764	-0.11393656	-0.13560581
now	0.40082884	-0.02058763	0.26329833	0.22498308	0.035319112	0.04977183	-0.120683655	0.3246187	0.6228712	-0.22815293	-0.39925694	0.0052864626	0.49121135	-0.30104733	-0.14444385	0.37989053	-0.63469315	-0.24441504	-0.021321762	0.16876566	0.35402894	-0.3759659	0.6988455	0.17316909	0.13862939	-0.57189894	0.71076924	-0.28289434	0.011819138	0.47709182	0.5375325	-0.18062836	0.027571049	0.21820603	-0.11334482	0.19737147	-0.0547192	-0.67582804	-0.78512293	-0.70197153	0.23761629	-0.17610869	-0.5819009	0.5826728	0.4798227	-0.381741	-0.034149736	0.27200466	-0.20204373	-0.024921723
by	0.47676057	-0.12251234	0.5662918	0.10775355	0.09075252	-0.0884233	0.17704527	-0.325527	0.58194435	-0.38355908	-0.4952587	0.31845558	0.47789165	-0.15847212	0.013257839	0.09908232	-0.86986136	-0.00981193	-0.4306084	-0.53152066	0.11458697	-0.21852371	0.44612604	0.11925614	0.56445444	-0.58952	0.9288289	-0.32234818	-0.097026005	-0.19463433	0.31601727	0.029750776	0.07197332	0.44499478	-0.15319726	-0.107273586	0.27653727	-0.38059884	-0.94880784	-0.6813847	-0.17936355	-0.39132148	-0.020213034	0.5091333	0.46029773	-0.016631372	-0.27374578	0.40120858	0.038347997	0.14509878
began	0.73010796	-0.52019393	0.13505755	0.010065343	-0.027225882	-0.20893002	0.6535053	0.028792454	0.7142389	-0.9242027	0.2312438	-0.22817641	0.62235117	-0.35451257	-0.31014025	0.2709528	-0.41258958	0.35471082	-0.24384795	0.076533295	0.0696404	-0.45102233	0.38045412	0.17219265	0.28242087	-0.651228	0.62414384	0.009628456	-0.26649612	0.5272282	0.5097058	-0.005031517	0.06978834	0.12795791	-0.02167257	-0.082706764	-0.2888452	-0.69465345	-0.6694036	-0.54677945	-0.41026026	-0.00031651556	0.29671398	0.588763	-0.022995751	0.27912295	0.09215734	0.6065697	-0.31548646	0.13818073
my	0.4534133	-0.36975646	0.2823545	0.14768408	-0.20203453	-0.0052454863	0.30706602	0.21432528	0.70376587	-0.2872395	-0.093363956	0.32056332	0.14236365	0.2887391	0.11001736	-0.35276183	-0.24294852	-0.45077473	-0.3029541	-0.028886303	0.16778854	-0.52365726	0.93395275	0.40189463	0.05821958	-0.58068454	0.64656675	-0.21377586	-0.3029424	0.15730724	0.37193185	-0.07953831	-0.052045614	0.3061676	-0.21785706	-0.1616414	-0.051003728	-0.45900208	-0.471257	-1.1532247	0.72027576	-0.4448751	-0.32919437	0.5699512	0.29688865	0.124893546	-0.17886665	0.77830195	-0.106563106	-0.27945614
turtle	0.26188716	-0.65139306	0.12348129	-0.34961286	-0.37895727	-0.16558138	0.18489952	0.23422067	0.5228662	-0.46136445	-0.4440393	0.09615888	0.5432291	-0.47860873	-0.8075223	-0.12277678	-0.57137924	-0.056285266	-0.16130225	0.4119073	0.08234698	0.124742776	0.565905	0.5390482	-0.35795167	-0.8205969	0.72839093	-0.154594	0.15221354	0.04069286	0.40295368	-0.56618285	-0.2553431	0.14403033	-0.22559647	-0.30186018	-0.022152036	-0.24944672	-0.42786828	-0.8400723	-0.10332588	0.33133218	0.14367592	0.20468727	1.0038204	-0.02172865	-0.0062766895	0.78372854	-0.017423514	0.11503266
its	0.08648478	-0.14276694	0.26015416	-0.18785806	0.09202998	-0.09038104	0.24894142	-0.13742533	0.22684246	-0.81577665	-0.26724255	0.32103455	0.74581283	-0.5392203	-0.031022154	0.016917808	-0.6710081	0.27951607	-0.52387726	-0.143626	0.39132527	-0.10657182	0.4637856	0.47654438	0.37200984	-0.8063545	0.54557127	-0.46052352	-0.43003592	0.3676515	0.4502041	-0.1830453	-0.03880713	0.20124264	-0.16578156	0.0959284	-0.13113457	-0.27226967	-1.21278	-0.7665446	-0.6291538	0.017708167	0.052110963	0.630944	0.5164355	0.23539835	-0.49678767	0.26165888	-0.28109056	0.03539089
ll	0.6289386	-0.050425686	0.34187353	-0.17023161	-0.40155008	-0.17268948	0.396719	0.745035	0.17795414	-0.13950709	0.00075344555	0.03374935	0.41936448	-0.020039693	-0.04579509	-0.3503745	-0.57746696	-0.33040166	0.54328984	0.09132577	-0.008792702	-0.5865756	0.57772124	0.077076375	-0.26290315	-0.56694967	0.7826512	-0.06692437	0.3177144	0.04939665	0.4128821	0.15408833	-0.15836665	0.54967993	-0.44267684	-0.39809683	0.13533993	-0.89135104	-0.5865425	-0.43304658	0.4042973	0.030384287	-0.017148234	0.535281	0.29778525	-0.1955454	-0.2025176	0.6371187	-0.7215565	0.113334775
an	0.4530018	-0.24095759	0.63719165	0.11526631	-0.45735413	-0.4491072	0.5904402	-0.11414961	0.7598101	-0.4344774	-0.5572508	0.24651778	0.39458466	-0.25579095	-0.5933237	0.1780292	-0.1800771	0.21017432	-0.09756582	0.24160777	0.03923113	-0.048472323	0.4162575	0.39823115	-0.12206687	-0.43033063	0.94099045	-0.177807	0.071621284	-0.0371409	0.18916951	-0.093928196	0.026362635	-0.053903982	-0.15648592	0.40592557	-0.16060069	-0.6330224	-0.83735716	-0.90963435	0.1365256	-0.20176905	0.13270909	0.5926819	0.004558362	-0.1419388	-0.14378515	0.6248849	-0.10049635	0.1941784
)	0.5093217	-0.5552063	0.7455126	0.0068123806	0.11881743	-0.30026415	0.57197756	0.29820648	0.3940195	-0.096238814	-0.30066904	0.015991546	0.56228626	-0.10774246	0.17341146	0.022043407	-0.23734082	-0.123545334	0.069685765	0.025363091	0.15204902	-0.46463796	0.69905174	0.4094025	-0.085100904	-0.40547535	0.6856563	-0.23872027	-0.0067646867	0.22672194	0.28663182	-0.085187934	0.21718213	0.38882804	0.06299766	0.033470582	0.31433272	-0.6946742	-0.86468977	-0.83883417	0.17696127	-0.07832077	0.026080687	0.514229	-0.14253944	-0.11085166	0.0608934	0.48971418	-0.36972326	-0.0009147264
way	0.16783239	-0.44660306	0.41497052	-0.24525592	-0.090172164	-0.50091434	0.24191849	0.14946046	0.5274325	-0.44748336	-0.12066975	0.08449163	0.26842588	-0.35202602	0.20453146	0.14891009	-0.47679523	-0.299074	-0.1649816	-0.61404216	0.1994351	-0.19150671	0.29694003	0.06868133	0.15824337	-0.84614587	0.75821435	-0.32872432	-0.37797537	0.05682665	0.8019576	-0.06559684	0.1083093	0.3214775	-0.0021802783	0.0013195202	0.30545068	-0.74532557	-0.8841098	-0.5783172	0.23096332	-0.4133333	0.09658642	0.3449842	0.18289816	0.020964198	0.13377103	0.75199926	-0.26049894	0.13090776
hatter	0.5396616	-0.406627	0.6266837	-0.17555252	-0.40358412	-0.27102503	0.39289054	0.011816651	0.7837193	-0.4881794	0.03785613	0.0045246407	0.30499798	-0.2170793	-0.18281218	0.008182809	-0.5675601	-0.3549472	0.41939002	0.07540016	-0.15287846	-0.2245885	0.71659905	0.29821095	-0.035307094	-0.58420193	0.68907905	-0.15814675	0.37711602	-0.14975592	0.38455498	0.2724422	0.68175274	0.48723543	-0.12387252	-0.08168283	-0.04081044	-0.4933915	-0.6332666	-0.5115537	0.13290073	0.38066524	-0.68186086	0.79806	0.29985476	0.24149284	0.2578049	0.54872596	-0.3086694	0.41149554
quite	0.29854017	-0.66720665	0.51138234	0.2439952	0.10591875	-0.12646173	0.020470131	0.67309225	0.31773517	-0.24726316	-0.25447008	0.09314213	0.10584485	-0.16443637	0.13516994	0.15207544	-0.83678925	-0.084183484	0.11625703	-0.17232348	0.18358472	-0.2524379	0.13602662	-0.02605433	0.28062856	-0.61088043	0.8605556	-0.08735122	-0.026291557	-0.03207098	0.40121043	-0.05559909	0.29547757	0.37191263	-0.13689521	-0.20810175	0.08491191	-0.5779882	-0.80777746	-0.89947945	-0.0044830013	-0.34825775	-0.12913918	0.8591077	0.31588793	-0.15494083	0.022333294	0.3397281	-0.16641062	-0.2330453
mock	0.12935415	-0.6582606	0.20444368	-0.37368554	-0.4857316	-0.32400942	0.119489595	0.15650547	0.112182714	-0.20374346	-0.37869585	0.0987827	0.20637286	-0.38618806	-0.69297993	-0.2976938	-0.8692908	-0.16628213	0.05406574	0.2652875	0.16157162	0.23976281	0.987192	0.60043263	-0.18346041	-0.57734716	0.67892146	-0.08530718	-0.017695833	0.1403029	0.4341938	-0.59723437	-0.52356327	0.024303114	-0.5456915	-0.032621503	0.15334417	-0.4648632	-0.38464943	-0.9519338	-0.047845744	0.08089605	0.20137033	-0.08840865	0.8717714	-0.23668012	-0.2686011	0.79276085	-0.11000736	0.08833509
gryphon	0.29373115	-0.44147786	0.43644345	-0.48926115	-0.5906897	-0.26964936	0.2928672	0.13122942	0.5476309	-0.45286167	-0.2361836	-0.056144185	0.3015321	-0.28760687	-0.871928	-0.036607627	-0.3784829	0.047178157	-0.017795097	0.020214781	0.022015862	-0.14931162	0.7190263	0.34074396	0.28927213	-0.69157636	0.81196976	-0.0036981488	-0.16724867	0.18601182	0.3079477	-0.18466909	-0.13766824	0.34892973	-0.11950916	0.1865694	0.044851813	-0.23985489	-0.6845179	-0.4962116	0.09175328	-0.112269714	0.116036	0.34691978	1.1047307	-0.12963958	0.24929476	0.64469266	0.028793518	-0.34537587
are	0.3018526	-0.37268418	0.45413312	-0.14649257	-0.16759548	-0.22612458	-0.07713005	0.599667	0.9409256	-0.7754658	-0.047543183	0.36401808	0.052204113	0.044897083	-0.48483315	0.026131604	-0.13644491	-0.37147176	-0.038720667	-0.35836434	-0.20966816	-0.027818115	0.8277509	0.42392743	-0.10642428	-0.40403816	0.52994025	-0.18358523	-0.2903153	0.036281325	0.3890618	-0.29273272	-0.036874786	0.15435153	-0.46314588	-0.014908105	0.058524787	-0.44374007	-0.1517051	-1.1328536	0.61943173	-0.31407252	-0.82592225	0.21376261	0.2773035	-0.38714218	0.2939006	0.1674656	0.14538826	-0.32578316
think	0.13912672	-0.12759945	0.1925875	0.26665753	-0.79116917	-0.37856886	0.51956284	0.3428505	0.23297939	-0.52272016	-0.29227728	-0.53107256	0.09675151	-0.087329865	0.1889822	-0.186525	-0.6989614	-0.28352958	0.40044773	0.38507745	-0.22733793	-0.66888386	0.14217371	-0.033341758	0.12522592	-0.8182988	0.7441926	-0.52507067	0.118061036	-0.2427268	0.5937611	-0.067628935	-0.15404621	0.7058345	-0.43549883	0.09465237	0.0029841717	-0.7772553	-0.33174056	-0.58213335	0.5731777	-0.07387446	-0.19715175	0.60176444	0.3131272	-0.08076034	-0.4136744	0.15794486	-0.44732255	0.005447164
just	0.286174	-0.29681182	0.6264595	0.0055873618	-0.1647799	-0.10904467	0.34307015	-0.06821774	0.7212837	-0.76111615	-0.23309502	0.22389622	0.21397611	-0.36136007	-0.15029866	0.2024162	-0.5328926	0.107614115	-0.021136373	0.27248546	0.20802246	-0.074532956	0.26851118	-0.0730789	-0.027841985	-0.9347785	0.56692266	-0.18071708	-0.15633014	-0.11096912	0.4253756	-0.06815007	0.06243758	0.422156	-0.08747532	0.35565	0.15089545	-0.65731025	-0.9685923	-0.9461073	-0.12762782	-0.15718652	-0.29102775	0.3652184	0.10180066	0.10779072	-0.3416543	0.07631543	-0.3480572	0.13784109
their	0.030135639	-0.5021956	0.69423485	-0.06606385	0.33440843	-0.253622	0.20642072	0.26088536	0.7158285	-0.31735826	-0.5915808	0.49690956	0.26617724	-0.56167114	-0.29123324	-0.24141741	-0.3705423	0.35572895	0.28749853	-0.15458077	0.31951898	-0.15617919	0.43087596	-0.041800354	-0.16830304	-0.1731909	1.1728967	-0.07713101	-0.8340124	0.15735024	0.385647	0.38047493	0.13718079	0.27107498	-0.43539977	-0.14761938	0.12009646	-0.5091488	-0.7822097	-0.6609234	0.19600004	-0.23148863	-0.10161987	0.33957773	0.33454633	-0.4853366	0.4845853	0.21917373	-0.47619414	-0.17743404
(	0.5054273	-0.2798979	0.65851814	0.16755752	0.010315627	-0.19913891	-0.20457524	0.022028819	0.62589127	-0.5981128	-0.11652986	0.52212036	0.6387443	-0.40382114	-0.28569213	0.18386576	-0.49334702	-0.10754937	0.1461947	0.04505001	0.32490712	-0.6277239	0.43790793	0.18027285	-0.099789366	-0.44025776	0.5692467	0.06514877	-0.14407891	0.33402178	0.28015476	-0.10411282	0.1804718	0.5196419	-0.17177838	0.14396842	0.06971142	-0.5581031	-1.0954672	-0.6236105	0.19325301	-0.20666419	-0.31561252	0.53674835	-0.15022956	-0.050480884	-0.21779487	0.11839342	-0.18396695	-0.27926213
much	0.5643825	-0.4301644	0.565497	0.34837103	-0.24509002	-0.017980527	0.4541209	0.4333507	0.40713668	-0.41885978	-0.14671454	-0.046354163	-0.23331918	0.07811156	0.41068184	0.083803475	-0.73188174	-0.24294868	0.1812923	-0.008557379	0.1859324	-0.71277565	0.3216539	-0.039791003	0.34432328	-0.73413736	0.846419	-0.23310429	0.28685594	0.11153899	-0.19680497	-0.11621866	0.36244935	0.80494595	-0.62831736	0.4301027	0.33858556	-0.44730285	-0.3894886	-0.6924313	0.44441003	-0.14059755	-0.30030897	0.13861549	0.3060114	0.14624193	-0.15929963	0.12752478	-0.01153391	-0.18065184
say	0.40819612	-0.30507174	0.41905445	-0.2030508	-0.2882118	-0.24754335	-0.18878546	0.42251593	0.41217995	-0.5156586	-0.008091558	-0.31186575	-0.20249522	0.009790193	-0.26143485	0.3416676	-0.43502635	-0.29049304	0.35716516	-0.34965837	-0.37164497	-0.11449261	0.38407445	0.41589114	-0.37698662	-0.63064724	0.8584709	-0.15764701	-0.14612383	-0.1411518	0.35435078	-0.50937486	0.08956339	0.40989697	0.012923827	0.49705243	0.2615499	-0.6453053	-0.45881322	-1.1269404	0.07578866	-0.34012014	-0.14292538	0.5516804	0.11272062	-0.36662513	-0.31638885	0.34772098	-0.48347938	-0.21354534
some	-0.019739807	-0.114420734	0.5512895	0.0655086	-0.30522633	-0.18057434	0.22562835	0.21074103	0.78216195	-0.6325221	-0.09858851	0.17635827	0.19011204	-0.32762548	-0.28864703	0.018653754	-0.39577982	-0.07185206	0.10362643	0.059242498	0.15381911	-0.16935018	0.6496631	0.0718831	0.5332055	-0.4077829	0.9260954	-0.30821717	-0.2837645	0.35053653	0.33749303	-0.11973522	0.13902394	0.10444834	-0.1399261	0.2007888	0.046713147	-0.56609607	-0.84364283	-0.8296907	0.07113262	-0.49058688	-0.4990361	0.5364362	0.4386394	0.40958324	-0.15757765	0.39268768	-0.39759508	-0.010278594
first	0.44515455	-0.25219503	0.5029596	-0.41106576	0.2619399	-0.4667379	0.033455275	0.4011026	0.5308254	-0.40310258	-0.35661614	-0.102411635	0.3823752	-0.3945695	-0.21966754	-0.4341589	-0.9863391	0.103916496	0.27630734	0.17306484	-0.15115464	-0.23021747	0.64869124	0.07654549	0.3296976	-0.5718503	0.59003365	0.41128224	-0.0651075	-0.5114049	0.20585842	0.0034804828	0.15124534	0.20537168	0.08307863	0.35200655	0.10849853	-0.3084168	-0.49345672	-0.51261806	-0.06994559	-0.271335	-0.23344159	0.47226885	0.43447962	-0.080282085	0.10555319	0.737671	-0.26718685	-0.008129649
here	0.71623254	-0.4638064	0.45078588	0.12772173	-0.1583289	-0.37588936	0.17518379	0.10391569	0.26635814	-0.4129846	-0.20649973	0.0945324	0.35713717	-0.44001666	-0.23254636	-0.21224993	-0.564842	-0.3041741	-0.13627493	0.38791165	-0.14198811	0.15904538	0.3552043	0.4684434	-0.20100394	-0.7001839	0.70198536	-0.037513666	0.11295149	-0.4753918	0.57562125	-0.2566213	-0.04124346	-0.07869154	-0.42543665	-0.26020336	0.06418868	-0.67705566	-0.6418053	-0.143502	0.53986764	0.11493166	-0.19724205	0.86209357	0.33006275	-0.4618507	-0.00026417524	0.5826659	-0.49631238	-0.06638413
head	0.10677256	-0.47213915	0.5538548	-0.6074879	-0.08121296	-0.2259135	-0.5734288	-0.10934974	0.7356173	-0.5834087	0.21195357	0.16759856	0.51325536	-0.33304903	-0.20711309	-0.17714128	-0.5038509	0.1262663	-0.017535698	-0.25953943	-0.29542607	-0.28946328	0.63074243	0.7011545	0.52891016	-0.6696181	0.5733092	-0.3998365	-0.2042536	0.9308738	0.23510197	-0.39777702	-0.08510209	0.4419393	-0.23155394	0.15584973	-0.54757273	-0.4047225	-0.7880827	-0.3298245	-0.09014608	-0.30405614	-0.54136676	0.29453793	0.24814887	0.14400817	-0.1742256	0.0008604358	-0.07241126	-0.1706043
go	0.7329325	-0.37183672	0.34158227	0.07352764	0.24629563	0.009251424	0.093338616	0.27070138	0.70139724	0.0014802697	0.26442957	0.19458474	0.33113346	-0.25252742	-0.27345386	-0.24733752	-0.41758168	-0.1453715	0.583189	-0.27299687	0.08090887	-0.18343037	0.295298	0.42872837	0.1639077	-0.5217578	0.8933957	0.17779094	-0.0050080195	0.05981426	0.33230233	0.2291145	-0.13287276	0.22142443	-0.35186774	-0.031672508	0.22855245	-0.714972	-0.67734975	-0.23890723	0.10407904	-0.2561192	-0.16367373	0.38448492	0.7691064	-0.24239905	-0.22548999	0.8745402	-0.2959546	-0.5255344
only	0.55138814	-0.64416844	0.6820338	-0.117030226	-0.24781454	-0.75125474	0.038281746	0.31236506	0.9160117	-0.15928863	-0.124506004	0.3326828	-0.108224474	0.21792781	0.0023165941	0.23738371	-0.4869417	-0.1328323	-0.35209686	-0.08825095	-0.024555314	-0.399919	0.650761	0.29196975	0.015383713	-0.1546379	0.6999367	-0.30727127	-0.27297372	0.071561165	0.31649485	-0.24561009	0.4254579	0.6750206	-0.24960783	-0.113570996	0.20675457	-0.48143724	-0.48248154	-0.4204181	0.3057781	-0.30873355	-0.6158514	0.4645857	-0.061888378	-0.2016175	0.57625055	0.00885883	0.13774917	-0.417839
rabbit	0.21294647	-0.6297419	0.28866464	-0.388494	0.4142168	-0.17293215	1.0218366	0.2782536	0.6951534	-0.49755538	-0.4466314	0.35255656	0.23309153	-0.14797094	-0.49259526	-0.10923537	-0.67912805	0.026438052	0.016881661	-0.13953236	0.012418896	-0.40486965	0.33509168	0.42754635	0.32409638	-0.07780118	1.2816131	0.33799154	0.17441796	-0.158713	-0.08765623	-0.1290906	0.10012193	0.15114684	-0.27933428	-0.19980603	-0.03817413	-0.38466117	-0.642699	-0.5490245	0.1923486	-0.19399315	-0.36393648	-0.22697212	-0.026520006	0.3280451	0.084023595	0.733888	-0.112745404	-0.30960327
which	0.11253734	-0.43933403	0.25241482	0.18913604	-0.50149363	-0.57422835	0.17233269	0.09714099	0.67196643	-0.52550846	0.07665233	0.026701044	0.29830605	-0.52108335	-0.22485046	0.30368632	-0.38800004	-0.4977231	-0.1916594	-0.3273735	0.09172373	-0.3200996	0.36471403	0.06932518	0.43741757	-0.54768753	0.5805822	-0.043238513	-0.3380735	0.20890315	0.1303012	-0.020482272	0.20645536	0.30325764	-0.47452134	0.39443198	0.08314562	-0.4946168	-0.7064216	-0.89918125	0.017039761	-0.5691103	-0.44572312	0.5199315	0.31971344	0.19678323	-0.051206447	0.67763054	-0.5138919	0.14915636
thing	0.27582148	0.14130251	0.45470962	0.29875073	-0.21076068	-0.3241263	-0.42320505	0.21161702	0.6675681	-0.2173078	0.464607	-0.07625152	0.32318807	0.05176924	-0.114154406	-0.05904433	-0.68891376	-0.31104207	-0.31907773	-0.36722323	-0.12452913	-0.4437831	0.7556565	0.45941323	0.5964092	-0.49217573	0.57907987	0.046025205	-0.053051304	0.03755474	0.10183692	-0.4118482	-0.08555474	0.53918016	0.1221105	0.018972067	-0.1381231	-0.4265489	-0.9925052	-0.75570107	0.057543516	-0.44256312	-0.46884784	0.705023	0.35960522	-0.50464296	0.18740876	0.6432067	-0.45197135	-0.035993584
more	0.48154455	-0.18942556	0.33173496	-0.31894636	-0.23680855	-0.080457605	0.14088108	0.18321776	0.63488334	0.07118779	0.0070333425	-0.051450238	0.33060595	0.3142831	-0.1889483	0.013042713	-0.6628073	-0.4273915	0.21152934	-0.3058669	-0.38466078	-0.7574429	0.26869327	-0.06487279	0.05333661	-0.9992873	0.67098135	-0.35914218	-0.013086433	0.6279794	0.2657832	0.29447317	0.39388537	0.26800215	-0.17750637	-0.173888	0.38842413	-0.5888679	-0.46726018	-0.5469974	-0.12247764	-0.123728774	0.14744607	0.8124423	0.41287413	-0.3919123	0.021793766	0.7598463	-0.40082264	-0.10407029
never	0.534634	-0.6543003	0.6246456	-0.263099	-0.072353676	0.09793933	0.5414002	0.45408815	0.40972233	-0.17303547	-0.017448772	-0.055086985	-0.32672974	-0.26019695	0.3155382	0.093581066	-0.4963997	0.15467048	0.4240821	0.19944182	-0.097937346	-0.33466566	0.3838897	-0.05332647	0.5660356	-0.47410625	0.7350683	-0.3566303	0.36159465	-0.10315583	-0.19004163	-0.29300416	-0.2508835	0.15396683	-0.37011597	0.15860216	0.19070895	-0.63187075	-0.5236304	-0.6856579	0.5078517	-0.19449049	-0.47029954	0.6464784	0.34671003	-0.48874453	0.20167635	0.43989205	-0.32434005	-0.19779761
voice	0.4198143	-0.5334046	0.20676884	0.124501735	-0.28972092	-0.44671553	0.2821653	0.0125995055	0.5500779	-0.7571207	0.07614562	-0.17583069	0.8918489	-0.35579672	-0.3550108	0.41750532	-0.3664087	0.336266	-0.10791674	0.14882137	-0.10039868	0.124854505	0.93567467	0.5447737	0.49632928	-0.14700748	0.71022713	-0.14988239	-0.2673551	0.08306345	0.02487629	-0.5222211	0.12507613	-0.06524649	-0.21747825	0.1896044	0.07282618	-0.2253446	-0.4121539	-1.1370203	-0.18747988	-0.1347088	-0.37587887	0.32458603	-0.34421074	-0.23739806	0.39788198	0.6330308	-0.4231618	0.31073743
get	0.12134771	-0.41769367	0.40140635	-0.41462016	-0.014290935	-0.098850176	-0.031621873	0.09232789	0.49239776	-0.4601555	-0.18955502	-0.21916759	0.36678943	-0.20085396	0.21850713	0.11499682	-0.3193549	-0.35368952	0.09599748	-0.026839528	0.21563259	-0.6545116	0.33131337	0.409533	-0.016385451	-0.6757181	0.85281396	-0.11848194	-0.31916574	0.22458072	0.8245561	-0.41325414	-0.17157812	0.584411	0.2474598	0.13907947	0.017410766	-0.32077372	-1.0965439	-0.29188964	0.42498812	0.005779393	-0.09769124	0.47823274	0.33678102	-0.28240594	-0.15467158	0.25605336	-0.16873136	-0.093334794
come	0.33555585	-0.0381495	0.3512307	0.025263712	-0.71299285	-0.37674084	0.4261822	0.7623324	0.6692096	-0.15543035	0.07557755	-0.3113589	-0.08242402	-0.114620484	-0.26373821	-0.036107834	-0.59319526	-0.19238833	-0.11586818	-0.0640338	0.16901523	-0.5356321	0.5680032	-0.19943827	0.38091046	-0.47212577	0.43308854	-0.6395855	0.10112105	0.24139154	0.1471553	0.4841022	-0.14384295	0.3507993	-0.6424879	-0.45008963	0.24543679	-0.4606695	-0.422814	-0.5844276	0.2942322	-0.046969622	-0.47613513	-0.09426944	0.2887109	-0.08339387	0.11530358	0.87333405	-0.0823113	0.012385197
oh	0.903749	-0.04274486	0.107672125	-0.22163342	-0.10304618	-0.39655197	0.27983397	0.5142893	0.82576966	-0.4570132	-0.37029952	0.07334433	0.37105444	-0.28708664	-0.14407173	-0.30428505	-0.2548042	-0.5819123	-0.016108721	-0.13928147	0.18418849	-0.26362428	0.7033518	0.47205824	-0.19276074	-0.24473304	0.7954663	0.076396905	-0.1987229	0.103112325	0.27438796	-0.3470402	0.05504717	0.48879367	-0.04296951	-0.0060348064	-0.05734109	-0.28899914	-0.3231764	-0.5798763	0.6586883	-0.23976666	-0.25525182	0.9787784	0.27535826	-0.51900643	-0.32494888	0.5777905	0.06959394	0.09062901
looked	0.37812778	-0.47864676	0.467749	-0.32970273	0.14005002	-0.4279035	0.34135714	0.42426282	0.53693795	-0.5415696	-0.64395076	0.2882953	-0.32937917	-0.5156107	0.006647818	0.43577605	-0.6654537	0.49229324	-0.03746908	-0.081023425	0.3764573	-0.33763653	0.503649	0.37896025	0.33374095	-0.107275054	0.5166981	-0.17727652	0.157744	-0.024535652	0.6099851	0.07082388	0.41555268	-0.2678187	-0.10135581	-0.8169446	-0.04773312	-0.42264903	-0.9270703	-0.38720325	-0.23178457	-0.34362197	-0.11068934	0.32855532	0.28749365	0.056290735	-0.21810207	0.4115995	-0.48185688	-0.06817122
got	0.9370469	-0.23271129	0.25346285	-0.21182099	0.13867217	-0.4937827	0.27629513	0.26113695	0.695455	-0.023377955	0.11027454	0.3899336	0.34540632	-0.4715943	-0.08003702	-0.13775364	-0.9337341	-0.15552875	-0.06085884	-0.33363542	0.22631283	-0.3669015	0.27147537	-0.19618726	0.23806782	-0.6426054	0.7925912	0.07197921	-0.0020844247	0.32336214	0.3669762	0.29522526	0.23144023	0.03350287	-0.40607047	0.14553073	0.048010457	-0.32828957	-0.63667214	-0.34586352	0.20066336	-0.11984229	-0.32743168	0.47280127	-0.010635275	-0.30045953	0.13757426	0.49712157	-0.25194946	-0.38439885
ve	0.62143743	0.00028077886	0.39027333	0.090316035	-0.22484162	-0.13826232	0.03148504	0.384543	0.7499162	-0.3770974	-0.3375255	-0.09630827	0.05083573	-0.5827785	-0.046401866	0.16141927	-0.42471528	-0.48200187	-0.19708925	0.16414396	-0.050405692	-0.3658557	0.70589715	0.08146686	-0.1094011	-0.8596368	0.9574093	-0.030904993	0.11442432	-0.32175067	0.31724238	-0.098105535	-0.06506985	0.1071385	-0.08549	0.23448649	0.27148148	-0.20393524	-0.61368006	-0.48345152	0.3199167	-0.007474318	-0.5210777	0.95991623	-0.11254622	0.121713474	-0.30854297	0.6546736	-0.04524102	0.024402551
must	0.6580682	-0.4196332	0.21334155	0.242441	-0.2411243	-0.37422368	0.07545964	0.08639334	0.67001647	-0.62484646	0.43497798	-0.12866801	0.3252943	0.044322774	0.12488207	0.01602526	-0.4825165	-0.118533865	0.3700161	0.0081277415	0.27893037	-0.28254515	0.60163516	0.46079472	0.40476644	-0.12536566	0.8747207	-0.2726416	0.0071406066	0.21840681	0.48676026	-0.11790174	-0.3979075	0.18858373	0.06009914	0.06323175	0.052100174	-0.79008317	-0.44027576	-0.6943779	0.38211313	-0.17877875	-0.43730438	0.4275621	0.07513045	-0.52138734	0.108027115	0.41876698	-0.4877146	-0.12858254
mouse	-0.09957357	-0.3215655	0.28821984	-0.05173472	-0.5573273	-0.44435582	0.42648518	-0.055793412	0.14092317	-0.56736803	0.09989702	-0.11824552	0.25153515	-0.30621597	-0.15746	0.16839305	-0.44755328	-0.059482113	-0.2537904	0.033446707	0.11603986	-0.027535284	0.71830195	0.44507056	-0.09787397	-0.30180296	0.98911726	-0.43438092	-0.26461667	-0.06812376	0.6491494	-0.2842514	0.03581748	-0.1413483	-0.272025	-0.13146675	0.14755169	-0.6982292	-1.157009	-0.63092804	0.5009166	0.12565415	-0.18648782	0.34310278	0.21485761	-0.00262402	-0.043567665	0.50821847	-0.21757278	-0.1984427
after	0.54438716	-0.32093036	0.3671899	-0.23290473	0.13212872	-0.3479246	0.4253644	0.6312851	0.41209146	-0.66766214	0.039910432	-0.174812	0.061164312	-0.2579829	0.1632509	0.2712491	-0.3955281	0.30933136	0.4798151	0.32658237	0.14118104	-0.16264224	0.20636319	0.42516756	0.40442774	-0.3378633	0.7589786	-0.018478338	-0.4048634	-0.07253907	-0.16978754	-0.2203429	0.26487124	0.27160898	-0.5534011	0.14501366	0.27610824	-0.29538143	-0.6052269	-0.9741841	0.06007372	-0.06266971	0.004773468	0.57065934	0.34321383	-0.30520117	-0.07906416	-0.0050589778	-0.47128582	-0.5175783
him	0.5960893	-0.97882086	0.6106221	-0.26421738	-0.34549043	0.24024725	0.49910313	0.21465264	0.4274448	0.04268732	-0.152192	0.23107673	0.5660559	-0.18243918	-0.23176396	0.27364874	-0.03509178	0.015350521	-0.19133186	0.26700145	0.078393936	-0.25215146	0.8970186	0.27092898	-0.016949534	-0.44218373	1.0659766	-0.19682083	0.2856868	0.23341417	0.5785173	0.07067492	0.1652321	-0.0432843	-0.34739658	-0.058818065	-0.28377455	-0.28853124	-0.38627562	-0.57405245	0.47331792	-0.23613508	0.22285601	0.3769046	0.3861354	0.0016748793	0.035551004	0.4414257	-0.3756142	-0.16951686
duchess	0.5476382	0.052912667	0.18475623	0.07032199	-0.3174885	-0.39680493	0.52585244	0.1891127	0.49925196	-0.24749872	-0.7056292	-0.32810777	-0.0756461	0.25884357	-0.18766697	-0.48743594	-0.9638363	-0.012897313	0.34753966	-0.24864475	-0.027020544	-0.48278266	0.48122233	0.37357664	0.37782472	-0.106429145	0.8731013	-0.21155587	0.0026416536	0.14463012	0.41887584	0.22960526	0.13744618	0.6485638	-0.58640146	0.24650398	-0.35472664	-0.09385101	-0.1114295	-0.23077159	-0.048337806	-0.16755116	-0.17662582	0.38191277	0.3175554	-0.271801	0.026586827	0.8852451	-0.27281684	-0.12809423
such	0.20834403	-0.013414592	0.6044608	0.5704819	-0.015888363	-0.49534163	0.109924495	0.72358656	0.099852875	-0.73384356	0.06541693	-0.3391952	0.1059825	-0.235944	-0.019381102	-0.034450717	-0.3638174	0.23470235	-0.34886414	-0.082152046	-0.116277084	-0.51448023	0.44181764	0.16702113	0.023386102	-0.33635652	0.8984638	0.060494326	-0.50178176	0.17682497	-0.010645535	-0.18830845	0.18030709	-0.1909695	0.059171624	0.117637455	-0.30501622	-0.61473954	-0.63198215	-0.90700114	0.3181601	-0.43708414	-0.18734339	0.6636438	-0.026829306	0.016127512	-0.068118505	0.49775684	0.009846158	-0.19355191
round	0.4485169	-0.3323426	0.33016387	-0.017763741	0.31883487	-0.31051713	0.24488145	-0.21594056	0.24349225	-0.30831802	-0.39382985	0.30359375	0.34457704	-0.43190193	0.06900715	0.13429798	-0.7985891	-0.07486309	0.22926949	0.073224835	0.12321424	-0.3920293	0.9227203	0.28463113	0.5766269	-0.5007313	0.4854441	-0.1573169	-0.18723321	0.078122444	0.24616903	-0.15172672	0.13729797	-0.31486717	-0.5135202	-0.17302042	-0.25664076	-0.47580504	-0.73628914	-0.5455929	-0.39522535	-0.2195467	-0.14440133	0.31179065	0.6937749	-0.21988508	-0.18636039	0.6065283	-0.2836619	0.26785272
over	0.07888486	-0.55641353	0.34208608	0.23977268	0.058878805	0.05788573	0.07627556	0.41582423	1.0880153	-0.17590247	-0.04693332	0.16611129	0.1389496	-0.24160032	-0.28756312	-0.2193513	-0.9938705	0.020958036	0.0045755133	0.06365019	0.24867186	-0.64397705	0.41828126	0.1642116	0.33884263	0.16081211	0.7356268	-0.05372121	-0.011833891	0.6074246	0.26818475	0.045335747	0.21893284	-0.14310813	-0.73370016	-0.01060576	0.04108634	-0.5175213	-0.4670344	-0.881518	0.043329246	0.33829698	-0.58345795	-0.14997742	0.15414475	0.058173887	0.0830728	0.070934385	-0.26153815	-0.13002497
why	0.5409721	-0.040461414	0.4888852	-0.1745442	-0.45058867	-0.3249599	0.0949631	0.27206597	-0.16484976	-0.49407238	0.1830338	-0.15228687	0.078384474	-0.11169216	-0.7589164	-0.23506325	-0.6583234	-0.55050266	0.10358057	0.3812217	-0.5931756	0.3563478	0.9399541	0.18086183	-0.4434817	-0.5716363	0.5048372	0.34621355	-0.3251632	-0.14951225	0.24078782	0.015957832	0.02671355	0.006648589	-0.14368758	0.36992988	-0.032658596	-0.34973842	-0.61340505	-0.9836525	0.59187526	0.58928764	-0.6259315	-0.2725814	0.59181166	0.20675205	-0.4078799	0.47862342	0.008674746	-0.14863943
came	0.50499976	-0.5115527	0.41680163	-0.10852899	0.11024546	0.44428042	0.16784121	0.29594445	0.6167979	-0.039019912	-0.31993073	-0.3277514	0.39190826	0.1325473	-0.30975917	0.03644469	-0.69871205	0.36025992	-0.16701527	0.003886696	0.27373686	-0.32847625	0.42936844	0.21407945	0.6542374	-0.046175998	1.2078321	0.4869564	-0.17838725	-0.07675799	0.668805	0.3242594	0.15027274	-0.030955449	-0.17492954	0.10228393	-0.02516157	-0.45870394	-0.8812045	-0.4121281	-0.17304659	-0.4321955	0.41892716	0.2739231	0.3071103	-0.07734924	0.13557687	0.4784552	-0.7422098	0.18068853
other	0.15799606	0.091262326	0.8625481	-0.22616869	-0.03972183	-0.13040741	0.38066664	0.23485532	0.7458329	-0.5331357	-0.034264915	0.5045036	0.5117852	-0.117962256	-0.487354	0.166095	-0.6206866	0.36362156	0.2667006	-0.18950184	-0.2073149	-0.41631567	0.61710846	-0.19363245	0.523079	-0.75378585	0.90206814	-0.12260583	-0.2332592	0.19699435	0.7414353	-0.11290148	0.17205593	0.25709426	0.022106849	0.30027854	-0.18851379	-0.2551265	-0.39144874	-0.17835784	0.24983093	-0.36591214	-0.19758955	0.12446453	0.21310636	0.4159128	0.34813404	0.34746957	-0.052159693	-0.043224234
two	0.051683873	-0.1071036	0.3227819	-0.07486832	-0.36213705	-0.12833934	0.4322473	0.50041145	0.8249449	-0.76786226	-0.05579743	0.20381422	0.12820657	-0.4197825	-0.2005362	0.29564664	-0.39260316	0.420174	0.009290457	-0.0099196695	-0.47503722	-0.8177271	0.48067164	-0.5394532	0.4056896	-0.47511274	0.4156424	-0.17826645	-0.16508375	0.17039643	0.018551696	-0.2524053	0.20804155	0.049730137	-0.3708693	0.15412366	0.1038388	-0.18431473	-0.16514575	-1.3073225	-0.6857981	0.012341902	-0.1826924	0.26405197	0.200984	-0.42909893	0.098785624	0.41309994	-0.32177192	0.07506723
tone	0.66235363	0.14809652	0.7624624	0.15141432	-0.4694687	-0.79115164	0.27877656	-0.35119724	1.3346512	-0.097736135	0.08399979	-0.29918012	0.1507225	-0.26195583	-0.26797736	-0.037142295	-0.28641224	0.117420755	-0.25139055	0.5888635	-0.41109505	0.20161465	0.5290909	0.4037117	-0.1818147	-0.23899849	0.48770055	0.29413828	0.028755909	0.23040205	0.41573778	0.1332647	0.6319643	0.30754983	-0.069947705	0.45831662	0.0932898	-0.4043437	-0.19769025	-0.9624135	0.060836904	-0.36099902	-0.2230941	0.17818299	0.30074644	0.07875935	-0.22150235	0.2513989	-0.09200936	0.11686071
dormouse	0.38261086	-0.2883484	0.22947997	-0.09869191	0.23602279	-0.35414797	0.26571268	0.026681766	0.44031674	-0.7229351	-0.45174208	0.045446284	0.22894278	-0.5016409	-0.106864825	-0.18911177	-0.3049965	0.42693228	0.12888873	0.019998383	-0.14683414	-0.1693504	0.7411922	-0.007895194	0.06381939	-0.53386074	0.84449923	-0.013744909	0.25325492	0.0783623	0.9622477	0.10640757	0.23715597	-0.026632987	-0.4749018	-0.078673586	0.6147376	-0.14573704	-0.5637255	-0.42181167	0.08715662	-0.24970524	-0.035375506	0.45790625	0.11700201	-0.15653878	-0.18331705	0.7986022	-0.5953017	-0.003527943
great	0.54034287	-0.23104978	0.3491491	-0.04935519	-0.074649945	-0.5819596	0.09510224	0.08641624	0.70520955	-1.01755	0.21510288	0.23506972	0.54707444	-0.56028986	-0.3392777	0.24415895	-0.37670013	0.31645882	-0.077077925	0.22842522	-0.025556661	-0.06995702	0.47504634	0.26976916	-0.34628218	-0.43989784	0.19212964	-0.2497453	-0.21818256	0.08571668	0.03397867	-0.13796769	0.2984255	0.13134772	-0.32435304	0.24365526	-0.20990525	-0.45907834	-0.8029736	-0.5962429	0.108335584	-0.55727655	0.026490532	0.7101587	-0.2701588	0.027689962	-0.10835531	0.38757443	-0.42571115	-0.16029172
any	0.72378516	-0.3546164	0.38347214	0.1439489	0.28856105	-0.5697024	-0.3106062	0.28206947	0.5567044	0.29357547	0.21315941	0.14742143	0.33957914	0.17183036	0.14356142	-0.027191594	-0.53829956	-0.07286284	0.31861058	0.12739599	-0.2854099	-0.7415092	0.14271511	0.102187805	-0.4086884	-0.9456339	0.7052021	0.016450254	0.30375102	0.5281167	0.6222821	-0.13778135	0.26149136	0.031957302	-0.7462822	-0.006783957	-0.10028088	-0.55970675	-0.45247	-0.4103964	0.12867926	0.099474534	0.36694703	0.37803537	0.35392174	-0.5572057	0.22307137	0.696629	-0.395282	-0.32810193
back	0.21702926	-0.008688211	0.24105062	-0.2542922	-0.27451143	0.016700923	0.61231005	0.12456924	0.64605546	-0.05857911	-0.012090109	0.10186029	0.45477784	-0.49084175	0.16235305	0.3314861	-0.901803	0.14327258	-0.4492947	0.01544492	0.25167954	-0.55899125	0.49892336	-0.12656584	0.06979471	-0.41071844	0.40591374	-0.36286554	-0.50207704	0.2139623	0.7053913	0.23647301	0.42060217	-0.0984825	-0.38316047	-0.45941967	-0.5174537	-0.5040598	-0.3351356	-0.9396583	0.0054517984	-0.17648615	-0.055103883	0.22468327	0.17551228	-0.37504688	-0.6106922	0.43633533	-0.2693109	-0.67557126
before	0.76685417	-0.7875171	0.39687455	0.29531676	0.26561052	-0.040939644	0.17179902	0.66805285	0.3956328	-0.83944017	-0.25363666	0.007978216	-0.17374246	-0.65658927	-0.16363247	0.2693945	-0.6730552	-0.052055724	-0.08809107	0.023067802	0.0861119	-0.22910523	0.12577052	-0.22522277	0.76430917	-0.66423273	0.6264875	-0.011646401	0.094950266	-0.043292582	0.2684511	-0.13996692	0.13423085	0.5308595	-0.052708298	0.43931952	0.123990975	-0.036934637	-0.64128786	-0.6195005	0.6910426	0.41816676	-0.36496145	0.23556876	0.122856565	0.17265001	0.079373516	0.08719208	0.19623587	-0.4253584
re	0.17728609	-0.5078445	0.45992365	-0.12110579	0.02169916	-0.36839628	-0.121337496	0.7061727	0.6453526	-0.10254021	-0.13359345	0.28896028	0.33949375	-0.069141835	0.09759691	-0.058024336	-0.16360536	-0.3535583	0.09958559	0.42997295	-0.017232765	-0.41486037	0.37910646	0.20996486	0.14865248	-0.45473462	0.63559407	-0.13501401	-0.283682	-0.12468456	0.29796427	-0.12864405	0.049131606	0.29289687	-0.45549807	0.17196706	-0.21322787	-0.86352974	-0.26377773	-0.79966575	0.7253966	0.02477128	-0.028443575	0.22606272	0.90005565	-0.34717217	-0.35051122	0.30988824	0.22155601	-0.116102144
been	0.36516103	-0.26490137	0.057554685	0.5352455	0.07182765	0.1676528	0.02805927	-0.018048763	0.4666955	-0.6481786	0.16881225	0.5654729	0.038697444	-0.24075663	-0.2800296	0.10089221	-0.6942776	-0.22170348	0.21022552	-0.16233753	0.17649041	-0.10487128	0.06961452	-0.3789442	0.11338045	-0.90966284	0.9014036	-0.1610853	-0.19300146	-0.09113123	0.6491293	0.09389466	0.100090675	0.45498708	-0.20957875	0.30392262	-0.010322195	-1.0847387	-0.4263381	-0.5937105	0.3286203	-0.11062527	-0.42949858	0.12542537	0.27131578	0.34190106	-0.45127502	0.34411702	-0.3666798	0.4191743
cat	0.4735058	-0.1842378	0.23316258	-0.022946462	-0.3293079	-0.93263173	0.00033970177	0.24846151	0.50713915	-0.223719	-0.46106678	-0.025720015	0.109157085	0.13564596	-0.297683	0.11267726	-0.9532364	-0.10951464	0.068762764	0.33469057	0.039713055	-0.8706506	0.7963253	0.29918042	0.39461103	-0.38485128	0.6206281	-0.30087125	0.29661807	-0.32949996	0.29332113	0.08094718	0.53451306	0.0637674	-0.12712437	-0.51108253	-0.13580722	-0.34082562	-0.1961528	-0.02259613	0.17934509	0.38580045	-0.7191005	0.49325794	0.15985493	-0.013565958	-0.28684783	0.3184113	-0.25648823	0.10147924
from	0.20574003	-0.3500523	0.7256265	-0.089144886	-0.21080361	-0.24176034	0.32060662	-0.022615075	0.6292318	-0.67456937	-0.025114603	0.14665136	0.30676907	-0.6817007	-0.250045	0.2855249	-0.70385236	-0.17112748	-0.12968825	-0.12163096	-0.096340515	0.11511486	0.31699318	-0.12846185	-0.02072401	-0.5395647	0.38582343	-0.26989362	0.03189134	-0.03627701	0.60731184	-0.009575421	-0.4433497	0.31020737	-0.22068357	-0.22305706	0.031570286	-0.039860744	-0.50467515	-0.6926197	-0.34690428	-0.28634137	-0.2828293	0.32851326	0.7225715	0.061586034	-0.11386426	0.5358616	0.3738283	0.39111844
nothing	0.42841256	-0.2922343	0.22882646	0.0041788258	-0.16038808	-0.14859875	0.2786494	0.5918679	0.22073804	-0.33045584	-0.2135693	-0.40576833	-0.32256705	-0.27219182	-0.48264402	0.4839943	-0.3439343	-0.5325414	0.35648638	-0.23847961	-0.14776552	-4.914403e-05	0.41690102	0.39812502	0.4250051	-0.9120573	0.625901	-0.44557285	-0.037205707	0.09377445	0.33424985	0.17986172	0.094279096	-0.08341597	-0.109077245	-0.10575892	0.5520294	-0.8790163	-0.8220123	-0.4999752	-0.30490252	-0.5430568	-0.12549451	0.36566162	0.4777521	-0.24899347	-0.05536902	0.17097682	-0.03598211	-0.13257942
once	0.5062577	0.25357294	0.3008986	-0.2766595	0.102035366	0.20102194	0.33082908	-0.20134184	0.36034298	-0.37042403	-0.15847176	-0.092228375	0.24116309	-0.49456018	-0.041038632	0.55087143	-1.0462863	0.2864098	-0.3423844	0.4148367	0.24486922	-0.2299912	0.4207375	0.082577	0.22283044	-0.8117585	0.5279116	-0.59328914	-0.39025223	0.56545305	0.52356654	0.06695716	0.6873557	-0.2929377	-0.20113274	-0.5857445	0.24665338	-0.18433404	-0.5387831	-0.73985064	-0.1638338	-0.12329456	-0.004297845	0.49726892	0.40855095	-0.2995066	0.23138034	0.3233091	-0.03724425	0.53593266
we	0.73816186	-0.11928733	0.33098447	-0.38018352	-0.15103506	0.060878016	0.3214851	0.11762622	0.45104712	0.051476315	-0.31485847	0.39438814	0.5585196	-0.039627016	-0.48171717	0.060533658	-0.42513514	-0.079241194	0.40895513	0.06650986	0.020795822	-0.113478936	0.6733512	0.37223655	0.1632649	-0.28342572	1.1893144	-0.35932198	0.17220023	0.08592287	0.65312344	-0.09839741	-0.065995	0.341312	-0.3253683	-0.35832718	0.055718973	-0.62551004	0.26538327	-0.61135864	0.20080104	0.1693383	-0.23390856	0.3377409	0.22857602	-0.17349304	-0.576862	0.29551774	-0.57426524	-0.08444349
march	0.2382482	-0.44226292	0.40107805	-0.2308275	-0.8917081	-0.37548593	0.075281195	-0.21330726	0.29658085	-0.42658338	-0.15358643	0.45748785	0.47003582	-0.35169452	-0.3316729	0.2582947	-0.4307607	0.10927684	0.44509387	0.6784978	-0.23160362	-0.14158547	-0.111945555	0.27154136	0.40292966	-0.6461842	0.8470424	-0.096871145	0.29280594	-0.06786025	0.84604645	-0.17188604	0.49406147	0.025298476	0.2406228	0.18460956	0.52282566	-0.2571648	-0.22447245	-0.8831202	0.15385865	-0.41314763	-0.71429557	0.042782135	-0.43247485	0.30076778	-0.2280412	0.56195056	-0.21713121	-0.07964194
large	0.031242058	-0.36259604	-0.09590747	-0.1742637	-0.5458017	-0.5388853	0.10181478	0.48905268	0.24866214	-0.30646154	-0.26551166	-0.24440461	0.7288586	-0.42925835	-0.047784865	0.020889591	-0.7581158	-0.10103524	0.013965696	0.18354648	0.0958632	-0.78808165	0.14771225	-0.088980466	0.29340875	-0.33153537	0.37420297	0.07027538	-0.4897587	-0.09966279	-0.10221453	0.048007637	0.16029516	-0.1212943	-0.8090365	-0.3884701	-0.16254176	-0.36220506	-0.87154716	-0.62359744	-0.63690275	-0.4639604	-0.4196729	0.6089736	0.19741082	0.37049726	-0.12898488	0.15907624	-0.5665169	-0.07313077
will	0.16903771	-0.39940366	-0.16742274	-0.80916226	-0.034825295	-0.31031254	0.1937535	0.14441568	0.5627844	-0.5706014	-0.14692822	-0.19605929	0.5557376	-0.054184124	0.1331907	-0.23979917	-0.23893312	-0.06804106	0.8317661	0.09738083	0.08568666	-0.5208727	0.30317324	0.45507115	-0.3322165	-0.52876234	0.301523	-0.15724942	0.30387574	-0.3488992	0.5673462	0.00343508	0.44131854	0.47332656	-0.45988628	-0.22928372	0.5829221	-0.86103535	0.49489242	-0.91294754	0.3601216	-0.029799357	-0.3219912	0.17517161	0.200454	-0.34715736	-0.54513067	0.8867481	0.4501276	-0.44663295
last	0.7540368	-0.4465568	0.10391983	0.110730946	0.36524203	0.17219175	0.48065674	-0.14277495	0.36754483	-0.43806848	-0.38480553	0.13493389	0.25644335	-0.67705965	-0.15731218	0.45093015	-0.86295044	0.560122	0.05419007	0.25151104	-0.3901028	-0.21998477	0.7968323	0.25058603	-0.12663452	-0.5272988	0.43893737	-0.18765004	-0.13144706	-0.15153968	0.21740493	-0.3565815	0.08213177	-0.20313922	-0.6671892	0.36343476	0.23695642	-0.18351646	-0.68739086	-0.4943692	0.43479526	-0.22110748	-0.7714865	-0.11870325	-0.0077248774	0.7416493	-0.31595153	0.13973726	0.054772303	-0.0035277158
found	0.11573911	-0.14078979	0.13793619	0.24134393	-0.5087197	-0.58429706	0.5482017	0.06892973	0.22572145	-0.037067086	-0.2827622	-0.1568006	-0.16324896	-0.34334135	-0.2523984	0.43452373	-0.0480418	0.4362495	-0.6279732	-0.02284886	0.25866008	-0.72481567	0.057393074	0.0742357	0.96638304	-0.61794317	1.1889452	-0.26931196	-0.37891838	0.030581849	0.41558084	0.09283677	0.574562	0.120931745	-0.21139748	0.26374984	0.071857095	-0.5241	-0.7298653	-0.40513098	-0.124321744	-0.08190292	0.36735108	0.5664423	0.21049985	0.096058026	-0.018623963	0.19995561	-0.22870466	-0.18993069
right	0.4712626	-0.2704032	0.43290192	0.58915025	-0.191861	0.119416825	-0.21222547	0.123289466	0.72500473	-0.18754832	-0.24888346	-0.2507791	0.6339479	-0.037517652	-0.046658333	-0.3468384	-0.4784801	-0.10092016	-0.19010247	0.033464614	-0.6319454	-0.2406149	0.042307563	0.27667487	-0.017842568	-0.9873186	0.9014229	-0.08747148	-0.40308827	0.10791673	0.9394965	-0.48167366	-0.23510693	0.19158861	-0.34483105	0.18509051	0.10324235	-0.020519111	-0.33459437	-0.46017557	0.2700727	-0.126045	-0.037404593	0.5186122	0.43999702	0.32579625	0.0015620217	0.83771634	0.027101588	0.4571901
tell	0.28548706	-0.7453554	0.03472224	0.32555065	-0.2167047	-0.48923147	-0.24650112	0.719612	0.5571141	-0.41640514	-0.09432801	-0.072798945	0.07311466	-0.14642279	-0.37159324	0.46631807	-0.28848064	0.022997499	0.2964043	0.5791112	0.16599786	-0.07987147	0.2636662	0.2117503	0.02149269	-0.3115427	0.46091044	-0.21172571	0.32091576	0.6236916	0.50653404	0.30612892	0.017378304	0.102708675	-0.38743743	-0.10669567	-0.11464557	-0.60513127	-0.73479754	-0.57112944	0.5482898	0.033539727	-0.57615507	0.36361235	0.16257301	-0.41776967	0.13407812	0.71250945	-0.045185164	0.107350275
looking	0.12234906	-0.00901491	0.06679395	-0.009796694	-0.028707154	-0.22077939	0.2138221	0.012915768	0.36106837	-0.28456542	0.44502982	-0.07052276	0.3448224	-0.45338035	0.062102124	0.18344459	-0.98051125	0.5962503	-0.22827968	0.50575674	0.09862531	-0.12848958	0.37292627	0.11448241	0.43479294	-0.41260296	0.68716323	-0.3229637	0.06719673	0.016905548	0.54597574	0.41177952	0.38205642	0.1865229	-0.67865574	-0.14438546	0.26652887	-0.5672195	-0.39648145	-0.87315077	0.121486574	-0.077839024	-0.34261882	-0.11142746	-0.29118708	0.4258179	0.12626216	0.6202392	0.056891248	0.40360457
moment	0.5634243	-0.2893507	0.25744304	0.48564476	-0.11576468	-0.42602456	0.42825466	0.25107253	0.24549934	-0.6734824	-0.09983678	0.20203567	0.14730787	-0.21042234	-0.39289713	0.40786153	0.09421727	0.035257217	0.012300849	0.5115706	-0.10061817	-0.5681318	0.28000724	0.53309625	0.976459	-0.42056948	0.7483229	-0.20171185	-0.29199368	0.10580491	0.525098	-0.14950071	0.4524312	0.20184174	0.022919849	-0.52044946	0.06010887	-0.7731184	-0.29636604	-0.08652832	-0.41536617	-0.1639096	0.06359244	-0.03798677	-0.023678496	0.49770093	-0.20176457	0.20203978	-0.73960984	-0.30364212
put	0.44135553	-0.49102473	0.2888649	-0.107130915	-0.09417656	0.17890662	0.26149464	0.33166924	0.21171431	-0.24058045	-0.4950615	-0.020165337	0.3705526	-0.11939782	-0.07261449	0.14583205	-0.6807331	0.066024914	0.2316646	0.09440365	-0.7105125	-0.45324063	0.42980134	0.29946482	-0.08342714	-0.8297292	0.41472226	-0.6594568	-0.7683328	0.1249606	0.24845168	-0.07420032	0.024538465	0.08761656	-0.23417923	-0.34477943	-0.2621528	0.19071725	-0.3022418	-0.3996122	-0.15113431	0.0104149245	-0.075822696	0.34773815	0.16362743	0.6897466	0.011053517	1.1328282	-0.12858866	0.3719465
things	-0.11655	-0.54399616	0.10896338	-0.11771709	-0.3836123	-0.38144016	0.094452456	0.68838793	0.40653288	-0.26414555	-0.09226289	-0.33629858	0.27101198	-0.5386813	0.49280927	-0.10996857	-0.44819948	-0.5516076	-0.07934171	0.0035996716	0.01705816	-0.12422876	0.13787007	0.5087749	0.22304793	-0.88492274	0.8910275	-0.42000672	-0.52635527	0.08328062	0.25467107	-0.12682383	-0.42705783	0.8385463	-0.037018206	-0.05318348	0.2700482	-0.7001457	-0.41080296	-0.51763976	0.6471052	0.2299638	-0.29346904	0.05194152	0.118352704	0.26231462	0.419702	0.25363594	-0.36397523	0.49365467
long	0.28187114	-0.22018245	0.40687877	0.093767926	0.20275578	-0.24625657	0.19466916	0.15626624	0.600845	0.010615081	0.0101193	0.40722752	0.07845025	-0.9270887	0.03868079	-0.06646727	-0.8038343	-0.102609545	-0.62023526	-0.5419202	0.21750924	-0.23095617	0.32941383	0.09098198	0.21851921	-0.58611774	0.9249986	-0.36924896	-0.24924813	0.22578064	-0.07306943	-0.15599068	0.2985517	0.47836298	-0.05514817	-0.039206237	0.3059987	-0.42049396	-0.7826749	-0.6545967	-0.28402808	-0.10062508	0.29615945	0.15148869	-0.0767947	-0.20538843	-0.14953996	0.26077408	-0.2013874	-0.20286456
hare	0.04109481	0.09277329	0.58126795	0.08296457	-0.13787341	-0.29309887	0.19714054	-0.21572179	0.28761634	-0.37782085	-0.2907992	0.13903272	0.4268571	-0.076016486	-0.35372975	-0.017583422	-0.5347268	0.14186135	0.62383497	0.1920207	-0.21060662	-0.04524938	0.05140292	0.8345262	0.48343804	-0.8210971	0.8303669	-0.26945356	0.517738	-0.21713942	0.7784555	0.24784952	0.72799754	0.43538004	0.2716248	0.35626784	0.8229677	-0.17485487	-0.21457002	-0.90904593	0.051335543	-0.15913995	-0.90196395	0.22781055	0.08490759	0.16846463	0.15535526	0.5845628	0.0034419866	0.48491895
made	0.3046364	0.13095336	0.8823913	-0.37646455	0.24751583	-0.40980476	0.5632516	-0.011235148	0.627257	-0.71884304	0.56634927	0.23932636	0.11985947	-0.39011642	-0.30636844	0.056733638	-0.72315735	0.06653312	0.0900175	0.18500197	0.06725481	-0.20662889	0.23088382	-0.12601916	-0.31567255	-0.81690854	0.3349117	0.0056294724	-0.35891867	-0.11414622	0.010561664	-0.16215	0.12886478	0.32644847	-0.51263964	-0.029453162	-0.14274412	-0.60489714	-0.61212754	-0.707642	0.0077534616	-0.2952997	-0.30519828	0.2271221	0.25037223	0.3331093	-0.17509378	0.09149648	0.03372701	0.20373589
white	-0.30453274	-0.30629942	0.40190023	-0.38013887	0.55531013	-0.6715852	0.9366948	0.21686232	0.028606229	-0.1730452	-0.13381767	0.39714485	0.39805385	-0.26986653	-0.4001556	0.12113854	-0.7230125	0.1748496	0.21044672	-0.28173533	-0.04130186	-0.28646013	0.51505154	0.42685992	0.4485982	-0.15438218	1.3048353	0.5499307	-0.07920841	0.12901272	0.1302222	0.11300251	0.13148853	0.07065668	-0.3172311	-0.27094397	-0.1083006	-0.16927639	-0.3970253	-0.68139666	-0.04451236	-0.5394267	-0.17753956	-0.45492607	-0.13508198	0.2998387	-0.12358249	0.8381573	-0.38074452	0.0026332922
next	0.21393469	-0.17473218	0.5092611	0.1766487	-0.13097174	0.18596496	0.131475	0.1819258	-0.024089664	-0.43758988	0.2944376	-0.12877598	0.452926	0.108232215	-0.22316624	-0.34166595	-0.5185294	0.63342494	0.18541113	0.11485684	-0.16428998	-0.057864875	0.33289346	0.19108647	0.05549369	-0.49818754	0.90708745	-0.34623575	0.4177625	-0.19155642	0.095868185	0.021244213	-0.22688733	0.2387903	-0.5144966	0.29107785	0.11314815	-0.56852627	-0.24077618	-0.27992514	-0.023691133	-0.5798073	0.036939874	0.09674604	0.8593607	-0.453566	-0.17941868	1.3687435	-0.28733674	-0.12805915
door	0.22739089	0.26705766	0.59650815	-0.4156087	-0.7423387	-0.036834225	0.52329874	-0.02044833	0.263429	-0.15883927	0.281559	-0.20340298	0.5533284	-0.1128927	-0.31310505	0.019529179	-0.7814062	0.39256036	0.076551676	-0.18788716	0.0530271	-0.9311486	0.58983445	-0.3011536	0.4155962	-0.22057131	0.32811195	-0.01932007	-0.07560214	-0.10421556	0.44374037	0.18134591	0.29364774	0.04352165	-0.30337003	0.52060485	-0.31558326	-0.857299	-0.83139706	-0.1829709	-0.44942838	-0.27405795	-0.92956465	0.1624972	-0.027264172	0.26865157	-0.17350625	0.00034332462	-0.39855725	0.22784567
heard	0.36888796	-0.46662468	0.81124496	-0.45440483	-0.17678344	0.46306235	0.38772193	0.15483788	0.44996762	-0.3765491	-0.20732939	-0.32023767	-0.22436324	-0.13595787	0.21179667	0.30622485	-0.39295882	-0.09346625	-0.23435843	0.255586	-0.48499668	-0.16069992	0.35522172	-0.220089	0.86641854	-0.44903094	0.70972157	-0.4701446	0.33094326	-0.35143912	0.20696838	-0.8688096	0.96093863	0.5443121	0.12287239	0.49335948	-0.5209895	-0.32501304	-0.33125052	-0.46212518	-0.2154447	-0.4447375	-0.34359077	0.516713	-0.06314772	-0.25214124	0.39985317	0.11769159	-0.45395118	0.18951307
day	0.3326669	-0.15719844	0.4117894	-0.024094947	0.26380536	-0.38991678	-0.13771635	0.5494604	0.5354982	-0.20705515	-0.7181217	-0.005638756	0.20547417	0.23065168	0.12628466	-0.13775331	-0.35535923	-0.34985223	0.35138455	-0.07640062	-0.061329886	-0.32477045	0.21432543	0.85700834	0.46837407	-0.30940127	0.6925335	0.007478401	-0.05791926	-0.16655584	0.11059451	-0.27156126	0.49409908	0.3835438	0.3655835	-0.6839297	0.23725587	-0.63568544	-0.024625424	-0.8153385	0.29471987	-0.20887507	-0.0688109	0.22871771	0.19827935	0.21455017	-0.13804021	0.22834355	0.06509274	-0.108786836
eyes	0.6402356	-0.58850384	0.34724912	-0.33674377	0.5371661	-0.1960786	-0.13509229	0.32274106	-0.019607987	-0.9165709	-0.096380636	0.07951626	0.33611807	-0.14662668	-0.19757533	0.17701189	-0.5552791	0.7158445	-0.583977	0.47224998	0.59151375	0.16045554	0.52877975	-0.3094316	0.23340628	-0.16104709	0.5056338	-0.035732422	-0.3571013	0.06652917	0.49264106	0.6129836	-0.09233783	-0.44335803	-0.5184084	-0.14899762	-0.030687168	-0.20453678	-0.8901455	-0.71415377	-0.3572697	0.004877098	-0.41142294	0.6057538	-0.010826148	0.37980697	-0.43086588	0.29165468	-0.05022855	-0.2952491
dear	0.8870608	-0.16508405	-0.627529	0.16600826	-0.7594334	-0.18563013	0.33726233	0.3783654	0.14891969	-0.3336445	0.13948342	-0.35388273	-0.17629749	-0.24433638	-0.2427423	-0.88675606	0.12891906	0.1069741	-0.44943735	0.0084051415	0.05188145	-0.08224487	0.8368585	0.53130144	-0.021667361	-0.439062	0.5421924	-0.24530981	-0.39046848	-0.04400705	0.28413418	-0.4343822	-0.3162105	0.3509016	-0.38276178	-0.30014864	-0.27479106	-0.6119488	-0.24177335	-0.32234883	0.34286222	-0.41995692	-0.68872356	0.34199113	0.3569132	-0.22439833	0.057130158	0.94809663	-0.053221136	-0.014705511
look	0.598648	-0.3838424	0.8259031	-0.04391388	-0.16375454	-0.028802127	0.03214877	0.17814362	0.07909992	0.1194229	-0.052667543	0.05131302	0.04698217	-0.05895102	-0.11072445	0.17252839	-0.5949624	0.02393845	0.51607263	-0.024129063	0.07197167	0.18425448	0.44236523	0.291004	-0.0487577	-1.1470598	0.26955727	0.14176539	-0.80118537	0.28121707	0.60186243	-0.51738775	0.2348154	0.21726593	-0.26219386	-0.40011454	-0.23225677	-0.2500263	-0.603896	-0.84727323	0.10963613	-0.46899974	0.011204686	0.15694453	-0.10777112	-0.05730972	-0.43754283	0.16251186	-0.23861176	0.10585447
d	0.7932228	-0.32059902	0.1139783	-0.6014057	-0.4077653	0.06884502	0.21911637	0.8082769	0.4808515	-0.18918219	-0.27074668	-0.075527735	0.31308737	-0.17610368	0.23198055	0.18074599	-0.48357034	-0.38528326	0.22786787	0.26989764	-0.23202798	-0.35173705	0.2079868	-0.08768071	-0.6754482	-0.58290577	0.48582393	-0.5266371	0.12512329	-0.09890808	0.901193	-0.22065118	0.04149136	0.6144659	-0.048845135	0.12234568	-0.16160548	-0.07193723	-0.3958513	-0.21882881	-0.2044326	-0.025964782	0.34252903	0.9452908	0.47592074	-0.25207466	-0.08125617	0.5408324	-0.25170937	-0.17961659
replied	0.64422756	-0.09171354	0.38970852	-0.066298716	-0.23111896	-0.14111033	-0.066513464	0.17977752	0.5917518	0.20290841	-0.36749884	0.008364748	0.024928398	0.28041127	-0.71497416	0.0043859035	-0.7590451	-0.051904067	0.31353074	-0.24394564	0.14409915	-0.2415822	0.47587138	0.04748541	-0.07042445	-0.08285585	1.0154244	-0.1141631	0.23236234	0.5340247	0.37807024	-0.48343235	0.054598674	-0.06934802	-0.28099206	0.05576162	0.049670696	-1.0955781	-0.5689119	-0.40662223	0.3365492	-0.16430403	-0.4169124	-0.44972914	0.5228427	-0.39248	0.44128913	-0.19993514	-0.2546752	0.27815256
might	0.023419067	-0.20272118	0.48564434	0.15413871	-0.1478829	-0.33484864	-0.4361979	0.41721037	0.70173985	-0.42494977	-0.23198137	0.2199719	-0.07918078	-0.22422192	0.47049356	-0.2525516	-0.30225325	0.22678514	0.77168226	-0.20823921	-0.27555817	-0.77393717	0.30247623	0.10471592	-0.27944416	-0.39827266	0.6746601	0.14845948	0.048799943	0.33328867	0.44359562	0.089438155	-0.13058311	0.40914595	-0.29561928	0.6363786	0.19806078	-1.0376484	-0.47061583	-0.37798837	-0.35873592	0.011165187	-0.43311673	0.3706477	-0.060123757	-0.58023745	0.25918096	0.18108593	-0.08673984	-0.36371207
three	0.5570273	0.028938513	0.49041486	0.04125949	0.64388704	-0.22182703	0.9761757	0.25191513	0.06349506	-0.802433	-0.26647812	0.68031317	0.5160025	0.1773464	-0.3681418	-0.057533138	-0.70769966	0.34260046	0.10306554	-0.15464228	-0.36623016	-0.4573593	0.5820488	-0.27673057	0.31599617	-0.11611965	0.38969636	0.3796361	-0.10925787	-0.29547215	-0.05471958	-0.38038683	0.07585028	-0.14403856	-0.6747385	0.20762198	-0.15083766	-0.6029782	-0.21725097	-0.71423936	0.3579768	0.049494263	-0.35092467	0.22051632	0.044357575	-0.2598511	0.6470101	0.5592189	-0.16394044	-0.037606135
seemed	0.041327655	-0.7723572	0.43397328	0.4477507	-0.33619115	-0.0064134486	0.2978692	0.032873925	0.12482991	-0.8018004	-0.66710085	-0.29284754	0.43620506	-0.17285544	0.34542298	0.004986182	-0.54810774	0.06662455	-0.3142334	-0.06776904	-0.03612104	-0.2693153	0.23335452	0.26884836	-0.30185813	-0.5594059	0.49868262	-0.13750789	-0.5506913	-0.17668131	-0.006759815	0.21426256	-0.015215188	0.22244465	-0.38556388	-0.43890613	-0.24393201	-0.48458034	-0.7461314	-0.26872802	0.38848132	-0.20030232	-0.06277302	0.84043205	-0.21330808	-0.3611973	0.18811083	0.20449415	-0.65545046	0.3666508
going	0.69973636	-0.016392812	0.44981557	0.16519815	-0.15125506	-0.050342783	-0.14136627	0.19216034	0.22637887	-0.5446631	-0.24181738	-0.28023505	0.26330656	-0.29966295	-0.08431134	0.6438021	-0.41161364	0.46216375	-0.006748624	-0.3437469	-0.11005936	-0.06007372	0.20723805	0.022289656	-0.103371575	-0.238388	0.80618954	-0.13411024	-0.42657217	0.46488857	0.9672636	0.25745603	0.3427348	0.58193785	0.10868951	0.17336757	-0.38521063	-0.41522402	-0.03870002	-0.5050058	0.07261867	-0.035725474	0.3950988	-0.039916195	0.31285137	-0.24910772	-0.29096764	0.90236974	-0.25667048	-0.40020972
make	0.5231978	-0.24425372	0.07074946	-0.16375688	0.04792799	-0.5685748	0.27596444	0.6546165	0.74715936	0.09835121	0.099065065	0.11609118	0.39071307	-0.34811586	0.016209628	0.17573027	-0.58898723	-0.130947	0.28790975	-0.10124233	0.4476782	-0.4879691	0.7212561	0.1529454	0.8152933	-0.3967036	-0.07392191	0.19864988	-0.14640875	0.102320015	0.6967008	0.32374018	-0.24318174	0.17487264	0.6179057	-0.1414218	-0.022915903	-0.20577952	-0.30805135	-0.76044023	0.697086	-0.32676914	-0.17792703	0.06282286	0.0017901361	-0.025402013	0.09063117	0.86139476	0.040423058	-0.21333012
good	0.3622405	-0.7696392	-0.02927804	0.3300785	0.16165276	-0.41062897	0.5398622	-0.2534949	0.36268178	-0.25150394	-0.15021607	0.3513377	0.27343664	-0.49851128	-0.2633241	0.60563993	-0.35455406	-0.26568386	-0.01589603	-0.49337798	-0.5066807	-0.4200382	0.6317487	-0.19854179	0.29045546	-0.47693256	0.7391877	0.5671472	-0.073703215	0.06448437	0.46844983	-0.08727621	-0.29881972	0.036357403	-0.21261409	-0.20935044	0.028977498	-0.4021151	-0.75048035	-0.073759586	0.49421436	-0.66381717	-0.14855872	0.40132785	0.19008642	0.097593375	-0.34390026	0.52832127	-0.08918199	-0.19884105
